NULL cruel 1.0000000
deep j' 0.0344828
invite j' 0.0344828
NULL j' 0.1034483
compliments j' 0.0344828
let j' 0.0344828
summarise j' 0.0344828
expect j' 0.0689655
i j' 0.6551724
use saisir 1.0000000
close issue 0.5000000
outcomes issue 0.5000000
firstly premièrement 1.0000000
having soumis 1.0000000
structures compétitives 1.0000000
regional régionale 0.7142857
' régionale 0.1428571
s régionale 0.1428571
observed conformer 0.5000000
be conformer 0.5000000
given donne 0.3333333
producing donne 0.3333333
are donne 0.3333333
actually cité 1.0000000
endorsed souscrit 1.0000000
millennium millénaire 0.2000000
new millénaire 0.2000000
happy millénaire 0.2000000
and millénaire 0.2000000
year millénaire 0.2000000
distinguished septembre 0.3333333
september septembre 0.6666667
inappropriately inadmissible 1.0000000
alone villes 0.3333333
cities villes 0.6666667
NULL mieux 0.2857143
better mieux 0.1428571
will mieux 0.1428571
doubt mieux 0.1428571
respond mieux 0.1428571
available mieux 0.1428571
live accommoder 0.5000000
with accommoder 0.5000000
credibility crédibilité 1.0000000
experts experts 0.3333333
concerned experts 0.3333333
are experts 0.3333333
tend disparaisse 1.0000000
years écoulées 1.0000000
first abord 0.1818182
NULL abord 0.1818182
firstly abord 0.3636364
thank abord 0.0909091
all abord 0.1818182
presents conclusions 0.3333333
political conclusions 0.3333333
conclusions conclusions 0.3333333
left laissée 1.0000000
accept acceptons 0.5000000
therefore acceptons 0.5000000
ensure garantir 0.2500000
to garantir 0.2500000
maximum garantir 0.2500000
10 garantir 0.2500000
yourself vous-même 1.0000000
adequately démontrent 1.0000000
any nullement 1.0000000
consumers elles-mêmes 0.2500000
for elles-mêmes 0.2500000
companies elles-mêmes 0.2500000
and elles-mêmes 0.2500000
advocates problèmes 0.0909091
NULL problèmes 0.1818182
later problèmes 0.0909091
with problèmes 0.0909091
difficult problèmes 0.0909091
problems problèmes 0.4545455
so parce 0.2000000
was parce 0.2000000
do parce 0.4000000
because parce 0.2000000
request demande 0.2068966
NULL demande 0.1379310
answer demande 0.0344828
requests demande 0.0344828
would demande 0.1724138
moves demande 0.0344828
ask demande 0.1034483
possibly demande 0.0344828
urge demande 0.0344828
propose demande 0.0344828
wonder demande 0.0344828
requesting demande 0.0344828
call demande 0.0344828
demand demande 0.0344828
ppe-de demande 0.0344828
is altérations 1.0000000
part surtout 0.5000000
take surtout 0.5000000
fair est-ce 0.5000000
would est-ce 0.5000000
drawing certaines 0.1250000
willing certaines 0.1250000
reservations certaines 0.1250000
NULL certaines 0.1250000
alleviate certaines 0.1250000
broke certaines 0.1250000
some certaines 0.1250000
opinions certaines 0.1250000
provide nouvelles 0.1666667
technology nouvelles 0.1666667
new nouvelles 0.6666667
xviiith xxviiie 0.3333333
' xxviiie 0.3333333
s xxviiie 0.3333333
happens reproduit 1.0000000
codecision codécision 0.6000000
legislation codécision 0.2000000
procedure codécision 0.2000000
phase zonage 0.2500000
zoning zonage 0.7500000
they ils 0.4285714
democrat ils 0.1428571
reform ils 0.1428571
NULL ils 0.1428571
mind ils 0.1428571
had pratiquée 0.2000000
existing pratiquée 0.2000000
which pratiquée 0.2000000
has pratiquée 0.2000000
dramatic pratiquée 0.2000000
completely faudrait 0.1250000
NULL faudrait 0.2500000
be faudrait 0.3750000
should faudrait 0.2500000
wealth richesse 1.0000000
NULL me 0.1666667
somewhat me 0.0416667
me me 0.0416667
seems me 0.0833333
mistaken me 0.0416667
grateful me 0.0416667
appears me 0.0416667
drawing me 0.0416667
to me 0.2083333
opposite me 0.0416667
dear me 0.0416667
wonder me 0.0416667
am me 0.1250000
i me 0.0416667
affected basses 0.2500000
cold basses 0.2500000
are basses 0.2500000
by basses 0.2500000
courts tribunal 1.0000000
thought trouvé 0.5000000
that trouvé 0.5000000
NULL type 0.3333333
type type 0.3333333
objection type 0.3333333
hours réduction 0.3333333
working réduction 0.3333333
reduction réduction 0.3333333
they reconsidérée 0.3333333
reconsider reconsidérée 0.3333333
, reconsidérée 0.3333333
hedge ltcm 1.0000000
be injustifiée 0.5000000
unjustified injustifiée 0.5000000
quite résumer 1.0000000
NULL assentiment 1.0000000
them conférera 0.3333333
gives conférera 0.3333333
edge conférera 0.3333333
be serait-elle 0.5000000
then serait-elle 0.5000000
compensate jamais 0.2500000
NULL jamais 0.2500000
never jamais 0.5000000
ideologue idéologue 0.5000000
an idéologue 0.5000000
balance rapports 0.0909091
both rapports 0.1818182
relationships rapports 0.0909091
relations rapports 0.0909091
reports rapports 0.5454545
from exode 0.3333333
areas exode 0.3333333
exodus exode 0.3333333
live habiter 1.0000000
stand situation 0.2000000
NULL situation 0.1000000
situation situation 0.6000000
at situation 0.1000000
wurtz wurtz 1.0000000
of note 0.3333333
this note 0.3333333
note note 0.3333333
investments nature 0.3333333
a nature 0.3333333
purely nature 0.3333333
modernised moderniser 1.0000000
complete achevé 1.0000000
strategically stratégique 0.3333333
strategic stratégique 0.6666667
to adresse 0.6666667
compliments adresse 0.3333333
delayed reporté 0.5000000
until reporté 0.5000000
it mélanger 1.0000000
delivered étaient 0.3333333
depend étaient 0.3333333
are étaient 0.3333333
networks afférents 1.0000000
particular annexes 1.0000000
cen cen 1.0000000
wish majorité 0.2500000
majority majorité 0.5000000
right-wing majorité 0.2500000
longstanding déjà 0.0833333
NULL déjà 0.0833333
already déjà 0.7500000
highlighted déjà 0.0833333
as jungfernrede 1.0000000
whole ensemble 0.1250000
a ensemble 0.1250000
as ensemble 0.1250000
NULL ensemble 0.2500000
together ensemble 0.1250000
all ensemble 0.2500000
destructive importance 0.1000000
set-piece importance 0.1000000
NULL importance 0.1000000
importance importance 0.7000000
here livrer 0.5000000
speech livrer 0.5000000
must faudra 0.3333333
will faudra 0.3333333
study faudra 0.3333333
upturn autonome 0.5000000
self-supporting autonome 0.5000000
probably peut-être 0.5000000
misunderstandings peut-être 0.5000000
as abouti 0.1666667
regard abouti 0.1666667
come abouti 0.1666667
having abouti 0.1666667
end abouti 0.1666667
an abouti 0.1666667
care soins 1.0000000
populations dispersé 0.5000000
and dispersé 0.5000000
among parmi 1.0000000
prerequisites conditions 0.1111111
living conditions 0.2222222
conditions conditions 0.6666667
previously précédemment 1.0000000
accord source 0.3333333
own source 0.3333333
its source 0.3333333
protection protection 1.0000000
concerned avis 0.1111111
is avis 0.1111111
opinion avis 0.1111111
view avis 0.2222222
hold avis 0.1111111
believe avis 0.1111111
feel avis 0.1111111
read avis 0.1111111
NULL après 0.1428571
day après 0.1428571
that après 0.1428571
examine après 0.1428571
we après 0.2857143
if après 0.1428571
less diminuerait 1.0000000
members députés 0.4000000
NULL députés 0.2000000
for députés 0.2000000
vast députés 0.2000000
order prévu 1.0000000
like profite 0.5000000
would profite 0.5000000
amount certain 0.2000000
NULL certain 0.2000000
in certain 0.2000000
which certain 0.2000000
this certain 0.2000000
the donc 0.0344828
so donc 0.0344828
accept donc 0.0689655
NULL donc 0.1724138
affect donc 0.0344828
therefore donc 0.3793103
hereby donc 0.0344828
remember donc 0.0344828
raise donc 0.0344828
thus donc 0.0344828
let donc 0.0344828
wonder donc 0.0344828
makes donc 0.0344828
this donc 0.0344828
very vivement 0.5000000
much vivement 0.5000000
attempted tenté 1.0000000
funding financements 0.2500000
that financements 0.2500000
matched financements 0.2500000
is financements 0.2500000
requires favorise 1.0000000
decisive décisif 0.5000000
importance décisif 0.5000000
accept accepter 0.3333333
cannot accepter 0.3333333
citizens accepter 0.3333333
azores açores 1.0000000
them éventuellement 0.5000000
certificates éventuellement 0.5000000
, prêtera 1.0000000
tell direz 0.2500000
will direz 0.2500000
me direz 0.2500000
situations direz 0.2500000
seriously yeux 1.0000000
at 12 1.0000000
one entier 0.2500000
month entier 0.2500000
working entier 0.2500000
full entier 0.2500000
talk défaillance 0.5000000
wrong défaillance 0.5000000
unnecessary rupture 1.0000000
house notre 0.0303030
our notre 0.5454545
NULL notre 0.2121212
jonckheer notre 0.0303030
elected notre 0.0303030
participate notre 0.0303030
failed notre 0.0303030
this notre 0.0909091
lead individuelle 1.0000000
argues défend 1.0000000
just excuse 0.5000000
excuse excuse 0.5000000
programmes programmation 0.2500000
programming programmation 0.5000000
set programmation 0.2500000
am dis 0.5000000
raising dis 0.5000000
to expliquer 0.2500000
it expliquer 0.2500000
explain expliquer 0.5000000
wholehearted soutiens 1.0000000
NULL éviter 0.2000000
framework éviter 0.4000000
; éviter 0.2000000
abuses éviter 0.2000000
1 1 0.8888889
status 1 0.1111111
support soutiendrez 0.5000000
will soutiendrez 0.5000000
boosting stimulation 1.0000000
a rendrai 1.0000000
someone personne 0.3333333
NULL personne 0.1666667
from personne 0.1666667
customers personne 0.1666667
anyone personne 0.1666667
relates retour 0.5000000
retrodisplacement retour 0.5000000
brussels bâtiments 1.0000000
reminiscent représentent 1.0000000
meeting réuni 0.5000000
committee réuni 0.5000000
general généraux 1.0000000
existing affaiblir 0.5000000
watering-down affaiblir 0.5000000
closed clos 1.0000000
s elle-même 1.0000000
people jeunes 0.5000000
young jeunes 0.5000000
specific spécifiques 1.0000000
so jusqu' 0.3333333
NULL jusqu' 0.3333333
interpret jusqu' 0.3333333
oral orale 1.0000000
sufficiently serait 0.0625000
NULL serait 0.0625000
it serait 0.1875000
would serait 0.2500000
is serait 0.0625000
legally serait 0.0625000
suggested serait 0.0625000
be serait 0.2500000
ours diversité 0.5000000
diversity diversité 0.5000000
december décembre 0.7500000
1999 décembre 0.2500000
NULL partie 0.2000000
part partie 0.4000000
, partie 0.2000000
proposals partie 0.2000000
strict formelle 1.0000000
exclusion exclusivement 0.2500000
of exclusivement 0.2500000
else exclusivement 0.2500000
all exclusivement 0.2500000
comment brièvement 0.2500000
highlight brièvement 0.2500000
briefly brièvement 0.5000000
our ceux-ci 1.0000000
assessments ex 0.5000000
ante ex 0.5000000
risks évidentes 0.2500000
entails évidentes 0.2500000
that évidentes 0.2500000
this évidentes 0.2500000
economic économiques 0.5000000
facts économiques 0.2500000
operators économiques 0.2500000
it haute 0.5000000
hi-tech haute 0.5000000
used mobilisé 1.0000000
mentioned mentionné 0.5000000
referred mentionné 0.5000000
products produits 1.0000000
as ajouté 1.0000000
re-establishes redonne 1.0000000
pleasant vacances 0.2000000
period vacances 0.2000000
a vacances 0.2000000
festive vacances 0.2000000
enjoyed vacances 0.2000000
a tardivement 0.1000000
parliament tardivement 0.1000000
only tardivement 0.2000000
date tardivement 0.1000000
come tardivement 0.1000000
has tardivement 0.1000000
late tardivement 0.1000000
at tardivement 0.1000000
about tardivement 0.1000000
provide bien-être 1.0000000
do investissements 0.3333333
diversity investissements 0.3333333
lesser investissements 0.3333333
house parlement 0.1666667
NULL parlement 0.0555556
record parlement 0.0277778
parliament parlement 0.7500000
answered répondu 1.0000000
proposing proposons 0.2000000
propose proposons 0.2000000
both proposons 0.2000000
keeping proposons 0.2000000
are proposons 0.2000000
to traitera 1.0000000
benefits y 0.0312500
bernié y 0.0312500
adopted y 0.0312500
NULL y 0.2500000
are y 0.0625000
disgraceful y 0.0312500
ago y 0.0625000
is y 0.3125000
sorely y 0.0312500
there y 0.0312500
deal y 0.0312500
to y 0.0312500
comprehensive y 0.0312500
weight y 0.0312500
suggest suggère 1.0000000
pillars réfèrent 1.0000000
marketing commercialiser 1.0000000
obstacle obstacle 1.0000000
so adressait 0.3333333
comment adressait 0.3333333
much adressait 0.3333333
banks banques 0.5000000
referred banques 0.5000000
american hedge 1.0000000
care médicaux 0.5000000
health médicaux 0.5000000
margarine margarine 1.0000000
just pousser 1.0000000
health santé 1.0000000
declared déclarée 1.0000000
be constituera 0.5000000
will constituera 0.5000000
are continuent 1.0000000
withdrawn ordre 0.1052632
on ordre 0.1578947
next ordre 0.0526316
NULL ordre 0.0526316
business ordre 0.2105263
agenda ordre 0.4210526
friday vendredi 0.6666667
reports vendredi 0.3333333
fuster collègue 0.0833333
said collègue 0.0833333
jonckheer collègue 0.0833333
member collègue 0.0833333
, collègue 0.1666667
fellow collègue 0.0833333
radwan collègue 0.0833333
fischler collègue 0.0833333
colleague collègue 0.0833333
mr collègue 0.1666667
what quelle 1.0000000
levels diminués 1.0000000
hearing entendrons 1.0000000
viable viable 1.0000000
it qu 0.1666667
NULL qu 0.1666667
he qu 0.1666667
my qu 0.1666667
advertising qu 0.1666667
see qu 0.1666667
competence la 0.0021552
the la 0.5775862
lead la 0.0021552
speak la 0.0043103
caused la 0.0021552
employment la 0.0021552
our la 0.0021552
policy la 0.0086207
its la 0.0021552
give la 0.0043103
president la 0.0409483
restrictions la 0.0021552
explosions la 0.0021552
television la 0.0021552
barriers la 0.0021552
how la 0.0064655
cooperation la 0.0021552
wealth la 0.0043103
directorate la 0.0021552
s la 0.0172414
foundation la 0.0021552
margarine la 0.0021552
consultation la 0.0021552
taxation la 0.0021552
used la 0.0021552
fisheries la 0.0064655
practical la 0.0021552
NULL la 0.1206897
most la 0.0021552
poverty la 0.0021552
research la 0.0107759
still la 0.0021552
certain la 0.0021552
safety la 0.0150862
apply la 0.0021552
plans la 0.0021552
to la 0.0043103
cohesion la 0.0237069
growth la 0.0086207
fall la 0.0021552
promoting la 0.0021552
regional la 0.0021552
towards la 0.0021552
shortage la 0.0021552
subsidiarity la 0.0043103
transparent la 0.0021552
. la 0.0021552
call la 0.0021552
hi-tech la 0.0021552
procedure la 0.0021552
asked la 0.0021552
including la 0.0021552
competition la 0.0431034
credibility la 0.0021552
force la 0.0021552
mix la 0.0021552
there la 0.0043103
amend la 0.0021552
hand la 0.0043103
keeping la 0.0021552
strengthening la 0.0021552
go accusation 1.0000000
was urbain 0.3333333
urban urbain 0.6666667
in avait 0.3333333
visited avait 0.3333333
adjourned avait 0.3333333
right constitutionnel 0.5000000
constitutional constitutionnel 0.5000000
NULL nombre 0.3333333
boost nombre 0.3333333
s nombre 0.3333333
considered considéré 1.0000000
cases pour 0.0076336
on pour 0.0381679
adapted pour 0.0076336
wishes pour 0.0076336
" pour 0.0076336
framework pour 0.0076336
luxembourg pour 0.0076336
keep pour 0.0152672
legislation pour 0.0076336
so pour 0.0152672
expected pour 0.0076336
alleviate pour 0.0076336
for pour 0.2671756
reasons pour 0.0076336
presently pour 0.0076336
decade pour 0.0076336
xviiith pour 0.0076336
used pour 0.0076336
achieving pour 0.0076336
with pour 0.0152672
alike pour 0.0076336
function pour 0.0076336
NULL pour 0.1068702
speaker pour 0.0076336
adequate pour 0.0076336
purpose pour 0.0076336
later pour 0.0076336
young pour 0.0076336
constructive pour 0.0076336
rules pour 0.0152672
regulate pour 0.0076336
needed pour 0.0076336
being pour 0.0076336
to pour 0.2290076
french pour 0.0076336
unknown pour 0.0076336
home pour 0.0076336
raising pour 0.0076336
attentive pour 0.0076336
congratulate pour 0.0076336
finally pour 0.0229008
through pour 0.0076336
everyone pour 0.0076336
effective pour 0.0152672
establishing conforter 1.0000000
reached parvenu 0.5000000
agreement parvenu 0.5000000
believe toutefois 0.1250000
discussed toutefois 0.1250000
but toutefois 0.2500000
however toutefois 0.5000000
mexico mexique 1.0000000
through engendrent 0.5000000
entails engendrent 0.5000000
working travailler 1.0000000
NULL obtenons 0.5000000
in obtenons 0.5000000
who estimeront 0.5000000
think estimeront 0.5000000
consequently ai-je 1.0000000
pre-accession préadhésion 1.0000000
direction davantage 0.1666667
actual davantage 0.1666667
NULL davantage 0.3333333
greater davantage 0.1666667
reminiscent davantage 0.1666667
NULL travail 0.1500000
work travail 0.4500000
job travail 0.1000000
well travail 0.0500000
jobs travail 0.0500000
report travail 0.0500000
exceptionally travail 0.0500000
extremely travail 0.0500000
his travail 0.0500000
as globalement 0.5000000
working globalement 0.5000000
development rythme 1.0000000
extraordinarily évolution 0.2500000
NULL évolution 0.2500000
how évolution 0.2500000
technical évolution 0.2500000
debate examinons 0.2500000
at examinons 0.2500000
up examinons 0.2500000
look examinons 0.2500000
affected ces 0.0285714
these ces 0.7142857
NULL ces 0.0285714
governing ces 0.0285714
storms ces 0.0571429
enforcement ces 0.0285714
those ces 0.0285714
aligned ces 0.0285714
borders ces 0.0285714
totally ces 0.0285714
recommended recommandait 1.0000000
" utiliser 0.3333333
be utiliser 0.3333333
spent utiliser 0.3333333
amount témoignant 1.0000000
implement venu 0.3333333
come venu 0.3333333
has venu 0.3333333
for appliquent 1.0000000
rejected rejette 1.0000000
said dit 0.4285714
NULL dit 0.1428571
already dit 0.1428571
expressed dit 0.1428571
been dit 0.1428571
lanka lanka 1.0000000
shifting déplaçant 0.5000000
by déplaçant 0.5000000
NULL socialistes 0.2500000
socialists socialistes 0.5000000
european socialistes 0.2500000
unfortunate position 0.1666667
matter position 0.1666667
NULL position 0.1666667
position position 0.3333333
stands position 0.1666667
object aurai 0.5000000
have aurai 0.5000000
so voilà 0.2857143
these voilà 0.1428571
purpose voilà 0.1428571
much voilà 0.1428571
are voilà 0.1428571
build voilà 0.1428571
apply régit 0.3333333
to régit 0.3333333
equally régit 0.3333333
aparicio aparicio 1.0000000
taken prise 0.2000000
be prise 0.2000000
into prise 0.2000000
consideration prise 0.2000000
slow prise 0.2000000
alleviate enrayer 1.0000000
quarters quarts 1.0000000
underlying reprises 0.3333333
principles reprises 0.3333333
NULL reprises 0.3333333
wynn logique 0.3333333
out logique 0.3333333
logical logique 0.3333333
rapkay rapkay 0.6000000
mr rapkay 0.4000000
regulatory obligations 1.0000000
observed respecté 0.5000000
be respecté 0.5000000
created efforcée 0.3333333
a efforcée 0.3333333
means efforcée 0.3333333
somewhat semblent 0.5000000
seem semblent 0.5000000
willing reprendre 0.5000000
include reprendre 0.5000000
individually devra 0.3333333
should devra 0.3333333
state devra 0.3333333
several plusieurs 0.1666667
number plusieurs 0.3333333
for plusieurs 0.1666667
lasted plusieurs 0.1666667
build plusieurs 0.1666667
buildings bruxelles 1.0000000
expeditiously unies 0.5000000
too unies 0.5000000
dismantled table 1.0000000
NULL enceinte 1.0000000
benefits compris 0.5000000
appreciate compris 0.5000000
at faut-il 1.0000000
form formes 0.3333333
shape formes 0.3333333
and formes 0.3333333
when quand 0.7500000
stands quand 0.2500000
wynn wynn 0.2500000
makes wynn 0.2500000
sense wynn 0.2500000
that wynn 0.2500000
on adresser 0.2500000
commend adresser 0.2500000
her adresser 0.5000000
over infrastructure 0.3333333
times infrastructure 0.3333333
many infrastructure 0.3333333
link lien 1.0000000
euro dollar 1.0000000
like grief 0.5000000
would grief 0.5000000
have conséquences 0.3333333
consequences conséquences 0.6666667
company certificats 1.0000000
below -20 1.0000000
observation constat 0.1666667
make constat 0.1666667
statement constat 0.1666667
let constat 0.1666667
fact constat 0.1666667
me constat 0.1666667
desired escomptés 0.3333333
producing escomptés 0.3333333
result escomptés 0.3333333
to semble 0.2500000
be semble 0.1250000
seem semble 0.1250000
feel semble 0.1250000
me semble 0.1250000
seems semble 0.2500000
true vrai 1.0000000
monti monti 1.0000000
whereas alors 0.1428571
provide alors 0.1428571
NULL alors 0.4285714
have alors 0.1428571
desperately alors 0.1428571
web web 1.0000000
solution solution 1.0000000
incentives stimuli 0.5000000
do stimuli 0.5000000
return revenir 1.0000000
speak parlerai 0.3333333
from parlerai 0.3333333
will parlerai 0.3333333
territory territoire 0.2500000
development territoire 0.5000000
national territoire 0.2500000
to erreur 0.3333333
mistake erreur 0.3333333
eliminate erreur 0.3333333
development recherche-développement 0.3333333
research recherche-développement 0.3333333
technological recherche-développement 0.3333333
NULL mène 0.3333333
does mène 0.3333333
and mène 0.3333333
optimum optimale 1.0000000
officials fonctionnaires 1.0000000
face confrontés 1.0000000
proposed proposés 1.0000000
NULL soi 0.1250000
in soi 0.1250000
themselves soi 0.1250000
end soi 0.1250000
an soi 0.1250000
itself soi 0.3750000
will introduira 0.5000000
introduce introduira 0.5000000
NULL brefs 1.0000000
several entre 0.0357143
quotation entre 0.0357143
balance entre 0.0357143
in entre 0.1071429
between entre 0.7142857
things entre 0.0357143
force entre 0.0357143
NULL principe 0.0909091
applies principe 0.0909091
principle principe 0.8181818
NULL loin 0.3333333
time-consuming loin 0.3333333
votes loin 0.3333333
minimal plus 0.0188679
weakest plus 0.0188679
most plus 0.0566038
degree plus 0.0188679
NULL plus 0.2075472
especially plus 0.0188679
barely plus 0.0188679
faster plus 0.0188679
furthermore plus 0.0188679
towards plus 0.0377358
seasonal plus 0.0188679
meeting plus 0.0188679
volume plus 0.0377358
entails plus 0.0188679
depend plus 0.0188679
either plus 0.0188679
logical plus 0.0188679
20 plus 0.0188679
little plus 0.0188679
be plus 0.0188679
greater plus 0.0377358
more plus 0.3207547
growing croissant 0.2000000
further croissant 0.2000000
in croissant 0.2000000
still croissant 0.2000000
and croissant 0.2000000
would citerai 0.5000000
cite citerai 0.5000000
livelihood vie 0.1111111
living vie 0.2222222
NULL vie 0.1111111
dwellers vie 0.1111111
life vie 0.4444444
or facile 0.1666667
for facile 0.1666667
easier facile 0.1666667
his facile 0.1666667
children facile 0.1666667
her facile 0.1666667
responsibility ' 0.0066225
quoted ' 0.0066225
aims ' 0.0066225
agriculture ' 0.0066225
modest ' 0.0066225
makes ' 0.0066225
prepared ' 0.0066225
based ' 0.0066225
appraisal ' 0.0066225
simply ' 0.0066225
daring ' 0.0066225
effectiveness ' 0.0066225
applied ' 0.0066225
union ' 0.0198675
follow ' 0.0066225
putting ' 0.0066225
hope ' 0.0132450
from ' 0.0066225
will ' 0.0198675
envisaged ' 0.0066225
eu ' 0.0397351
entrepreneurial ' 0.0066225
ownership ' 0.0066225
adopting ' 0.0066225
allocations ' 0.0066225
advertising ' 0.0066225
perhaps ' 0.0066225
excuse ' 0.0066225
times ' 0.0066225
given ' 0.0066225
modernised ' 0.0066225
speaking ' 0.0066225
2 ' 0.0066225
accorded ' 0.0066225
in ' 0.0264901
quite ' 0.0066225
paying ' 0.0066225
drafting ' 0.0066225
recently ' 0.0066225
reiterated ' 0.0066225
discover ' 0.0066225
event ' 0.0066225
referring ' 0.0066225
presently ' 0.0066225
differences ' 0.0066225
treatment ' 0.0066225
administrative ' 0.0066225
support ' 0.0066225
NULL ' 0.4503311
belatedly ' 0.0066225
purpose ' 0.0066225
confirm ' 0.0066225
fill ' 0.0132450
straight ' 0.0132450
had ' 0.0066225
flexible ' 0.0066225
austria ' 0.0066225
migration ' 0.0066225
requests ' 0.0132450
he ' 0.0132450
employers ' 0.0066225
seppänen ' 0.0066225
while ' 0.0066225
firstly ' 0.0198675
encouraging ' 0.0066225
dates remonte 1.0000000
certain convaincu 1.0000000
importance met 0.5000000
emphasises met 0.5000000
presentation annuelle 0.5000000
annual annuelle 0.5000000
standard énormes 0.5000000
money énormes 0.5000000
strongest centres 1.0000000
whole lequel 0.1666667
exclusion lequel 0.1666667
subsequently lequel 0.1666667
which lequel 0.3333333
fourthly lequel 0.1666667
NULL prises 0.2500000
taken prises 0.5000000
stands prises 0.2500000
well or 0.3333333
it or 0.3333333
NULL or 0.3333333
french expression 1.0000000
viable crédible 1.0000000
a soient 0.1666667
NULL soient 0.1666667
monies soient 0.1666667
iso soient 0.1666667
are soient 0.1666667
finer soient 0.1666667
fifthly cinquième 1.0000000
take profiter 0.5000000
this profiter 0.5000000
coordination coordination 0.6666667
NULL coordination 0.3333333
solutions solutions 1.0000000
forcefully véhémence 0.3333333
most véhémence 0.3333333
this véhémence 0.3333333
further renforcée 0.5000000
strengthened renforcée 0.5000000
largest apport 1.0000000
NULL veut 0.5000000
are veut 0.5000000
standard présentent 0.5000000
are présentent 0.5000000
are accusent 1.0000000
? . 0.0015106
NULL . 0.0090634
. . 0.9803625
p.m. . 0.0060423
restrictions . 0.0015106
adhere . 0.0015106
decisive rôle 0.1428571
essential rôle 0.1428571
role rôle 0.7142857
cut importante 0.2500000
important importante 0.5000000
where importante 0.2500000
signs application 0.1666667
NULL application 0.3333333
are application 0.1666667
retrodisplacement application 0.3333333
sufficiently suffisamment 0.2500000
adequate suffisamment 0.1250000
explained suffisamment 0.1250000
enough suffisamment 0.2500000
has suffisamment 0.1250000
sufficient suffisamment 0.1250000
passes vote 0.0666667
voted vote 0.0666667
time-consuming vote 0.0666667
vote vote 0.8000000
anti antisocial 0.5000000
grass-roots antisocial 0.5000000
more approfondissant 1.0000000
hope espère 1.0000000
environmental environnementale 1.0000000
NULL avec 0.1111111
geneva avec 0.0370370
exploit avec 0.0370370
condemned avec 0.0370370
carefully avec 0.0370370
wholehearted avec 0.0370370
urge avec 0.0370370
occasions avec 0.0370370
interfaces avec 0.0370370
expressed avec 0.0370370
coming avec 0.0370370
with avec 0.4814815
though avec 0.0370370
stands européen 0.0909091
european européen 0.9090909
suggested suggérer 1.0000000
vigilance vigilance 1.0000000
disbursed versement 0.2500000
which versement 0.2500000
are versement 0.2500000
by versement 0.2500000
openness clarté 0.3333333
NULL clarté 0.3333333
clarity clarté 0.3333333
discussing discutons 0.5000000
are discutons 0.5000000
comitology comitologique 1.0000000
want veux 0.1111111
to veux 0.1111111
NULL veux 0.1111111
wish veux 0.2222222
do veux 0.3333333
refer veux 0.1111111
characterised marquées 1.0000000
us parlait 0.5000000
spoke parlait 0.5000000
law applicable 0.3333333
applicable applicable 0.3333333
directly applicable 0.3333333
standards maintenir 0.3333333
at maintenir 0.3333333
safety maintenir 0.3333333
in théâtre 1.0000000
there diminué 0.2000000
rather diminué 0.2000000
decreased diminué 0.2000000
than diminué 0.2000000
increased diminué 0.2000000
consumer consommateur 1.0000000
wrote écrit 0.5000000
inform écrit 0.5000000
NULL souvent 0.1250000
often souvent 0.6250000
transparent souvent 0.1250000
not souvent 0.1250000
aid code 0.2500000
steel code 0.1666667
code code 0.5833333
ec 55 0.5000000
55 55 0.5000000
pursuing mener 0.3333333
prepared mener 0.3333333
being mener 0.3333333
through principalement 0.3333333
particularly principalement 0.3333333
mainly principalement 0.3333333
be appris 1.0000000
time demeurant 1.0000000
referred rapportaient 1.0000000
due important 0.0625000
matter important 0.0625000
NULL important 0.0625000
one important 0.0625000
discover important 0.0625000
important important 0.6250000
an important 0.0625000
proportion financer 1.0000000
going trop 0.0833333
NULL trop 0.0833333
processes trop 0.0833333
transparent trop 0.0833333
price trop 0.0833333
too trop 0.5000000
slow trop 0.0833333
would demanderais 0.2500000
ask demanderais 0.2500000
unjustified demanderais 0.2500000
also demanderais 0.2500000
country transit 0.1666667
transit transit 0.5000000
countries transit 0.3333333
phased publics 0.1250000
publicly publics 0.1250000
public publics 0.6250000
are publics 0.1250000
35 35 1.0000000
slowly lente 0.5000000
making lente 0.5000000
upon injustifiable 0.3333333
unjustifiable injustifiable 0.3333333
constraint injustifiable 0.3333333
mutual attentes 1.0000000
there fait-il 0.3000000
has fait-il 0.1000000
why fait-il 0.4000000
air fait-il 0.1000000
this fait-il 0.1000000
appeal lance 0.5000000
therefore lance 0.5000000
stretched milliers 0.5000000
this milliers 0.5000000
NULL précédaient 1.0000000
be clé 0.2000000
will clé 0.2000000
which clé 0.2000000
key clé 0.4000000
basic leçon 0.5000000
one leçon 0.5000000
reopen relancer 0.5000000
issue relancer 0.5000000
restructuring restructurations 0.5000000
offer restructurations 0.5000000
telling instructive 0.3333333
instructive instructive 0.3333333
in instructive 0.3333333
taxation fiscalité 0.5000000
regards fiscalité 0.5000000
impact répercussions 0.5000000
an répercussions 0.5000000
heard temps 0.1111111
part-time temps 0.1111111
NULL temps 0.1111111
time temps 0.5555556
at temps 0.1111111
unlawful illégale 1.0000000
such manières 1.0000000
waste dès 0.1428571
request dès 0.1428571
to dès 0.2857143
NULL dès 0.1428571
therefore dès 0.1428571
formally dès 0.1428571
NULL adaptation 1.0000000
industries technologie 0.3333333
sector technologie 0.3333333
hi-tech technologie 0.3333333
reports états-unis 1.0000000
NULL faute 0.2500000
from faute 0.2500000
that faute 0.2500000
apart faute 0.2500000
raises relève 0.1666667
NULL relève 0.1666667
will relève 0.1666667
relates relève 0.1666667
about relève 0.1666667
discussion relève 0.1666667
enforcement déficit 0.3333333
lament déficit 0.3333333
lack déficit 0.3333333
pre-accession ispa 0.5000000
structural ispa 0.5000000
boost augmentation 0.3333333
increased augmentation 0.3333333
increasing augmentation 0.3333333
do pénurie 0.5000000
shortage pénurie 0.5000000
in réparer 1.0000000
is ores 0.3333333
endorsed ores 0.3333333
something ores 0.3333333
wednesday mercredi 0.6000000
' mercredi 0.2000000
relating mercredi 0.2000000
aware connaît 1.0000000
operators substituer 1.0000000
military risque 0.5000000
coup risque 0.5000000
on vos 0.4000000
your vos 0.4000000
finding vos 0.2000000
explosions attentats 1.0000000
in limitation 0.5000000
restrictions limitation 0.5000000
jonckheer jonckheer 1.0000000
feet refusé 0.2000000
dragged refusé 0.2000000
regard refusé 0.2000000
with refusé 0.2000000
its refusé 0.2000000
denominator existence 0.5000000
common existence 0.5000000
text texte 0.5000000
itself texte 0.5000000
basic soit 0.0555556
NULL soit 0.1666667
meeting soit 0.0555556
yet soit 0.0555556
reconsider soit 0.0555556
dispose soit 0.0555556
rating soit 0.0555556
be soit 0.3333333
should soit 0.1111111
communication soit 0.0555556
our imposer 0.2500000
within imposer 0.2500000
power imposer 0.2500000
force imposer 0.2500000
provides 5,5 0.3333333
5.5 5,5 0.3333333
% 5,5 0.3333333
be seul 0.5000000
supporting seul 0.5000000
increase opportunités 0.5000000
no opportunités 0.5000000
NULL trouver 0.2000000
strike trouver 0.2000000
be trouver 0.2000000
opportunity trouver 0.2000000
find trouver 0.2000000
pertaining instituées 1.0000000
customers clientèle 1.0000000
partnership global 0.5000000
overall global 0.5000000
given traités 0.2000000
even traités 0.2000000
status traités 0.2000000
quo traités 0.2000000
treaty traités 0.2000000
budgetary termes 0.4000000
principle termes 0.2000000
and termes 0.2000000
welcomed termes 0.2000000
NULL car 0.1666667
reached car 0.0833333
for car 0.0833333
since car 0.1666667
because car 0.5000000
urged instamment 1.0000000
developed élaboré 1.0000000
mistaken indicateur 1.0000000
consider aborder 0.3333333
have aborder 0.3333333
we aborder 0.3333333
way environnement 0.2500000
it environnement 0.2500000
becomes environnement 0.2500000
that environnement 0.2500000
procedures procédure 0.1111111
latest procédure 0.1111111
order procédure 0.2222222
codecision procédure 0.2222222
procedure procédure 0.3333333
period temporaire 0.5000000
interim temporaire 0.5000000
conditions abus 1.0000000
towards devant 1.0000000
able acceptera 0.3333333
accept acceptera 0.3333333
is acceptera 0.3333333
interfaces articule 1.0000000
inequalities montée 0.3333333
increase montée 0.3333333
every montée 0.3333333
would préconisons 0.5000000
encourage préconisons 0.5000000
agriculture agriculture 1.0000000
raise avancer 1.0000000
follow suivra 0.5000000
2003 suivra 0.5000000
interesting extrêmement 0.1111111
very extrêmement 0.2222222
exceptionally extrêmement 0.1111111
extremely extrêmement 0.4444444
continuing extrêmement 0.1111111
profits gains 1.0000000
citizens citoyen 1.0000000
road route 1.0000000
firstly insistant 0.2000000
: insistant 0.2000000
things insistant 0.2000000
two insistant 0.2000000
stressing insistant 0.2000000
299 299 1.0000000
out efficaces 0.1666667
NULL efficaces 0.1666667
be efficaces 0.1666667
efficiently efficaces 0.1666667
carried efficaces 0.1666667
supplements efficaces 0.1666667
respect pourrait 0.3333333
may pourrait 0.6666667
business travaux 0.6000000
cen travaux 0.2000000
agenda travaux 0.2000000
there acceptation 1.0000000
finally enfin 0.4444444
conclude enfin 0.2222222
implement enfin 0.1111111
mention enfin 0.1111111
address enfin 0.1111111
transport transport 0.7000000
tankers transport 0.1000000
but transport 0.1000000
dangerous transport 0.1000000
revitalising revitaliser 0.5000000
relations revitaliser 0.5000000
towards opter 0.5000000
work opter 0.5000000
just rares 0.3333333
few rares 0.3333333
comments rares 0.3333333
here dans 0.0071942
NULL dans 0.1151079
economy dans 0.0071942
activity dans 0.0071942
safety dans 0.0071942
proliferation dans 0.0071942
whole dans 0.0071942
publicly dans 0.0071942
in dans 0.7050360
at dans 0.0287770
accommodated dans 0.0071942
scope dans 0.0071942
country dans 0.0071942
fit dans 0.0071942
accurate dans 0.0071942
principles dans 0.0071942
while dans 0.0071942
reality dans 0.0071942
type dans 0.0071942
continue dans 0.0215827
worse dans 0.0071942
decide dans 0.0071942
consumer consommation 1.0000000
marked dramatiquement 0.3333333
much dramatiquement 0.3333333
more dramatiquement 0.3333333
to occasion 0.2857143
opportunity occasion 0.5714286
prepared occasion 0.1428571
NULL auquel 0.3333333
reached auquel 0.3333333
by auquel 0.3333333
as aucuns 1.0000000
opinion sentiment 1.0000000
friend amie 0.3333333
very amie 0.3333333
great amie 0.3333333
out bon 0.0909091
NULL bon 0.0909091
very bon 0.0909091
work bon 0.0909091
carried bon 0.0909091
good bon 0.0909091
right bon 0.1818182
extremely bon 0.0909091
been bon 0.0909091
sound bon 0.0909091
link coordonner 0.5000000
NULL coordonner 0.5000000
it engendre 0.3333333
causes engendre 0.6666667
NULL étant 0.3333333
since étant 0.2222222
case étant 0.2222222
permitted étant 0.1111111
however étant 0.1111111
probable probable 1.0000000
is perd 1.0000000
barón barón 1.0000000
the devrions 0.0769231
NULL devrions 0.1538462
should devrions 0.7692308
shown avez 0.0625000
you avez 0.2500000
NULL avez 0.2500000
expressed avez 0.0625000
pointed avez 0.0625000
have avez 0.1875000
assessed avez 0.0625000
wrote avez 0.0625000
made fournis 1.0000000
very réelle 0.3333333
situation réelle 0.3333333
carefully réelle 0.3333333
undoubtedly auxquelles 0.3333333
NULL auxquelles 0.3333333
that auxquelles 0.3333333
it cela 0.0312500
NULL cela 0.1875000
information cela 0.0312500
check cela 0.0625000
just cela 0.0312500
properly cela 0.0312500
encourage cela 0.0312500
recession cela 0.0312500
this cela 0.5312500
superb cela 0.0312500
bitter âpres 1.0000000
lack absence 1.0000000
have devrons 0.2500000
another devrons 0.2500000
sector devrons 0.2500000
where devrons 0.2500000
isolation objectifs 0.1000000
NULL objectifs 0.2000000
objectives objectifs 0.7000000
clear établi 1.0000000
on votons 0.2500000
ourselves votons 0.2500000
pass votons 0.2500000
vote votons 0.2500000
hit durement 0.5000000
catastrophic durement 0.5000000
so enfants 1.0000000
regard déterminer 0.5000000
us déterminer 0.5000000
disabled handicapés 1.0000000
comparison amélioration 0.1428571
strengthen amélioration 0.1428571
NULL amélioration 0.1428571
reports amélioration 0.1428571
improving amélioration 0.2857143
upgrading amélioration 0.1428571
genuine véritable 1.0000000
please lisez 0.5000000
read lisez 0.5000000
deal traitons 0.5000000
with traitons 0.5000000
158 158 1.0000000
reforms sérieuses 0.3333333
questions sérieuses 0.3333333
serious sérieuses 0.3333333
NULL électroniquement 1.0000000
public publiques 1.0000000
expectations mutuelles 1.0000000
economies économies 1.0000000
von mm. 1.0000000
am apporte 1.0000000
only fournit 0.5000000
gives fournit 0.5000000
simply n 0.0769231
migration n 0.0769231
it n 0.1538462
NULL n 0.3076923
check n 0.0769231
projects n 0.0769231
that n 0.1538462
are n 0.0769231
partnership partenariat 1.0000000
endorse approbation 0.5000000
this approbation 0.5000000
berend berend 1.0000000
towns urbaines 0.5000000
urban urbaines 0.5000000
isolation socialement 0.5000000
achieve socialement 0.5000000
feet pieds 0.3333333
and pieds 0.3333333
go pieds 0.3333333
another divers 1.0000000
conduct bonne 0.1250000
well-intentioned bonne 0.1250000
workable bonne 0.1250000
NULL bonne 0.1250000
constructive bonne 0.1250000
good bonne 0.1250000
proper bonne 0.1250000
worse bonne 0.1250000
how comment 0.2500000
why comment 0.5833333
can comment 0.1666667
a pourcentage 0.3333333
as pourcentage 0.3333333
percentage pourcentage 0.3333333
each chacun 0.6666667
state chacun 0.3333333
draft projet 0.2500000
use projet 0.2500000
project projet 0.5000000
NULL capital 0.1666667
tax capital 0.5000000
capital capital 0.3333333
demand-orientated orientée 1.0000000
a transparente 0.2500000
which transparente 0.2500000
transparent transparente 0.2500000
is transparente 0.2500000
' prend 1.0000000
removing éliminer 1.0000000
on influencer 0.2000000
have influencer 0.2000000
thus influencer 0.2000000
influence influencer 0.2000000
an influencer 0.2000000
NULL projets 0.1250000
allowing projets 0.1250000
projects projets 0.5000000
intentions projets 0.1250000
matched projets 0.1250000
or cargaison 0.3333333
cargo cargaison 0.3333333
mix cargaison 0.3333333
review révision 0.5000000
mid-term révision 0.5000000
in pendant 1.0000000
analyses 9002 1.0000000
see dix 1.0000000
endeavouring faire 0.0333333
so faire 0.0666667
accomplished faire 0.0333333
make faire 0.0333333
ensure faire 0.1333333
produce faire 0.0333333
NULL faire 0.2666667
do faire 0.2333333
we faire 0.0333333
marker faire 0.0333333
to faire 0.0333333
get faire 0.0333333
dismantled faire 0.0333333
far-reaching plan 0.3333333
experts plan 0.3333333
forefront plan 0.3333333
come obligatoirement 0.3333333
necessarily obligatoirement 0.3333333
about obligatoirement 0.3333333
enacting évoluer 1.0000000
relative relative 0.2500000
concerns relative 0.2500000
stability relative 0.5000000
measured mesurées 1.0000000
storms touchés 1.0000000
environmental informations 0.5000000
access informations 0.5000000
governments gouvernements 1.0000000
succeeded réussi 1.0000000
there trouvait 0.6666667
was trouvait 0.3333333
portugal portugal 1.0000000
bureaucracy bureaucratie 0.2000000
NULL bureaucratie 0.2000000
tape bureaucratie 0.4000000
red bureaucratie 0.2000000
commission bruits 1.0000000
growing va 0.2000000
NULL va 0.2000000
will va 0.2000000
encourage va 0.2000000
her va 0.2000000
priority priorité 0.5000000
one priorité 0.2500000
adopt priorité 0.2500000
explanation explication 0.6000000
an explication 0.4000000
detriment défaveur 1.0000000
shall aurons 0.5000000
then aurons 0.5000000
properly revoir 1.0000000
monopolies laisser 1.0000000
better meilleure 1.0000000
statement déclaration 0.6666667
that déclaration 0.3333333
shall dirai 0.5000000
say dirai 0.5000000
which imposées 0.5000000
relevant imposées 0.5000000
NULL inclusion 1.0000000
s préjudice 1.0000000
regulation règlement 0.5000000
NULL règlement 0.1666667
debate règlement 0.1666667
regulations règlement 0.1666667
deviate s' 0.0333333
effort s' 0.0333333
NULL s' 0.2000000
looked s' 0.0333333
not s' 0.0333333
constructive s' 0.0333333
is s' 0.1666667
express s' 0.0333333
remains s' 0.0333333
interfaces s' 0.0333333
producers s' 0.0333333
lasted s' 0.0333333
its s' 0.0333333
this s' 0.0333333
adopted s' 0.0333333
stop s' 0.0333333
ease s' 0.0333333
willing s' 0.0333333
comment s' 0.0333333
increasing s' 0.0333333
become s' 0.0333333
expense dos 1.0000000
find retrouver 1.0000000
internal cohérence 1.0000000
towns entres 0.2000000
between entres 0.4000000
rich entres 0.2000000
relations entres 0.2000000
commissioner monsieur 0.2727273
NULL monsieur 0.0303030
mr monsieur 0.6969697
turned monopoles 0.2000000
monopolies monopoles 0.8000000
pse pse 1.0000000
2 2 1.0000000
capable capables 0.2500000
be capables 0.2500000
saying capables 0.2500000
this capables 0.2500000
here côte 0.2000000
over côte 0.2000000
adjacent côte 0.2000000
ships côte 0.4000000
rise lever 0.2000000
then lever 0.2000000
please lever 0.2000000
, lever 0.4000000
turn italie 0.2500000
italy italie 0.2500000
' italie 0.2500000
s italie 0.2500000
previous précédente 1.0000000
cargo partiellement 1.0000000
like tiens 0.3571429
must tiens 0.0714286
would tiens 0.3571429
assure tiens 0.0714286
inform tiens 0.0714286
too tiens 0.0714286
i.e. est-à-dire 1.0000000
there indonésie 1.0000000
crust meilleurs 1.0000000
kumar kumar 1.0000000
made portée 0.5000000
evaluation portée 0.5000000
NULL heure 0.5000000
now heure 0.2500000
just heure 0.2500000
NULL arrive 0.3333333
come arrive 0.1666667
has arrive 0.1666667
late arrive 0.1666667
too arrive 0.1666667
wording rédaction 1.0000000
direction suivre 0.1428571
the suivre 0.1428571
NULL suivre 0.2857143
forward suivre 0.1428571
monitor suivre 0.1428571
endeavour suivre 0.1428571
rate administratives 0.2500000
costs administratives 0.2500000
at administratives 0.2500000
any administratives 0.2500000
moment instants 0.5000000
ago instants 0.5000000
made rappelés 1.0000000
on autour 0.3333333
subject autour 0.3333333
bitter autour 0.3333333
on régulièrement 0.1666667
one régulièrement 0.1666667
a régulièrement 0.1666667
again régulièrement 0.1666667
interest régulièrement 0.1666667
and régulièrement 0.1666667
producers enrichir 0.3333333
at enrichir 0.3333333
profit enrichir 0.3333333
course sûr 0.5000000
NULL sûr 0.5000000
repayment remboursements 1.0000000
meaningful judicieux 0.5000000
worthwhile judicieux 0.5000000
which attend 0.3333333
has attend 0.3333333
awaited attend 0.3333333
appealing ministère 1.0000000
once nouveau 0.3333333
millennium nouveau 0.1111111
a nouveau 0.2222222
new nouveau 0.2222222
expires nouveau 0.1111111
opened ouvrir 0.5000000
up ouvrir 0.5000000
the concerne 0.3076923
11 concerne 0.0769231
especially concerne 0.1538462
far concerne 0.0769231
ventilators concerne 0.0769231
as concerne 0.0769231
involves concerne 0.0769231
relating concerne 0.0769231
inadmissibility concerne 0.0769231
general reçoivent 0.5000000
provided reçoivent 0.5000000
order adopte 1.0000000
sorry désolée 1.0000000
monday lundi 1.0000000
exciting trouvons 1.0000000
amount eux-mêmes 0.5000000
certain eux-mêmes 0.5000000
invest essentiellement 1.0000000
authorities autorités 1.0000000
system augmente 0.5000000
NULL augmente 0.5000000
eliminating élimination 1.0000000
appealing ayant 0.2000000
lasting ayant 0.2000000
adopted ayant 0.4000000
affairs ayant 0.2000000
almost presque 1.0000000
80 80 1.0000000
longstanding ancienne 0.5000000
idea ancienne 0.5000000
looking parus 1.0000000
strict uvre 0.0555556
programmes uvre 0.1111111
enforcement uvre 0.0555556
of uvre 0.1111111
implementation uvre 0.3333333
implementing uvre 0.2222222
implemented uvre 0.0555556
set uvre 0.0555556
it intensification 0.5000000
intensifying intensification 0.5000000
operations liées 1.0000000
shown occupé 0.2000000
consistently occupé 0.2000000
has occupé 0.2000000
interest occupé 0.2000000
an occupé 0.2000000
NULL plénière 0.5000000
plenary plénière 0.5000000
it soutient 0.5000000
supports soutient 0.5000000
proliferation écarts 0.2500000
standard écarts 0.2500000
becoming écarts 0.2500000
witnessed écarts 0.2500000
reference référence 1.0000000
far-reaching larges 0.5000000
reason larges 0.5000000
clear claires 0.5000000
quite claires 0.5000000
island négligé 1.0000000
NULL émettre 0.5000000
some émettre 0.5000000
right-wing droite 1.0000000
know savez 1.0000000
a simple 0.5000000
considered simple 0.5000000
human humains 0.3333333
interchange humains 0.3333333
, humains 0.3333333
create ainsi 0.1428571
way ainsi 0.1428571
example ainsi 0.1428571
NULL ainsi 0.1428571
for ainsi 0.1428571
build ainsi 0.1428571
thus ainsi 0.1428571
discredited discréditées 1.0000000
consequently hôpitaux 1.0000000
led provoqué 1.0000000
through couru 0.2500000
those couru 0.2500000
drove couru 0.2500000
countries couru 0.2500000
seasonal saisonnière 1.0000000
will débattrons 0.5000000
form débattrons 0.5000000
live pourtant 0.3333333
nonetheless pourtant 0.3333333
all pourtant 0.3333333
light lumière 1.0000000
watering-down décider 0.5000000
no décider 0.5000000
entrenchment différenciations 1.0000000
impeding entraver 0.5000000
still entraver 0.5000000
changeover vol 0.5000000
quick vol 0.5000000
seeking recherche 0.2000000
research recherche 0.8000000
cases définis 0.3333333
defined définis 0.3333333
precisely définis 0.3333333
promotion promotion 0.5000000
promoting promotion 0.5000000
mrs schroedter 0.1666667
schroedter schroedter 0.8333333
NULL aura 0.0909091
will aura 0.5454545
take aura 0.3636364
consider nécessaire 0.0666667
required nécessaire 0.0666667
NULL nécessaire 0.2000000
necessary nécessaire 0.5333333
vital nécessaire 0.0666667
needed nécessaire 0.0666667
NULL dossier 0.2500000
monitor dossier 0.2500000
accurate dossier 0.2500000
issue dossier 0.2500000
efficiently efficacement 1.0000000
NULL coup 0.3333333
gesture coup 0.3333333
future coup 0.3333333
on focalisé 0.5000000
paper focalisé 0.5000000
pronounced parfois 0.5000000
even parfois 0.5000000
submitted publié 1.0000000
made auteur 0.3333333
who auteur 0.3333333
crespo auteur 0.3333333
NULL je 0.0251572
thank je 0.0062893
please je 0.0125786
unjustified je 0.0062893
prevails je 0.0062893
i je 0.9433962
report envisage 1.0000000
treatment spécifique 0.5000000
specific spécifique 0.5000000
reduce réduire 1.0000000
hope espérant 1.0000000
opportunities chances 1.0000000
subsidy effrénée 0.5000000
one effrénée 0.5000000
above patrons 1.0000000
institutions institutions 1.0000000
greatest réside 1.0000000
american armée 1.0000000
hand main 0.5000000
state main 0.5000000
grounds avançant 1.0000000
just imputer 1.0000000
1998 1998 1.0000000
part-time partiel 1.0000000
been comité 1.0000000
those plutôt 0.2500000
rather plutôt 0.5000000
extent plutôt 0.2500000
road confiance 1.0000000
for coopération 0.3333333
cooperation coopération 0.6666667
consequently inscrit 1.0000000
flautre flautre 1.0000000
certain bouche 1.0000000
our réflexion 0.3333333
thinking réflexion 0.3333333
myself réflexion 0.3333333
hospitals mêmes 1.0000000
sparse habitat 1.0000000
perfect parfait 1.0000000
NULL pense 0.1111111
thinking pense 0.1666667
am pense 0.1666667
think pense 0.1666667
believe pense 0.2777778
feel pense 0.0555556
prevails pense 0.0555556
admit avouerai 1.0000000
getting acquièrent 0.5000000
are acquièrent 0.5000000
squeezed graves 0.5000000
being graves 0.5000000
ante ante 1.0000000
NULL compétitivité 0.1250000
fore compétitivité 0.1250000
competitiveness compétitivité 0.6250000
are compétitivité 0.1250000
NULL moi 0.2857143
did moi 0.1428571
me moi 0.1428571
either moi 0.1428571
call moi 0.1428571
commend moi 0.1428571
method méthode 1.0000000
clear clarifier 1.0000000
rail ou 0.0526316
infrastructure ou 0.0526316
NULL ou 0.0526316
or ou 0.7368421
and ou 0.0526316
kinds ou 0.0526316
second deuxième 0.7000000
my deuxième 0.3000000
demonstrate suffisance 1.0000000
direction indiquer 1.0000000
generally généralement 1.0000000
use appui 0.5000000
full appui 0.5000000
any explications 0.3333333
explanations explications 0.6666667
alert très 0.0434783
minimal très 0.0434783
affected très 0.0434783
very très 0.3913043
NULL très 0.1304348
has très 0.0434783
time-consuming très 0.0434783
is très 0.0434783
carried très 0.0434783
badly très 0.0434783
expire très 0.0434783
properly très 0.0434783
an très 0.0434783
in-depth excellent 0.2500000
NULL excellent 0.2500000
excellent excellent 0.5000000
granted attribuées 0.5000000
for attribuées 0.5000000
be annoncé 0.2500000
expected annoncé 0.2500000
document annoncé 0.2500000
ready annoncé 0.2500000
ago vingt-cinq 0.5000000
twenty-five vingt-cinq 0.5000000
constructive action 0.3333333
needing action 0.3333333
issue action 0.3333333
pleasant bonnes 0.2500000
very bonnes 0.5000000
powerful bonnes 0.2500000
already répète 0.5000000
have répète 0.5000000
form forme 1.0000000
november novembre 1.0000000
right attarder 0.3333333
time attarder 0.3333333
spend attarder 0.3333333
NULL dépenses 0.5000000
administration dépenses 0.5000000
assessing évaluation 0.3333333
their évaluation 0.3333333
appraisal évaluation 0.3333333
deserves mérite 0.3333333
such mérite 0.3333333
really mérite 0.3333333
involve implication 0.5000000
an implication 0.5000000
fuster cher 0.2000000
berenguer cher 0.2000000
costly cher 0.2000000
mr cher 0.4000000
fact oblige 1.0000000
anchored ancrée 1.0000000
permissible autorisées 0.5000000
permitted autorisées 0.5000000
planning élaboration 0.1428571
involved élaboration 0.1428571
while élaboration 0.1428571
drafting élaboration 0.2857143
directives élaboration 0.1428571
and élaboration 0.1428571
preussag preussag 1.0000000
given insister 1.0000000
right moment 0.2000000
NULL moment 0.2000000
time moment 0.2000000
at moment 0.2000000
present moment 0.2000000
uniform identiques 1.0000000
differentiating différentiels 1.0000000
personal interprétation 1.0000000
flautre souligne 0.5000000
see souligne 0.5000000
demonstrate témoignent 1.0000000
what conduira 0.3333333
us conduira 0.3333333
persuades conduira 0.3333333
particularly vis-à-vis 1.0000000
inject introduire 0.3333333
introduce introduire 0.3333333
incorporate introduire 0.3333333
it clairement 0.5000000
clearly clairement 0.5000000
NULL puissent 0.5000000
precisely puissent 0.5000000
specific spécificités 0.5000000
local spécificités 0.5000000
cern cern 1.0000000
will travaillent 0.4000000
business travaillent 0.2000000
work travaillent 0.2000000
start travaillent 0.2000000
NULL entreprise 0.1666667
business entreprise 0.1666667
entrepreneurship entreprise 0.3333333
ownership entreprise 0.1666667
entrepreneurial entreprise 0.1666667
to demander 0.1250000
lot demander 0.1250000
a demander 0.1250000
NULL demander 0.2500000
ask demander 0.3750000
simpson simpson 1.0000000
NULL actuel 1.0000000
of consister 0.3333333
be consister 0.3333333
about consister 0.3333333
to survenus 0.3333333
accidents survenus 0.3333333
delays survenus 0.3333333
profits immédiats 1.0000000
damaged irrémédiablement 0.2500000
been irrémédiablement 0.2500000
have irrémédiablement 0.2500000
irreparably irrémédiablement 0.2500000
french français 0.6666667
experts français 0.3333333
parts rurales 0.2500000
rural rurales 0.7500000
signs montre 0.3333333
recent montre 0.3333333
shows montre 0.3333333
15 15 1.0000000
develop développer 1.0000000
effort efforcera 0.2500000
make efforcera 0.2500000
will efforcera 0.2500000
every efforcera 0.2500000
extremely entraîneraient 0.5000000
time-consuming entraîneraient 0.5000000
ourselves contenter 0.3333333
content contenter 0.3333333
with contenter 0.3333333
purpose originel 0.5000000
true originel 0.5000000
involvement privé 0.3333333
private privé 0.6666667
NULL particulièrement 0.1428571
particularly particulièrement 0.1428571
slowly particulièrement 0.1428571
media particulièrement 0.1428571
especially particulièrement 0.2857143
greatly particulièrement 0.1428571
thought-out astucieuses 1.0000000
managed utilisation 0.3333333
use utilisation 0.3333333
utilisation utilisation 0.3333333
provisions judicieuses 1.0000000
urge invite 0.3333333
invite invite 0.3333333
rise invite 0.3333333
petersen a 0.0106383
function a 0.0106383
number a 0.0106383
NULL a 0.2234043
yet a 0.0106383
did a 0.0319149
desperately a 0.0106383
has a 0.3723404
, a 0.0212766
constructive a 0.0106383
ari a 0.0106383
cut a 0.0106383
vatanen a 0.0106383
duisenberg a 0.0106383
mentioned a 0.0106383
particular a 0.0106383
said a 0.0106383
produced a 0.0106383
effect a 0.0106383
decreased a 0.0106383
diverted a 0.0212766
submitted a 0.0212766
ago a 0.0212766
succeeded a 0.0106383
was a 0.0744681
customers a 0.0106383
yesterday a 0.0106383
afresh a 0.0106383
fact communes 0.3333333
common communes 0.6666667
general communautaire 0.2500000
existing communautaire 0.2500000
effectiveness communautaire 0.2500000
union communautaire 0.2500000
with tirées 1.0000000
front passionnant 0.3333333
of passionnant 0.3333333
us passionnant 0.3333333
long distances 0.5000000
distances distances 0.5000000
levels national 0.3333333
policies national 0.3333333
national national 0.3333333
identify identifier 1.0000000
perfect soi-disant 0.5000000
supposedly soi-disant 0.5000000
reiterate rappeler 0.2500000
raising rappeler 0.2500000
remind rappeler 0.5000000
NULL ma 0.1666667
counted ma 0.1666667
been ma 0.1666667
my ma 0.5000000
NULL considération 0.2000000
account considération 0.2000000
into considération 0.2000000
take considération 0.1000000
consideration considération 0.3000000
speak parle 0.2000000
now parle 0.2000000
just parle 0.2000000
failure parle 0.2000000
about parle 0.2000000
directly directement 1.0000000
what nomme 0.3333333
referred nomme 0.3333333
is nomme 0.3333333
NULL lesquelles 0.3333333
reasons lesquelles 0.3333333
why lesquelles 0.3333333
procedures modalités 0.5000000
exercise modalités 0.5000000
widen creuser 1.0000000
diversification diversification 1.0000000
willing montrée 0.5000000
being montrée 0.5000000
shipment déchargés 0.5000000
for déchargés 0.5000000
out accrue 0.2500000
pointed accrue 0.2500000
been accrue 0.2500000
has accrue 0.2500000
was exceptionnel 0.2500000
it exceptionnel 0.2500000
quite exceptionnel 0.2500000
superb exceptionnel 0.2500000
was a-t-on 1.0000000
her vues 1.0000000
mentioned parlé 0.5000000
as parlé 0.5000000
unnecessary inutile 0.5000000
fracture inutile 0.5000000
concerns préoccupations 1.0000000
targeted cibler 0.2500000
be cibler 0.2500000
at cibler 0.2500000
can cibler 0.2500000
challenges défis 1.0000000
rural campagnes 0.5000000
areas campagnes 0.5000000
acquitted libération 0.5000000
him libération 0.5000000
work félicitations 0.5000000
commend félicitations 0.5000000
proved avéré 0.5000000
has avéré 0.5000000
accused reprocher 0.5000000
stand reprocher 0.5000000
as accordez-lui 0.5000000
treat accordez-lui 0.5000000
abreast informé 1.0000000
terms géographiques 0.5000000
geographical géographiques 0.5000000
euro euro 1.0000000
to quelques 0.1818182
moment quelques 0.0454545
intrinsically quelques 0.0454545
a quelques 0.2272727
NULL quelques 0.1363636
few quelques 0.3181818
study quelques 0.0454545
workers travailleurs 1.0000000
cold froids 1.0000000
fair qu' 0.0370370
NULL qu' 0.2407407
both qu' 0.0185185
desperately qu' 0.0185185
, qu' 0.0370370
that qu' 0.2037037
remind qu' 0.0185185
step qu' 0.0185185
means qu' 0.0370370
think qu' 0.0370370
merely qu' 0.0185185
much qu' 0.0185185
company qu' 0.0185185
passes qu' 0.0185185
said qu' 0.0185185
working qu' 0.0185185
provided qu' 0.0370370
without qu' 0.0185185
than qu' 0.0370370
budgetary qu' 0.0185185
rather qu' 0.0185185
believe qu' 0.0185185
whether qu' 0.0185185
feel qu' 0.0185185
improved qu' 0.0185185
air qu' 0.0185185
obliged charger 1.0000000
been inégale 0.3333333
has inégale 0.3333333
uneven inégale 0.3333333
course entendu 0.6666667
hear entendu 0.3333333
sánchez sánchez 1.0000000
additional complémentaires 0.5000000
explanations complémentaires 0.5000000
and notification 0.3333333
notify notification 0.6666667
opportunities possibilités 0.5000000
NULL possibilités 0.5000000
expect appelle 0.3333333
is appelle 0.3333333
needing appelle 0.3333333
stressed souligner 0.2000000
like souligner 0.2000000
NULL souligner 0.2000000
highlight souligner 0.4000000
japan japonais 1.0000000
standard régions 0.0208333
NULL régions 0.0625000
remote régions 0.0416667
anyway régions 0.0208333
within régions 0.0416667
regions régions 0.5833333
poor régions 0.0208333
rich régions 0.0208333
transit régions 0.0208333
areas régions 0.1041667
northern régions 0.0625000
decisively décidée 0.3333333
must décidée 0.3333333
act décidée 0.3333333
unclear inévitablement 1.0000000
degree on 0.0232558
NULL on 0.3023256
watering-down on 0.0232558
desperately on 0.0232558
is on 0.0232558
we on 0.1860465
if on 0.0232558
see on 0.0232558
perfectly on 0.0232558
9002 on 0.0232558
in on 0.0232558
concentrating on 0.0232558
hesitant on 0.0232558
addition on 0.0232558
can on 0.0232558
there on 0.0232558
de on 0.0232558
as on 0.0232558
reached on 0.0232558
proceed on 0.0232558
referred on 0.0232558
again on 0.0232558
encouraging on 0.0232558
expires on 0.0232558
am interviens 0.5000000
speaking interviens 0.5000000
section peuples 1.0000000
via accessible 0.5000000
accessible accessible 0.5000000
magnificently façon 0.1000000
a façon 0.2000000
fashion façon 0.1000000
in façon 0.4000000
assimilated façon 0.1000000
vague façon 0.1000000
remoteness éloignement 1.0000000
fall diminution 1.0000000
first première 0.5714286
a première 0.1428571
delay première 0.1428571
reading première 0.1428571
gap fossé 1.0000000
accept accepte 0.6666667
that accepte 0.3333333
despite malgré 1.0000000
prepare prépare 1.0000000
processes complexe 1.0000000
requirements réglementaires 0.5000000
regulatory réglementaires 0.5000000
upon perfectible 0.3333333
further perfectible 0.3333333
improved perfectible 0.3333333
heard consulté 1.0000000
it atténuer 1.0000000
on proposition 0.0625000
amendment proposition 0.1875000
proposal proposition 0.6250000
proposed proposition 0.1250000
the limites 0.5000000
limit limites 0.5000000
coming prochaine 1.0000000
proceeding procéder 1.0000000
commissioner autorité 1.0000000
employers fournisseurs 1.0000000
rates dramatiques 0.3333333
this dramatiques 0.3333333
consequences dramatiques 0.3333333
enforcement droit 0.1666667
right droit 0.0833333
law droit 0.5833333
NULL droit 0.0833333
constitutional droit 0.0833333
" voté 0.5000000
NULL voté 0.5000000
stand entendre 0.2000000
out entendre 0.2000000
you entendre 0.2000000
finding entendre 0.2000000
where entendre 0.2000000
votes voix 1.0000000
sri sri 0.5000000
lanka sri 0.2500000
was sri 0.2500000
what faisons-nous 1.0000000
only seule 0.5000000
fault seule 0.5000000
permit autoriser 1.0000000
withdrawn jour 0.1176471
NULL jour 0.1764706
day jour 0.1176471
's jour 0.1176471
agenda jour 0.4705882
possible délais 1.0000000
guidelines directrices 0.4000000
the directrices 0.3000000
NULL directrices 0.2000000
seem directrices 0.1000000
in significative 0.2000000
significant significative 0.6000000
, significative 0.2000000
made ait 0.1000000
test ait 0.1000000
acquitted ait 0.1000000
NULL ait 0.2000000
see ait 0.1000000
recognise ait 0.1000000
comprehensive ait 0.1000000
ought ait 0.1000000
voted ait 0.1000000
success sera 0.1250000
be sera 0.1250000
will sera 0.6250000
back sera 0.1250000
build bâtir 1.0000000
precisely justement 0.6666667
stated justement 0.3333333
indeed j 0.0666667
straight j 0.0666667
NULL j 0.0666667
hope j 0.1333333
event j 0.0666667
seppänen j 0.0666667
i j 0.5333333
fill guère 0.3333333
NULL guère 0.3333333
with guère 0.3333333
reality réalité 0.3333333
a réalité 0.3333333
fact réalité 0.3333333
NULL importants 0.2222222
be importants 0.1111111
will importants 0.1111111
attracting importants 0.1111111
extensive importants 0.1111111
major importants 0.1111111
problems importants 0.2222222
rather effroyable 1.0000000
holds futur 0.5000000
future futur 0.5000000
spring négociations 0.5000000
negotiations négociations 0.5000000
some articles 1.0000000
structural structurels 1.0000000
committee débouché 0.5000000
from débouché 0.5000000
catalogue catalogue 1.0000000
issues questions 0.3000000
matters questions 0.1000000
NULL questions 0.2000000
questions questions 0.4000000
modernisation modernisation 1.0000000
accompanying accompagnement 1.0000000
NULL prévoit 0.2500000
applies prévoit 0.2500000
treaty prévoit 0.2500000
also prévoit 0.2500000
competition elle 0.0714286
NULL elle 0.2857143
it elle 0.2857143
decreased elle 0.0714286
created elle 0.0714286
rather elle 0.0714286
presented elle 0.0714286
manage elle 0.0714286
specific créent 0.5000000
personality créent 0.5000000
quickly rapidement 0.2000000
implemented rapidement 0.2000000
briefly rapidement 0.2000000
respond rapidement 0.2000000
losing rapidement 0.2000000
planning planification 1.0000000
figures britanniques 1.0000000
well profondément 1.0000000
migration migratoire 1.0000000
hat chapeau 0.5000000
gesture chapeau 0.5000000
believe crois 0.2500000
think crois 0.7500000
house assemblée 0.8333333
NULL assemblée 0.1666667
a espoir 1.0000000
our arrête 0.3333333
stop arrête 0.3333333
at arrête 0.3333333
94 94 1.0000000
mr von 0.3333333
von von 0.3333333
by von 0.3333333
supervision pesant 0.5000000
s pesant 0.5000000
for prévalant 0.5000000
worse prévalant 0.5000000
inter-company accords 1.0000000
us permettent 0.2500000
allow permettent 0.2500000
incorporate permettent 0.2500000
force permettent 0.2500000
house parole 0.1250000
to parole 0.2500000
speak parole 0.3750000
NULL parole 0.1250000
asked parole 0.1250000
members collègues 0.1666667
speakers collègues 0.0555556
NULL collègues 0.5000000
limited collègues 0.0555556
gentlemen collègues 0.0555556
words collègues 0.0555556
colleagues collègues 0.1111111
- / 0.1111111
/ / 0.6666667
NULL / 0.1111111
ec / 0.1111111
may mal 1.0000000
relationships relations 0.5000000
institutional relations 0.5000000
following suivants 1.0000000
point mi-parcours 0.2000000
mid-way mi-parcours 0.2000000
appraisal mi-parcours 0.2000000
mid-term mi-parcours 0.4000000
27 27 1.0000000
on progresser 0.5000000
get progresser 0.5000000
water eau 1.0000000
enforced fumeurs 1.0000000
monopolies ententes 1.0000000
general politique 0.0204082
political politique 0.0816327
policy politique 0.8979592
infrastructure constitue 0.2000000
is constitue 0.8000000
hard frappées 1.0000000
is absolument 0.5000000
imperative absolument 0.5000000
had laissé 0.2000000
lasting laissé 0.2000000
have laissé 0.2000000
which laissé 0.2000000
benefit laissé 0.2000000
north nord 0.3333333
european nord 0.3333333
southern nord 0.3333333
change possible 0.1666667
keep possible 0.1666667
possible possible 0.3333333
where possible 0.1666667
also possible 0.1666667
considering envisagent 0.5000000
rejection envisagent 0.5000000
out résistent 0.5000000
reluctantly résistent 0.5000000
bernié barnier 0.5000000
. barnier 0.5000000
abstentions abstentions 1.0000000
tape paperasserie 1.0000000
amend modifiant 1.0000000
report celui 0.2857143
NULL celui 0.1428571
share celui 0.1428571
challenge celui 0.1428571
harmonisation celui 0.1428571
that celui 0.1428571
renew renouveler 1.0000000
province enfer 1.0000000
becoming régionaux 0.3333333
regional régionaux 0.3333333
aspects régionaux 0.3333333
high connaissent 0.2500000
differ connaissent 0.2500000
are connaissent 0.2500000
danish connaissent 0.2500000
60 60 1.0000000
be viser 0.2500000
towards viser 0.2500000
working viser 0.2500000
strengthening viser 0.2500000
degree dont 0.0555556
NULL dont 0.0555556
which dont 0.3888889
instrument dont 0.0555556
whose dont 0.1666667
, dont 0.1111111
drawing dont 0.0555556
disregards dont 0.0555556
discussion dont 0.0555556
eu prolonger 0.5000000
irresponsible prolonger 0.5000000
guaranteeing afin 0.3333333
for afin 0.3333333
and afin 0.3333333
they elles 0.4166667
it elles 0.0833333
NULL elles 0.3333333
dispose elles 0.0833333
analyses elles 0.0833333
include positivement 1.0000000
NULL fin 0.2500000
end fin 0.7500000
particular étage 1.0000000
cornerstones fondements 1.0000000
steps avancées 0.5000000
contrary avancées 0.5000000
would impliquerait 1.0000000
rate chômage 0.1428571
unemployment chômage 0.8571429
NULL envisagée 1.0000000
alexander alexandre 1.0000000
challenge défi 1.0000000
given donnait 0.5000000
were donnait 0.5000000
weakness faiblesse 1.0000000
success succès 0.6666667
desired succès 0.3333333
uk aient 0.3333333
staircases aient 0.3333333
make aient 0.3333333
fischler mon 0.0476190
turn mon 0.0476190
NULL mon 0.1428571
begin mon 0.0476190
my mon 0.7142857
elected élection 0.3333333
we élection 0.3333333
were élection 0.3333333
ensure sérieusement 0.2000000
it sérieusement 0.2000000
into sérieusement 0.2000000
properly sérieusement 0.2000000
look sérieusement 0.2000000
reasonable judicieuse 0.5000000
between judicieuse 0.5000000
agree souscris 0.3333333
actually souscris 0.3333333
with souscris 0.3333333
would dirais 1.0000000
those rappelées 0.5000000
highlighted rappelées 0.5000000
ministers chargés 1.0000000
less diminuer 0.5000000
red diminuer 0.5000000
will probablement 1.0000000
tuesday mardi 1.0000000
reason après-demain 1.0000000
for privilégié 0.5000000
forum privilégié 0.5000000
gdp pib 0.7500000
terms pib 0.2500000
raises prix 0.2000000
sufficiently prix 0.2000000
standards prix 0.2000000
focus prix 0.2000000
prices prix 0.2000000
there appropriés 0.3333333
for appropriés 0.3333333
matched appropriés 0.3333333
upon améliorations 0.5000000
improving améliorations 0.5000000
within classée 0.5000000
accommodated classée 0.5000000
question poser 0.1428571
ourselves poser 0.1428571
must poser 0.1428571
a poser 0.1428571
seem poser 0.1428571
fundamental poser 0.1428571
ask poser 0.1428571
perfect parfaite 0.3333333
bring parfaite 0.3333333
about parfaite 0.3333333
require appoint 0.5000000
supplements appoint 0.5000000
be résulté 0.5000000
diverted résulté 0.5000000
adjacent bateaux 1.0000000
relate portent 1.0000000
practical réalisation 0.3333333
implementation réalisation 0.3333333
operation réalisation 0.3333333
NULL moins 0.2857143
smaller moins 0.1428571
, moins 0.1428571
with moins 0.1428571
bureaucratic moins 0.1428571
worse moins 0.1428571
criticising critiquer 1.0000000
fourthly quatrième 1.0000000
observations observations 0.2000000
comments observations 0.8000000
most ultrapériphériques 0.2857143
outermost ultrapériphériques 0.4285714
remote ultrapériphériques 0.2857143
point stade 1.0000000
expansion opérer 0.1666667
most opérer 0.1666667
for opérer 0.1666667
in opérer 0.1666667
part opérer 0.1666667
invest opérer 0.1666667
recently assassinée 0.3333333
very assassinée 0.3333333
assassinated assassinée 0.3333333
express exprimer 0.6000000
comment exprimer 0.2000000
that exprimer 0.2000000
cases dérogatoire 0.3333333
special dérogatoire 0.3333333
exceptional dérogatoire 0.3333333
when lorsque 1.0000000
here domaine 0.0909091
one domaine 0.0909091
NULL domaine 0.2727273
area domaine 0.2727273
mind domaine 0.0909091
is domaine 0.0909091
field domaine 0.0909091
on avenir 0.1000000
viability avenir 0.1000000
future avenir 0.7000000
discussion avenir 0.1000000
strengthen union 0.0294118
NULL union 0.0588235
eu union 0.1764706
aims union 0.0294118
strengthened union 0.0294118
european union 0.0294118
union union 0.6470588
disparities différences 0.6666667
existing différences 0.3333333
unanimously unanimité 0.5000000
NULL unanimité 0.5000000
ourselves scandaleux 0.5000000
it scandaleux 0.5000000
connection précisément 0.3333333
with précisément 0.3333333
line précisément 0.3333333
NULL face 0.1666667
in face 0.3333333
relation face 0.1666667
exciting face 0.1666667
euro face 0.1666667
schools obligés 0.5000000
build obligés 0.5000000
new nouveaux 0.5000000
more nouveaux 0.2500000
four nouveaux 0.2500000
apply freiner 0.2500000
to freiner 0.2500000
a freiner 0.2500000
brake freiner 0.2500000
NULL eu 0.2500000
have eu 0.2500000
voted eu 0.2500000
chipped eu 0.2500000
point motion 1.0000000
old home 1.0000000
from investissement 0.5000000
investment investissement 0.5000000
schroedter rapporteur 0.1000000
berend rapporteur 0.1000000
rapporteur rapporteur 0.8000000
to propositions 0.1250000
amendments propositions 0.5000000
contrary propositions 0.1250000
analyse propositions 0.1250000
proposals propositions 0.1250000
view angle 1.0000000
NULL soucieuse 1.0000000
had avais 0.3333333
did avais 0.3333333
my avais 0.3333333
myself mienne 0.5000000
including mienne 0.5000000
human humaines 1.0000000
direction orientations 0.0769231
guidelines orientations 0.6153846
these orientations 0.0769231
directives orientations 0.1538462
section orientations 0.0769231
simple facteur 0.5000000
factor facteur 0.5000000
the grâce 1.0000000
high toujours 0.1000000
course toujours 0.1000000
do toujours 0.1000000
still toujours 0.1000000
always toujours 0.6000000
urgency ambition 0.5000000
claim ambition 0.5000000
developments évolutions 1.0000000
precisely exactement 1.0000000
out malentendus 0.5000000
misunderstandings malentendus 0.5000000
applies appliqué 1.0000000
promise promettant 0.5000000
and promettant 0.5000000
NULL redéfini 1.0000000
dismantled rase 1.0000000
following poids 1.0000000
growing croissent 0.5000000
are croissent 0.5000000
satisfy besoins 1.0000000
packaging emballages 0.3333333
kind emballages 0.3333333
this emballages 0.3333333
straighten dissiper 1.0000000
supply montant 1.0000000
behind grand 0.2500000
way grand 0.2500000
eu grand 0.2500000
long grand 0.2500000
out perdent 1.0000000
NULL effets 0.3333333
effects effets 0.6666667
belgium ports 0.5000000
by ports 0.5000000
cold climat 0.1428571
climates climat 0.1428571
are climat 0.1428571
that climat 0.2857143
climate climat 0.1428571
prevails climat 0.1428571
sector pêche 0.2500000
fisheries pêche 0.7500000
there débats 1.0000000
had visite 0.5000000
visited visite 0.5000000
several indicateurs 0.2500000
indicators indicateurs 0.5000000
study indicateurs 0.2500000
plays joue 1.0000000
types types 1.0000000
correct pourrons 0.5000000
may pourrons 0.5000000
damage spéculation 0.3333333
speculation spéculation 0.3333333
by spéculation 0.3333333
live voudraient 1.0000000
answered apportées 1.0000000
collate recueillir 0.5000000
only recueillir 0.5000000
start début 1.0000000
not trompe 0.5000000
mistaken trompe 0.5000000
develop songer 1.0000000
loud haut 0.5000000
convergence haut 0.5000000
our urbaine 0.2500000
at urbaine 0.2500000
urban urbaine 0.5000000
NULL contrôle 0.3333333
' contrôle 0.3333333
supervision contrôle 0.3333333
model modèle 1.0000000
embargo embargo 0.5000000
irresponsible embargo 0.5000000
power force 1.0000000
what évités 1.0000000
failing défaillant 1.0000000
shortly expirera 0.3333333
due expirera 0.3333333
expire expirera 0.3333333
helped contribué 1.0000000
course naturellement 0.2500000
number naturellement 0.0833333
a naturellement 0.0833333
of naturellement 0.2500000
, naturellement 0.3333333
stressed petersen 0.3333333
petersen petersen 0.3333333
just petersen 0.3333333
lament déplorer 1.0000000
NULL société 0.2000000
society société 0.6000000
social société 0.2000000
withdrawn l' 0.0078125
opportunity l' 0.0039062
represent l' 0.0039062
succeed l' 0.0039062
intervention l' 0.0039062
see l' 0.0039062
employment l' 0.0273438
agriculture l' 0.0039062
on l' 0.0039062
business l' 0.0156250
constraint l' 0.0039062
province l' 0.0039062
what l' 0.0039062
spirit l' 0.0117188
supply l' 0.0078125
one l' 0.0156250
again l' 0.0078125
union l' 0.0078125
inadmissibility l' 0.0039062
outcomes l' 0.0039062
additionality l' 0.0078125
efficiency l' 0.0039062
intensifying l' 0.0039062
doubtful l' 0.0039062
activities l' 0.0039062
1989 l' 0.0039062
hope l' 0.0078125
objective l' 0.0234375
renew l' 0.0039062
vatanen l' 0.0039062
her l' 0.0078125
something l' 0.0039062
draw l' 0.0039062
it l' 0.0078125
access l' 0.0039062
improving l' 0.0078125
's l' 0.0039062
strengthen l' 0.0078125
reached l' 0.0039062
then l' 0.0039062
enlargement l' 0.0039062
were l' 0.0039062
the l' 0.3242188
assessing l' 0.0039062
argues l' 0.0039062
turn l' 0.0039062
future l' 0.0117188
read l' 0.0039062
participate l' 0.0039062
retrodisplacement l' 0.0078125
full l' 0.0039062
unanimously l' 0.0078125
enforcement l' 0.0039062
balance l' 0.0078125
other l' 0.0078125
referred l' 0.0039062
strengthened l' 0.0039062
NULL l' 0.1757812
harmonisation l' 0.0117188
rules l' 0.0039062
abroad l' 0.0039062
exclusion l' 0.0039062
improve l' 0.0039062
accept l' 0.0039062
under l' 0.0078125
ban l' 0.0078125
irresponsible l' 0.0039062
investment l' 0.0039062
industry l' 0.0039062
brought l' 0.0039062
through l' 0.0078125
as l' 0.0312500
just l' 0.0039062
ultimate l' 0.0039062
europe l' 0.0234375
increasing l' 0.0039062
encouraging l' 0.0039062
indicated l' 0.0039062
ask commissions 1.0000000
one central 1.0000000
as secondes 1.0000000
conference conférence 0.6666667
intergovernmental conférence 0.3333333
least mois 0.1666667
NULL mois 0.1666667
month mois 0.1666667
at mois 0.1666667
agreement mois 0.1666667
months mois 0.1666667
there quelque 0.3333333
accomplished quelque 0.3333333
though quelque 0.3333333
these qui 0.0095238
which qui 0.3428571
, qui 0.0095238
far qui 0.0095238
ari qui 0.0095238
unacceptably qui 0.0095238
reasonable qui 0.0095238
annexes qui 0.0095238
who qui 0.1142857
adjourned qui 0.0095238
concerning qui 0.0095238
problems qui 0.0095238
out qui 0.0095238
time-consuming qui 0.0095238
1997 qui 0.0095238
those qui 0.0285714
happening qui 0.0095238
covered qui 0.0095238
relating qui 0.0095238
11 qui 0.0095238
NULL qui 0.2190476
of qui 0.0095238
especially qui 0.0190476
unable qui 0.0095238
constructive qui 0.0095238
is qui 0.0095238
programming qui 0.0095238
merely qui 0.0095238
persuades qui 0.0095238
adopted qui 0.0095238
wurtz qui 0.0095238
instrument qui 0.0095238
nothing qui 0.0095238
serious qui 0.0095238
adopted modifié 0.2500000
was modifié 0.2500000
amended modifié 0.2500000
thus modifié 0.2500000
rich riches 1.0000000
a peine 0.2000000
just peine 0.2000000
few peine 0.2000000
ago peine 0.2000000
months peine 0.2000000
call offensive 1.0000000
president présidente 1.0000000
earn quittant 0.3333333
can quittant 0.3333333
where quittant 0.3333333
germany allemagne 1.0000000
unified unifié 1.0000000
shall efforcerai 0.2500000
with efforcerai 0.2500000
comply efforcerai 0.2500000
endeavour efforcerai 0.2500000
11 11 1.0000000
they réponses 1.0000000
particular prêter 0.5000000
pay prêter 0.5000000
prerequisites fonctionnement 0.1666667
making fonctionnement 0.1666667
controversy fonctionnement 0.1666667
operation fonctionnement 0.3333333
operability fonctionnement 0.1666667
in présentaient 0.2500000
principle présentaient 0.2500000
, présentaient 0.5000000
amended modifiée 1.0000000
producers devraient-ils 0.3333333
arms devraient-ils 0.3333333
should devraient-ils 0.3333333
raised abordées 1.0000000
even certes 0.3333333
just certes 0.3333333
though certes 0.3333333
follow habitude 1.0000000
parliamentary commission 0.0114943
committee commission 0.2068966
NULL commission 0.0229885
commission commission 0.7586207
arms ue 0.2500000
1989 ue 0.2500000
eu ue 0.5000000
members préoccupation 0.2500000
problem préoccupation 0.2500000
concern préoccupation 0.5000000
approach approche 1.0000000
stand actuelle 0.3333333
NULL actuelle 0.3333333
present actuelle 0.1666667
procedure actuelle 0.1666667
community communautaires 1.0000000
white blanc 1.0000000
require approfondie 0.1666667
in-depth approfondie 0.1666667
now approfondie 0.1666667
we approfondie 0.1666667
analysis approfondie 0.1666667
an approfondie 0.1666667
NULL oubli 1.0000000
correctly satisfaisante 0.3333333
satisfactorily satisfaisante 0.3333333
applied satisfaisante 0.3333333
finally conclure 0.6666667
conclude conclure 0.3333333
industry acier 0.5000000
steel acier 0.5000000
french député 0.2500000
member député 0.5000000
fruteau député 0.2500000
enough expliquées 0.5000000
explained expliquées 0.5000000
NULL exécuté 1.0000000
accomplished chose 0.3333333
NULL chose 0.3333333
thing chose 0.3333333
cost-intensive structurelle 0.2000000
a structurelle 0.2000000
structural structurelle 0.6000000
there rien 0.2000000
blame rien 0.2000000
nothing rien 0.4000000
this rien 0.2000000
must vraiment 0.5000000
all vraiment 0.5000000
add additionner 1.0000000
help servir 1.0000000
three trois 1.0000000
ministers ministres 0.5000000
responsible ministres 0.5000000
point parlant 0.5000000
this parlant 0.5000000
make remarques 0.3333333
a remarques 0.3333333
comments remarques 0.3333333
vote .... 0.5000000
.... .... 0.5000000
specifically retiennent 1.0000000
the données 0.2000000
presented données 0.2000000
data données 0.6000000
granted éligible 0.5000000
been éligible 0.5000000
behind moteurs 0.5000000
forces moteurs 0.5000000
urged invités 1.0000000
favour favorable 0.5000000
in favorable 0.5000000
great grandes 0.6666667
quantities grandes 0.3333333
one soulever 0.5000000
raise soulever 0.5000000
obvious dangereuses 0.0909091
goods dangereuses 0.9090909
country chaque 0.5000000
each chaque 0.5000000
margins visant 0.1666667
it visant 0.1666667
NULL visant 0.1666667
be visant 0.1666667
initiatives visant 0.1666667
ppe-de visant 0.1666667
nature purement 1.0000000
favour par 0.0138889
human par 0.0138889
guidance par 0.0138889
NULL par 0.1666667
of par 0.0694444
therefore par 0.0416667
mainly par 0.0138889
ari par 0.0138889
opinions par 0.0138889
long par 0.0138889
holzmann par 0.0138889
television par 0.0138889
example par 0.0694444
inland par 0.0138889
for par 0.0138889
per par 0.0555556
inform par 0.0138889
by par 0.3611111
prevails par 0.0138889
storms par 0.0138889
rail par 0.0138889
those par 0.0138889
warning par 0.0138889
ponnambalam ponnambalam 1.0000000
on entend 0.2000000
matter entend 0.2000000
hears entend 0.2000000
again entend 0.4000000
decisions existent 0.5000000
have existent 0.5000000
be supérieur 0.3333333
higher supérieur 0.3333333
achieved supérieur 0.3333333
holzmann holzmann 1.0000000
NULL discussion 0.2500000
fully discussion 0.2500000
joint discussion 0.5000000
dear cependant 0.0714286
NULL cependant 0.0714286
now cependant 0.0714286
nonetheless cependant 0.0714286
but cependant 0.0714286
, cependant 0.3571429
however cependant 0.2857143
enough suffisent 0.5000000
are suffisent 0.5000000
dangerous dangereuse 1.0000000
considerably nettement 0.3333333
developing nettement 0.3333333
shows nettement 0.3333333
degree ajuster 1.0000000
provisions régional 0.2000000
regional régional 0.8000000
37 37 1.0000000
propose proposer 0.3333333
inspired proposer 0.3333333
us proposer 0.3333333
very angles 0.5000000
differently angles 0.5000000
NULL pourront 0.2500000
have pourront 0.2500000
may pourront 0.2500000
clearly pourront 0.2500000
reluctantly regret 0.5000000
only regret 0.5000000
withdrawn du 0.0106383
the du 0.2553191
boost du 0.0053191
item du 0.0106383
steel du 0.0106383
save du 0.0053191
on du 0.0053191
iron du 0.0053191
agenda du 0.0425532
know-how du 0.0053191
list du 0.0053191
period du 0.0053191
unemployment du 0.0106383
data du 0.0053191
reduction du 0.0106383
open du 0.0053191
level du 0.0053191
socialist du 0.0053191
effectiveness du 0.0053191
development du 0.0212766
fund du 0.0053191
friend du 0.0053191
11 du 0.0053191
NULL du 0.1063830
parliament du 0.0159574
of du 0.2127660
status du 0.0053191
terms du 0.0053191
treaty du 0.0106383
council du 0.0106383
planning du 0.0053191
cohesion du 0.0106383
free du 0.0053191
from du 0.0106383
limit du 0.0053191
stands du 0.0053191
rural du 0.0106383
something du 0.0053191
sustainable du 0.0053191
adoption du 0.0053191
failures du 0.0053191
consumer du 0.0053191
strasbourg du 0.0053191
controversy du 0.0106383
work du 0.0212766
water du 0.0053191
talk du 0.0053191
action du 0.0106383
' du 0.0372340
bureaucratic du 0.0053191
NULL messieurs 0.6666667
gentlemen messieurs 0.3333333
follow d 0.0285714
NULL d 0.1142857
of d 0.1714286
complicated d 0.0285714
analyse d 0.0285714
2 d 0.0285714
modest d 0.0285714
to d 0.0857143
ownership d 0.0285714
approving d 0.0285714
flexible d 0.0285714
paying d 0.0285714
requests d 0.0571429
discover d 0.0285714
employers d 0.0285714
perhaps d 0.0285714
firstly d 0.0571429
be d 0.0285714
creating d 0.0285714
and d 0.1142857
regard matière 0.0454545
NULL matière 0.2727273
area matière 0.0909091
involvement matière 0.0454545
are matière 0.0454545
regards matière 0.0454545
reminiscent matière 0.0454545
foundation matière 0.0454545
respect matière 0.0909091
legislation matière 0.0909091
this matière 0.1818182
south sud 0.6666667
northern sud 0.3333333
langen langen 0.5000000
mr langen 0.5000000
players locaux 0.5000000
local locaux 0.5000000
rapporteurs collaboration 0.5000000
cooperation collaboration 0.5000000
ari ari 1.0000000
NULL sauvetage 0.3333333
intervention sauvetage 0.6666667
to conséquence 0.2500000
NULL conséquence 0.2500000
consequently conséquence 0.2500000
result conséquence 0.2500000
tabled déposé 0.5000000
party déposé 0.5000000
mass massif 1.0000000
absolutely importe 0.2500000
important importe 0.2500000
is importe 0.5000000
communication établie 1.0000000
presented introduite 1.0000000
NULL donner 0.3333333
them donner 0.1666667
give donner 0.3333333
this donner 0.1666667
1997 1997 1.0000000
achieving parvenir 0.3333333
achieve parvenir 0.6666667
why armes 1.0000000
subvert bouleversant 0.5000000
legally bouleversant 0.5000000
bound tenue 0.3333333
though tenue 0.3333333
however tenue 0.3333333
here implique 0.3333333
discussing implique 0.3333333
does implique 0.3333333
, février 0.5000000
february février 0.5000000
priority celle 0.5000000
is celle 0.5000000
NULL nombreux 0.3333333
many nombreux 0.6666667
so faites 0.2500000
made faites 0.5000000
far faites 0.2500000
when parvient 0.3333333
we parvient 0.3333333
manage parvient 0.3333333
NULL longtemps 0.2000000
parliament longtemps 0.2000000
long longtemps 0.2000000
by longtemps 0.2000000
awaited longtemps 0.2000000
from cumul 0.3333333
money cumul 0.3333333
accumulation cumul 0.3333333
limit supportable 1.0000000
pre-accession instrument 0.3333333
instrument instrument 0.6666667
such redistribution 0.5000000
redistribution redistribution 0.5000000
react réagissent 0.5000000
by réagissent 0.5000000
disasters naturelles 1.0000000
object formuler 0.5000000
that formuler 0.5000000
latest technologies 1.0000000
NULL demandé 0.3333333
personal demandé 0.3333333
asked demandé 0.3333333
NULL document 1.0000000
congratulate féliciter 0.3750000
NULL féliciter 0.2500000
him féliciter 0.1250000
welcome féliciter 0.1250000
commend féliciter 0.1250000
more structurel 1.0000000
per brut 0.2500000
product brut 0.2500000
domestic brut 0.2500000
gross brut 0.2500000
support soutiendra 0.3333333
will soutiendra 0.3333333
always soutiendra 0.3333333
subsidy subventions 0.2000000
subsidies subventions 0.8000000
visit personnellement 1.0000000
also centre 1.0000000
from tirions 0.3333333
this tirions 0.3333333
learn tirions 0.3333333
benefit deviennent 0.5000000
also deviennent 0.5000000
various réglementations 0.2000000
NULL réglementations 0.2000000
regulations réglementations 0.2000000
proper réglementations 0.2000000
legislation réglementations 0.2000000
deep apprécie 0.1428571
a apprécie 0.1428571
have apprécie 0.1428571
which apprécie 0.1428571
for apprécie 0.1428571
is apprécie 0.1428571
something apprécie 0.1428571
project rénovation 0.5000000
renovation rénovation 0.5000000
support favorables 0.5000000
welfare favorables 0.5000000
poverty pauvreté 1.0000000
restructuring permettre 0.2500000
enable permettre 0.2500000
allowed permettre 0.2500000
afford permettre 0.2500000
define définir 1.0000000
centres dynamiques 1.0000000
NULL où 0.1428571
wonder où 0.1428571
where où 0.7142857
NULL autre 0.2500000
another autre 0.3750000
negative autre 0.1250000
secondly autre 0.1250000
institution autre 0.1250000
finally terminer 0.5000000
a terminer 0.5000000
individually exploiter 1.0000000
on fois 0.1250000
schools fois 0.1250000
time fois 0.3750000
, fois 0.1250000
again fois 0.1250000
raise fois 0.1250000
harmonisation harmonisation 0.7500000
harmonising harmonisation 0.2500000
when vaste 0.5000000
large vaste 0.5000000
as présentée 0.5000000
soon présentée 0.2500000
presented présentée 0.2500000
policy politiques 0.1111111
policies politiques 0.7777778
conclusions politiques 0.1111111
adopted adoptées 1.0000000
level appropriée 0.2500000
entirely appropriée 0.2500000
appropriate appropriée 0.5000000
special réglementation 0.1666667
it réglementation 0.1666667
NULL réglementation 0.1666667
regulations réglementation 0.1666667
eu réglementation 0.1666667
arrangement réglementation 0.1666667
poor pauvres 1.0000000
yet désespérément 0.5000000
desperately désespérément 0.5000000
improve améliorer 0.5000000
improving améliorer 0.2500000
day améliorer 0.2500000
enlighten éclairer 0.5000000
us éclairer 0.5000000
flexibly souples 1.0000000
russia russie 1.0000000
most communication 0.2000000
recent communication 0.2000000
route communication 0.2000000
communication communication 0.4000000
NULL défaut 0.3333333
transparent défaut 0.3333333
upturn défaut 0.3333333
sin péché 1.0000000
efficiency efficacité 0.2500000
NULL efficacité 0.2500000
effectiveness efficacité 0.5000000
are élevés 1.0000000
waterway navigable 0.5000000
inland navigable 0.5000000
it reste 0.3333333
is reste 0.3333333
still reste 0.3333333
why éligibilité 1.0000000
on 18 0.3333333
18 18 0.6666667
silence silence 0.5000000
s silence 0.5000000
seriously grave 0.1428571
indication grave 0.1428571
that grave 0.1428571
is grave 0.1428571
something grave 0.1428571
serious grave 0.2857143
most connaître 0.1666667
very connaître 0.1666667
knowledge connaître 0.1666667
have connaître 0.1666667
finding connaître 0.1666667
about connaître 0.1666667
wide wide 1.0000000
been ayons 1.0000000
forward impatience 1.0000000
developments industrielle 0.5000000
industrial industrielle 0.5000000
lead mènent 1.0000000
raise relever 1.0000000
95 95 1.0000000
connection égard 0.5000000
be égard 0.2500000
analysed égard 0.2500000
they bénéficie 0.6666667
are bénéficie 0.3333333
fit vont 0.1250000
NULL vont 0.2500000
be vont 0.1250000
heading vont 0.1250000
dispose vont 0.1250000
join vont 0.1250000
also vont 0.1250000
existing existante 1.0000000
bear exhaustive 0.5000000
fully exhaustive 0.5000000
proceed procède 1.0000000
short court 1.0000000
exceptionally technique 0.3333333
technical technique 0.6666667
base prospère 1.0000000
meteoric fulgurant 1.0000000
saving capitaux 0.3333333
does capitaux 0.3333333
capital capitaux 0.3333333
hat ! 0.5000000
off ! 0.5000000
materials circonstance 1.0000000
NULL attention 0.1111111
attention attention 0.5555556
your attention 0.1111111
carefully attention 0.1111111
minds attention 0.1111111
single concernant 0.1250000
on concernant 0.1250000
said concernant 0.1250000
NULL concernant 0.2500000
regarding concernant 0.1250000
oral concernant 0.1250000
taxation concernant 0.1250000
NULL unanime 1.0000000
competitive structures 0.5000000
depend structures 0.5000000
minimum normes 0.1666667
standards normes 0.5000000
concerns normes 0.1666667
relevant normes 0.1666667
front assez 0.2500000
was assez 0.2500000
NULL assez 0.5000000
NULL îles 0.2500000
islands îles 0.7500000
us profile 1.0000000
related réseaux 0.5000000
networks réseaux 0.5000000
equal égalité 1.0000000
small aux 0.0416667
the aux 0.1458333
matters aux 0.0208333
NULL aux 0.1250000
states aux 0.0416667
turned aux 0.0208333
anyway aux 0.0208333
to aux 0.2916667
reference aux 0.0208333
less aux 0.0208333
in aux 0.0208333
operators aux 0.0208333
pillars aux 0.0208333
citizens aux 0.0208333
subsidy aux 0.0208333
access aux 0.0208333
according aux 0.0208333
operations aux 0.0208333
regions aux 0.0416667
deficiencies aux 0.0208333
repayment aux 0.0208333
additional supplémentaires 0.6666667
be supplémentaires 0.3333333
change système 1.0000000
luxembourg luxembourg 1.0000000
essentially contrariant 0.2000000
doing contrariant 0.2000000
nuisance contrariant 0.2000000
a contrariant 0.2000000
today contrariant 0.2000000
on bourlanges 0.5000000
bourlanges bourlanges 0.5000000
NULL recommandations 0.3333333
recommendations recommandations 0.6666667
does coule 1.0000000
come adoptons 1.0000000
thereby faisant 0.2500000
NULL faisant 0.2500000
have faisant 0.2500000
that faisant 0.2500000
flexible imprimer 1.0000000
key échange 1.0000000
inform communiquer 1.0000000
koch koch 1.0000000
been écoulé 0.5000000
has écoulé 0.5000000
wishes s 0.1666667
continuation s 0.1666667
means s 0.1666667
wurtz s 0.1666667
no s 0.1666667
based s 0.1666667
have inscrire 0.5000000
bourlanges inscrire 0.5000000
group groupe 1.0000000
urge énergie 0.3333333
energy énergie 0.3333333
sector énergie 0.3333333
on hier 0.2500000
yesterday hier 0.7500000
( ( 1.0000000
adapted adaptées 0.3333333
account adaptées 0.3333333
take adaptées 0.3333333
received reçu 1.0000000
exceptions exceptions 0.5000000
permitted exceptions 0.5000000
i doutant 1.0000000
on tributaires 0.5000000
depend tributaires 0.5000000
next ensuite 0.1111111
lament ensuite 0.1111111
to ensuite 0.2222222
proceed ensuite 0.1111111
then ensuite 0.3333333
technical ensuite 0.1111111
upheld soutenus 1.0000000
a acquis 1.0000000
will tiendra 0.5000000
sitting tiendra 0.5000000
when moment-là 0.5000000
time moment-là 0.5000000
letter lettre 1.0000000
general générale 0.7500000
' générale 0.2500000
we octroie 1.0000000
tested expérimenté 0.3333333
now expérimenté 0.3333333
being expérimenté 0.3333333
previous orateurs 0.5000000
speakers orateurs 0.5000000
less échelle 1.0000000
infrastructure infrastructures 0.5000000
potential infrastructures 0.2500000
infrastructures infrastructures 0.2500000
problem sérieux 0.1250000
piece sérieux 0.2500000
substantive sérieux 0.1250000
of sérieux 0.2500000
thorough sérieux 0.1250000
work sérieux 0.1250000
institutional institutionnelles 1.0000000
has constate 0.5000000
directly constate 0.5000000
NULL offrir 0.3333333
offer offrir 0.3333333
steer offrir 0.3333333
us rester 0.3333333
still rester 0.3333333
leave rester 0.3333333
austria autriche 1.0000000
for coupler 1.0000000
ambition audace 0.3333333
daring audace 0.3333333
NULL audace 0.3333333
session session 0.5000000
part-session session 0.5000000
geneva genève 1.0000000
political obligation 0.2500000
commitment obligation 0.2500000
obligation obligation 0.5000000
directly acte 1.0000000
very merci 0.0714286
you merci 0.4285714
thank merci 0.4285714
much merci 0.0714286
reiterate principaux 1.0000000
stated déclarait 1.0000000
on désaccord 0.3333333
occasions désaccord 0.3333333
numerous désaccord 0.3333333
NULL décision 0.1428571
reconsider décision 0.1428571
ruling décision 0.1428571
decision décision 0.5714286
feasible réalisable 1.0000000
represent représente 1.0000000
remains agit 0.1250000
putting agit 0.1250000
NULL agit 0.3750000
about agit 0.1250000
are agit 0.1250000
all agit 0.1250000
adopted positions 0.1666667
then positions 0.1666667
positions positions 0.6666667
solution formule 0.6666667
workable formule 0.3333333
characterised imaginer 1.0000000
volume importantes 0.2500000
smaller importantes 0.2500000
observations importantes 0.2500000
, importantes 0.2500000
interventionism étatique 1.0000000
practical pratique 0.2000000
practice pratique 0.2000000
implementation pratique 0.2000000
their pratique 0.2000000
administration pratique 0.2000000
dimension fonctionne 0.5000000
working fonctionne 0.5000000
within sein 0.6666667
permit sein 0.0833333
NULL sein 0.1666667
equitably sein 0.0833333
know êtes 0.5000000
reiterated êtes 0.5000000
useful consigner 1.0000000
they auront 0.2500000
be auront 0.2500000
will auront 0.2500000
keen auront 0.2500000
hänsch hänsch 1.0000000
steps vers 0.1250000
step vers 0.1250000
ensure vers 0.1250000
NULL vers 0.1250000
enacting vers 0.1250000
towards vers 0.2500000
demand-orientated vers 0.1250000
capacities capacités 0.3333333
skills capacités 0.3333333
and capacités 0.3333333
declared manifestés 0.3333333
themselves manifestés 0.3333333
have manifestés 0.3333333
do débarrassé 1.0000000
weeks prochaines 1.0000000
NULL lui 0.4000000
him lui 0.2000000
would lui 0.2000000
commend lui 0.2000000
fellow robert 1.0000000
population dénoncent 0.1666667
condemned dénoncent 0.1666667
has dénoncent 0.1666667
' dénoncent 0.1666667
s dénoncent 0.1666667
strongly dénoncent 0.1666667
media montrent 1.0000000
institution institution 1.0000000
boost alimenter 1.0000000
them inclues 0.5000000
included inclues 0.5000000
40 -40 1.0000000
amendments agissant 0.2000000
been agissant 0.2000000
have agissant 0.2000000
proposed agissant 0.2000000
relating agissant 0.2000000
to remercier 0.1111111
thank remercier 0.8888889
discuss débat 0.0588235
debate débat 0.8235294
about débat 0.0588235
discussed débat 0.0588235
what quoi 0.6666667
apart quoi 0.3333333
financed financée 1.0000000
provision dotation 1.0000000
establishing sur 0.0104167
affected sur 0.0104167
appreciate sur 0.0104167
responsibility sur 0.0104167
two sur 0.0104167
on sur 0.3541667
drag sur 0.0104167
about sur 0.0312500
lasted sur 0.0104167
upon sur 0.0208333
discuss sur 0.0104167
far-reaching sur 0.0104167
regarding sur 0.0416667
else sur 0.0104167
addition sur 0.0104167
drawing sur 0.0104167
1998 sur 0.0208333
away sur 0.0104167
and sur 0.0104167
role sur 0.0104167
prices sur 0.0104167
disturbing sur 0.0104167
general sur 0.0104167
welfare sur 0.0104167
accomplished sur 0.0104167
NULL sur 0.1250000
of sur 0.0104167
up sur 0.0104167
to sur 0.0208333
share sur 0.0104167
basis sur 0.0104167
discussing sur 0.0104167
demand sur 0.0104167
unified sur 0.0104167
cost-intensive sur 0.0104167
attention sur 0.0208333
draw sur 0.0104167
precisely sur 0.0104167
profit sur 0.0104167
fourthly sur 0.0104167
concern sur 0.0104167
aligned sur 0.0104167
allowing sur 0.0104167
pro-active appuie 0.5000000
be appuie 0.5000000
: continueront 0.3333333
follows continueront 0.3333333
continue continueront 0.3333333
list classement 1.0000000
operations actuelles 0.5000000
drawn actuelles 0.5000000
spirit adapter 1.0000000
affected températures 0.5000000
lower températures 0.5000000
much optimisme 0.5000000
optimism optimisme 0.5000000
us puissions 0.5000000
get puissions 0.5000000
to mettre 0.2222222
NULL mettre 0.2222222
establish mettre 0.1111111
implement mettre 0.1111111
adopt mettre 0.1111111
terminating mettre 0.1111111
set mettre 0.1111111
from acteurs 0.3333333
players acteurs 0.3333333
operators acteurs 0.3333333
want voudrais 0.0410959
like voudrais 0.4520548
to voudrais 0.0410959
would voudrais 0.2602740
should voudrais 0.2054795
matter commentaires 0.2500000
publicly commentaires 0.2500000
comments commentaires 0.2500000
this commentaires 0.2500000
access accès 1.0000000
NULL analyse 0.1250000
type analyse 0.1250000
this analyse 0.1250000
analysis analyse 0.6250000
environment compétitif 0.5000000
competitive compétitif 0.5000000
everyday quotidienne 1.0000000
a vue 0.1000000
NULL vue 0.1000000
view vue 0.3000000
legal vue 0.1000000
terms vue 0.1000000
with vue 0.2000000
forget vue 0.1000000
various différents 0.6666667
NULL différents 0.1666667
differently différents 0.1666667
to contribue 0.2500000
a contribue 0.2500000
contribution contribue 0.2500000
this contribue 0.2500000
acquitted prononcé 1.0000000
would prierais 0.5000000
ask prierais 0.5000000
also cessent 1.0000000
information information 1.0000000
government britannique 0.5000000
is britannique 0.5000000
representatives représentants 1.0000000
significant baisse 0.5000000
reduction baisse 0.5000000
164 164 1.0000000
NULL passé 0.2500000
past passé 0.7500000
to directive 0.0909091
amend directive 0.0909091
directive directive 0.8181818
strengthening continuité 1.0000000
market marché 0.9655172
NULL marché 0.0344828
approved adopté 0.3333333
affairs adopté 0.3333333
were adopté 0.3333333
' législatif 0.3333333
s législatif 0.3333333
legislative législatif 0.3333333
comparison marquait 1.0000000
principles principes 1.0000000
it refusant 0.3333333
irresponsible refusant 0.3333333
is refusant 0.3333333
rather sectorielle 0.5000000
pertains sectorielle 0.5000000
most scénario 0.3333333
scenario scénario 0.3333333
probable scénario 0.3333333
follow-up tel 0.2000000
NULL tel 0.2000000
with tel 0.2000000
compulsory tel 0.2000000
this tel 0.2000000
valuable précieuses 1.0000000
ownership possession 1.0000000
NULL lors 0.0833333
therefore lors 0.0833333
experience lors 0.0833333
consideration lors 0.0833333
we lors 0.0833333
end lors 0.0833333
large lors 0.0833333
in lors 0.1666667
answered lors 0.0833333
formally lors 0.0833333
this lors 0.0833333
NULL sidérurgie 0.1666667
expired sidérurgie 0.1666667
future sidérurgie 0.1666667
industry sidérurgie 0.1666667
steel sidérurgie 0.3333333
traffic trafic 1.0000000
have amené 0.5000000
failed amené 0.5000000
poettering poettering 0.7500000
logic poettering 0.2500000
asking demandiez 1.0000000
staircases n' 0.0196078
object n' 0.0196078
know n' 0.0196078
NULL n' 0.3529412
did n' 0.0980392
since n' 0.0196078
do n' 0.0196078
others n' 0.0196078
employed n' 0.0196078
not n' 0.0392157
failed n' 0.0196078
room n' 0.0196078
never n' 0.0196078
incentives n' 0.0196078
let n' 0.0196078
delivered n' 0.0196078
fire n' 0.0196078
merely n' 0.0196078
internet n' 0.0196078
bernié n' 0.0196078
decreased n' 0.0196078
until n' 0.0196078
1998 n' 0.0196078
voted n' 0.0196078
positions n' 0.0196078
nations n' 0.0196078
nothing n' 0.0392157
permitted n' 0.0196078
competence compétence 1.0000000
covered couvertes 1.0000000
chance possibilité 0.5000000
opportunity possibilité 0.2500000
give possibilité 0.2500000
today examen 0.2000000
for examen 0.2000000
areas examen 0.2000000
discussion examen 0.2000000
transportation examen 0.2000000
whether sais 1.0000000
creation communs 0.3333333
schemes communs 0.3333333
job communs 0.3333333
strategies intégrées 1.0000000
so tombée 0.3333333
made tombée 0.3333333
let tombée 0.3333333
direction direction 0.2500000
for direction 0.2500000
directorate direction 0.5000000
self-restraint preuve 0.5000000
refuse preuve 0.5000000
phase phase 1.0000000
ex évaluations 1.0000000
propose justifier 1.0000000
used servant 1.0000000
NULL dû 0.5000000
by dû 0.5000000
could estimer 0.5000000
refer estimer 0.5000000
fill incitent 0.5000000
me incitent 0.5000000
lynne lynne 1.0000000
pass part 0.1250000
well-intentioned part 0.1250000
NULL part 0.1250000
businesses part 0.1250000
responsibility part 0.1250000
, part 0.1250000
all part 0.1250000
secondly part 0.1250000
540 540 0.2500000
totalling 540 0.2500000
company 540 0.2500000
capital 540 0.2500000
confirm vous 0.0166667
let vous 0.0166667
might vous 0.0166667
NULL vous 0.0666667
rise vous 0.0333333
you vous 0.7500000
admit vous 0.0166667
tell vous 0.0333333
speech vous 0.0166667
satisfied vous 0.0166667
expressing vous 0.0166667
on interdiction 0.5000000
ban interdiction 0.5000000
address examiner 1.0000000
coming finissons 0.5000000
are finissons 0.5000000
must placer 0.3333333
have placer 0.3333333
at placer 0.3333333
actual encore 0.0769231
NULL encore 0.0769231
even encore 0.0769231
degree encore 0.0769231
ease encore 0.0769231
we encore 0.1538462
still encore 0.0769231
remains encore 0.0769231
have encore 0.1538462
strengthened encore 0.0769231
also encore 0.0769231
so créer 0.2500000
create créer 0.5000000
layers créer 0.2500000
resolution résolution 1.0000000
be entraves 0.5000000
dismantled entraves 0.5000000
thought ai 0.0555556
" ai 0.0555556
wish ai 0.0555556
NULL ai 0.4444444
appreciate ai 0.0555556
have ai 0.2777778
do ai 0.0555556
voting votant 1.0000000
killings perpétrés 1.0000000
1997 tendance 0.5000000
absent tendance 0.5000000
assume doivent 0.0555556
must doivent 0.6666667
NULL doivent 0.0555556
meet doivent 0.0555556
belong doivent 0.0555556
compromising doivent 0.0555556
drawn doivent 0.0555556
still restent 1.0000000
thanking chers 0.0833333
able chers 0.0833333
NULL chers 0.5000000
limited chers 0.0833333
ladies chers 0.0833333
i chers 0.0833333
colleagues chers 0.0833333
it saurai 0.5000000
would saurai 0.5000000
managed future 0.5000000
be future 0.5000000
into dramatiser 0.2500000
more dramatiser 0.2500000
dramatised dramatiser 0.2500000
something dramatiser 0.2500000
NULL cause 0.5000000
commend cause 0.5000000
confirm intérêt 0.1666667
deliberations intérêt 0.1666667
your intérêt 0.1666667
part intérêt 0.1666667
positive intérêt 0.1666667
relating intérêt 0.1666667
