cruel NULL 0.0005171
j' deep 0.2500000
j' invite 0.3333333
j' NULL 0.0015512
j' compliments 0.2000000
j' let 0.0909091
j' summarise 0.3333333
j' expect 0.3333333
j' i 0.0969388
saisir use 0.1250000
issue close 0.5000000
issue outcomes 0.5000000
premièrement firstly 0.0769231
soumis having 0.1666667
compétitives structures 1.0000000
régionale regional 0.3333333
régionale ' 0.0370370
régionale s 0.0434783
conformer observed 0.2500000
conformer be 0.0076336
donne given 0.0833333
donne producing 0.2500000
donne are 0.0089286
cité actually 0.1250000
souscrit endorsed 0.3333333
millénaire millennium 0.5000000
millénaire new 0.0909091
millénaire happy 0.3333333
millénaire and 0.0031447
millénaire year 0.2500000
septembre distinguished 0.5000000
septembre september 1.0000000
inadmissible inappropriately 0.3333333
villes alone 0.3333333
villes cities 1.0000000
mieux NULL 0.0010341
mieux better 0.5000000
mieux will 0.0178571
mieux doubt 0.3333333
mieux respond 0.1428571
mieux available 0.2500000
accommoder live 0.1666667
accommoder with 0.0147059
crédibilité credibility 0.5000000
experts experts 0.3333333
experts concerned 0.0833333
experts are 0.0089286
disparaisse tend 0.2500000
écoulées years 0.2500000
abord first 0.1250000
abord NULL 0.0010341
abord firstly 0.3076923
abord thank 0.0526316
abord all 0.0327869
conclusions presents 0.3333333
conclusions political 0.1250000
conclusions conclusions 0.3333333
laissée left 0.3333333
acceptons accept 0.1000000
acceptons therefore 0.0357143
garantir ensure 0.0666667
garantir to 0.0021186
garantir maximum 0.3333333
garantir 10 0.2500000
vous-même yourself 1.0000000
démontrent adequately 0.5000000
nullement any 0.0526316
elles-mêmes consumers 0.3333333
elles-mêmes for 0.0068966
elles-mêmes companies 0.0833333
elles-mêmes and 0.0031447
problèmes advocates 1.0000000
problèmes NULL 0.0010341
problèmes later 0.5000000
problèmes with 0.0147059
problèmes difficult 1.0000000
problèmes problems 0.4545455
parce so 0.0333333
parce was 0.0256410
parce do 0.0444444
parce because 0.0666667
demande request 0.6666667
demande NULL 0.0020683
demande answer 1.0000000
demande requests 0.1250000
demande would 0.0735294
demande moves 1.0000000
demande ask 0.2142857
demande possibly 1.0000000
demande urge 0.1428571
demande propose 0.1428571
demande wonder 0.2000000
demande requesting 0.1666667
demande call 0.2000000
demande demand 0.1666667
demande ppe-de 0.2500000
altérations is 0.0044643
surtout part 0.1428571
surtout take 0.0500000
est-ce fair 0.2500000
est-ce would 0.0147059
certaines drawing 0.1666667
certaines willing 0.1666667
certaines reservations 0.5000000
certaines NULL 0.0005171
certaines alleviate 0.1666667
certaines broke 1.0000000
certaines some 0.0769231
certaines opinions 0.2500000
nouvelles provide 0.1666667
nouvelles technology 1.0000000
nouvelles new 0.3636364
xxviiie xviiith 0.3333333
xxviiie ' 0.0185185
xxviiie s 0.0217391
reproduit happens 0.3333333
codécision codecision 0.3750000
codécision legislation 0.1000000
codécision procedure 0.1428571
zonage phase 0.5000000
zonage zoning 0.6000000
ils they 0.1071429
ils democrat 0.5000000
ils reform 0.1428571
ils NULL 0.0005171
ils mind 0.2000000
pratiquée had 0.0909091
pratiquée existing 0.2000000
pratiquée which 0.0112360
pratiquée has 0.0140845
pratiquée dramatic 1.0000000
faudrait completely 0.5000000
faudrait NULL 0.0010341
faudrait be 0.0229008
faudrait should 0.0408163
richesse wealth 0.5000000
me NULL 0.0020683
me somewhat 0.2500000
me me 0.0769231
me seems 0.3333333
me mistaken 0.3333333
me grateful 0.5000000
me appears 0.3333333
me drawing 0.1666667
me to 0.0105932
me opposite 0.2000000
me dear 0.2500000
me wonder 0.2000000
me am 0.1764706
me i 0.0051020
basses affected 0.0909091
basses cold 0.2500000
basses are 0.0089286
basses by 0.0163934
tribunal courts 0.5000000
trouvé thought 0.5000000
trouvé that 0.0059172
type NULL 0.0005171
type type 0.2000000
type objection 0.3333333
réduction hours 1.0000000
réduction working 0.1000000
réduction reduction 0.2500000
reconsidérée they 0.0357143
reconsidérée reconsider 0.2500000
reconsidérée , 0.0014409
ltcm hedge 1.0000000
injustifiée be 0.0076336
injustifiée unjustified 0.2500000
résumer quite 0.0769231
assentiment NULL 0.0005171
conférera them 0.0833333
conférera gives 0.3333333
conférera edge 0.2500000
serait-elle be 0.0076336
serait-elle then 0.0555556
jamais compensate 0.3333333
jamais NULL 0.0005171
jamais never 0.3333333
idéologue ideologue 1.0000000
idéologue an 0.0204082
rapports balance 0.1250000
rapports both 0.1333333
rapports relationships 0.5000000
rapports relations 0.2000000
rapports reports 0.6666667
exode from 0.0250000
exode areas 0.0526316
exode exodus 1.0000000
habiter live 0.1666667
situation stand 0.2857143
situation NULL 0.0005171
situation situation 0.5454545
situation at 0.0208333
wurtz wurtz 0.2500000
note of 0.0043197
note this 0.0104167
note note 0.5000000
nature investments 0.5000000
nature a 0.0049261
nature purely 1.0000000
moderniser modernised 0.2000000
achevé complete 1.0000000
stratégique strategically 1.0000000
stratégique strategic 0.4000000
adresse to 0.0042373
adresse compliments 0.2000000
reporté delayed 1.0000000
reporté until 0.5000000
mélanger it 0.0089286
étaient delivered 0.2500000
étaient depend 0.2000000
étaient are 0.0089286
afférents networks 0.5000000
annexes particular 0.0909091
cen cen 0.7500000
majorité wish 0.0909091
majorité majority 0.3333333
majorité right-wing 0.2500000
déjà longstanding 0.3333333
déjà NULL 0.0005171
déjà already 0.6428571
déjà highlighted 0.2000000
jungfernrede as 0.0112360
ensemble whole 0.1666667
ensemble a 0.0049261
ensemble as 0.0112360
ensemble NULL 0.0010341
ensemble together 0.2000000
ensemble all 0.0327869
importance destructive 1.0000000
importance set-piece 0.2000000
importance NULL 0.0005171
importance importance 0.7000000
livrer here 0.0909091
livrer speech 0.3333333
faudra must 0.0204082
faudra will 0.0178571
faudra study 0.2000000
autonome upturn 0.2000000
autonome self-supporting 0.5000000
peut-être probably 1.0000000
peut-être misunderstandings 0.3333333
abouti as 0.0112360
abouti regard 0.1111111
abouti come 0.1000000
abouti having 0.1666667
abouti end 0.1111111
abouti an 0.0204082
soins care 0.2500000
dispersé populations 1.0000000
dispersé and 0.0031447
parmi among 0.5000000
conditions prerequisites 0.1666667
conditions living 0.5000000
conditions conditions 0.4615385
précédemment previously 0.5000000
source accord 1.0000000
source own 0.0833333
source its 0.0500000
protection protection 1.0000000
avis concerned 0.0833333
avis is 0.0044643
avis opinion 0.2500000
avis view 0.2500000
avis hold 0.3333333
avis believe 0.0666667
avis feel 0.1428571
avis read 0.3333333
après NULL 0.0005171
après day 0.1428571
après that 0.0059172
après examine 0.5000000
après we 0.0137931
après if 0.0333333
diminuerait less 0.2000000
députés members 0.2857143
députés NULL 0.0005171
députés for 0.0068966
députés vast 0.3333333
prévu order 0.1000000
profite like 0.0185185
profite would 0.0147059
certain amount 0.2500000
certain NULL 0.0005171
certain in 0.0032468
certain which 0.0112360
certain this 0.0052083
donc the 0.0010504
donc so 0.0333333
donc accept 0.2000000
donc NULL 0.0025853
donc affect 0.2500000
donc therefore 0.3928571
donc hereby 1.0000000
donc remember 0.2000000
donc raise 0.1250000
donc thus 0.1666667
donc let 0.0909091
donc wonder 0.2000000
donc makes 0.1666667
donc this 0.0052083
vivement very 0.0303030
vivement much 0.0714286
tenté attempted 1.0000000
financements funding 0.3333333
financements that 0.0059172
financements matched 0.1666667
financements is 0.0044643
favorise requires 1.0000000
décisif decisive 0.5000000
décisif importance 0.1000000
accepter accept 0.1000000
accepter cannot 0.0833333
accepter citizens 0.0909091
açores azores 1.0000000
éventuellement them 0.0833333
éventuellement certificates 1.0000000
prêtera , 0.0014409
direz tell 0.1250000
direz will 0.0178571
direz me 0.0769231
direz situations 1.0000000
yeux seriously 0.5000000
12 at 0.0416667
entier one 0.0270270
entier month 0.3333333
entier working 0.1000000
entier full 0.2500000
défaillance talk 0.3333333
défaillance wrong 1.0000000
rupture unnecessary 0.5000000
notre house 0.0714286
notre our 0.4615385
notre NULL 0.0036194
notre jonckheer 0.2000000
notre elected 0.5000000
notre participate 0.1428571
notre failed 0.2500000
notre this 0.0156250
individuelle lead 0.2000000
défend argues 0.3333333
excuse just 0.0370370
excuse excuse 0.2500000
programmation programmes 0.0555556
programmation programming 0.6666667
programmation set 0.1666667
dis am 0.0588235
dis raising 0.2500000
expliquer to 0.0021186
expliquer it 0.0089286
expliquer explain 1.0000000
soutiens wholehearted 0.3333333
éviter NULL 0.0005171
éviter framework 0.6666667
éviter ; 0.2000000
éviter abuses 0.3333333
1 1 0.8888889
1 status 0.3333333
soutiendrez support 0.1111111
soutiendrez will 0.0178571
stimulation boosting 1.0000000
rendrai a 0.0049261
personne someone 0.3333333
personne NULL 0.0005171
personne from 0.0250000
personne customers 0.1111111
personne anyone 0.5000000
retour relates 0.2000000
retour retrodisplacement 0.1666667
bâtiments brussels 1.0000000
représentent reminiscent 0.3333333
réuni meeting 0.2000000
réuni committee 0.0454545
généraux general 0.0909091
affaiblir existing 0.2000000
affaiblir watering-down 0.2000000
clos closed 0.8000000
elle-même s 0.0217391
jeunes people 0.0952381
jeunes young 0.5000000
spécifiques specific 0.3333333
jusqu' so 0.0333333
jusqu' NULL 0.0005171
jusqu' interpret 0.3333333
orale oral 0.6666667
serait sufficiently 0.2000000
serait NULL 0.0005171
serait it 0.0267857
serait would 0.0588235
serait is 0.0044643
serait legally 0.2500000
serait suggested 0.3333333
serait be 0.0305344
diversité ours 1.0000000
diversité diversity 0.2500000
décembre december 1.0000000
décembre 1999 0.1666667
partie NULL 0.0005171
partie part 0.2857143
partie , 0.0014409
partie proposals 0.2500000
formelle strict 0.5000000
exclusivement exclusion 0.2500000
exclusivement of 0.0021598
exclusivement else 0.2000000
exclusivement all 0.0163934
brièvement comment 0.1428571
brièvement highlight 0.3333333
brièvement briefly 0.4000000
ceux-ci our 0.0256410
ex assessments 1.0000000
ex ante 0.5000000
évidentes risks 0.2500000
évidentes entails 0.3333333
évidentes that 0.0059172
évidentes this 0.0052083
économiques economic 0.0909091
économiques facts 0.1666667
économiques operators 0.2000000
haute it 0.0089286
haute hi-tech 0.2500000
mobilisé used 0.1250000
mentionné mentioned 0.0833333
mentionné referred 0.1666667
produits products 0.3333333
ajouté as 0.0112360
redonne re-establishes 1.0000000
vacances pleasant 0.5000000
vacances period 0.1428571
vacances a 0.0049261
vacances festive 1.0000000
vacances enjoyed 1.0000000
tardivement a 0.0049261
tardivement parliament 0.0212766
tardivement only 0.1000000
tardivement date 0.5000000
tardivement come 0.1000000
tardivement has 0.0140845
tardivement late 0.2000000
tardivement at 0.0208333
tardivement about 0.0476190
bien-être provide 0.1666667
investissements do 0.0222222
investissements diversity 0.2500000
investissements lesser 1.0000000
parlement house 0.4285714
parlement NULL 0.0010341
parlement record 1.0000000
parlement parliament 0.5744681
répondu answered 0.2500000
proposons proposing 0.5000000
proposons propose 0.1428571
proposons both 0.0666667
proposons keeping 0.3333333
proposons are 0.0089286
traitera to 0.0021186
y benefits 0.5000000
y bernié 0.3333333
y adopted 0.0769231
y NULL 0.0041365
y are 0.0178571
y disgraceful 1.0000000
y ago 0.2222222
y is 0.0446429
y sorely 1.0000000
y there 0.0172414
y deal 0.1428571
y to 0.0021186
y comprehensive 0.3333333
y weight 0.3333333
suggère suggest 0.5000000
réfèrent pillars 0.2500000
commercialiser marketing 1.0000000
obstacle obstacle 0.5000000
adressait so 0.0333333
adressait comment 0.1428571
adressait much 0.0714286
banques banks 0.2000000
banques referred 0.1666667
hedge american 0.5000000
médicaux care 0.2500000
médicaux health 0.3333333
margarine margarine 0.5000000
pousser just 0.0370370
santé health 0.6666667
déclarée declared 0.2500000
constituera be 0.0076336
constituera will 0.0178571
continuent are 0.0089286
ordre withdrawn 0.1428571
ordre on 0.0234375
ordre next 0.2000000
ordre NULL 0.0005171
ordre business 0.1904762
ordre agenda 0.2962963
vendredi friday 0.6666667
vendredi reports 0.1111111
collègue fuster 0.5000000
collègue said 0.1111111
collègue jonckheer 0.2000000
collègue member 0.0344828
collègue , 0.0028818
collègue fellow 0.3333333
collègue radwan 1.0000000
collègue fischler 0.3333333
collègue colleague 1.0000000
collègue mr 0.0238095
quelle what 0.0357143
diminués levels 0.0909091
entendrons hearing 1.0000000
viable viable 0.1666667
qu it 0.0089286
qu NULL 0.0005171
qu he 0.2000000
qu my 0.0232558
qu advertising 0.2000000
qu see 0.0769231
la competence 0.5000000
la the 0.2815126
la lead 0.2000000
la speak 0.2000000
la caused 1.0000000
la employment 0.0500000
la our 0.0256410
la policy 0.0571429
la its 0.0500000
la give 0.1250000
la president 0.1844660
la restrictions 0.3333333
la explosions 0.2500000
la television 0.3333333
la barriers 0.2000000
la how 0.3000000
la cooperation 0.1666667
la wealth 0.5000000
la directorate 0.3333333
la s 0.1739130
la foundation 0.2500000
la margarine 0.5000000
la consultation 0.5000000
la taxation 0.2000000
la used 0.1250000
la fisheries 0.5000000
la practical 0.2000000
la NULL 0.0289555
la most 0.0769231
la poverty 0.2500000
la research 0.4545455
la still 0.0769231
la certain 0.1428571
la safety 0.2413793
la apply 0.1666667
la plans 0.3333333
la to 0.0042373
la cohesion 0.3548387
la growth 0.4000000
la fall 0.2000000
la promoting 0.5000000
la regional 0.0333333
la towards 0.0769231
la shortage 0.5000000
la subsidiarity 0.2000000
la transparent 0.1428571
la . 0.0015083
la call 0.2000000
la hi-tech 0.2500000
la procedure 0.1428571
la asked 0.3333333
la including 0.2000000
la competition 0.3448276
la credibility 0.5000000
la force 0.2000000
la mix 0.5000000
la there 0.0344828
la amend 0.1428571
la hand 0.4000000
la keeping 0.3333333
la strengthening 0.2500000
accusation go 0.2500000
urbain was 0.0256410
urbain urban 0.2500000
avait in 0.0032468
avait visited 0.2500000
avait adjourned 0.2500000
constitutionnel right 0.0714286
constitutionnel constitutional 0.5000000
nombre NULL 0.0005171
nombre boost 0.1111111
nombre s 0.0217391
considéré considered 0.3333333
pour cases 0.1666667
pour on 0.0390625
pour adapted 0.2500000
pour wishes 0.3333333
pour " 0.1250000
pour framework 0.3333333
pour luxembourg 0.5000000
pour keep 0.2857143
pour legislation 0.1000000
pour so 0.0666667
pour expected 0.5000000
pour alleviate 0.1666667
pour for 0.2413793
pour reasons 0.2000000
pour presently 0.2000000
pour decade 1.0000000
pour xviiith 0.3333333
pour used 0.1250000
pour achieving 0.2000000
pour with 0.0294118
pour alike 0.1666667
pour function 0.2000000
pour NULL 0.0072389
pour speaker 0.5000000
pour adequate 0.3333333
pour purpose 0.1000000
pour later 0.5000000
pour young 0.2500000
pour constructive 0.1250000
pour rules 0.1818182
pour regulate 0.5000000
pour needed 0.2000000
pour being 0.0526316
pour to 0.0635593
pour french 0.2000000
pour unknown 1.0000000
pour home 0.3333333
pour raising 0.2500000
pour attentive 0.5000000
pour congratulate 0.1111111
pour finally 0.2307692
pour through 0.1666667
pour everyone 0.2500000
pour effective 0.2857143
conforter establishing 0.1428571
parvenu reached 0.1111111
parvenu agreement 0.3333333
toutefois believe 0.0666667
toutefois discussed 0.2500000
toutefois but 0.0555556
toutefois however 0.1818182
mexique mexico 1.0000000
engendrent through 0.1666667
engendrent entails 0.3333333
travailler working 0.1000000
obtenons NULL 0.0005171
obtenons in 0.0032468
estimeront who 0.0625000
estimeront think 0.0714286
ai-je consequently 0.1666667
préadhésion pre-accession 0.3333333
davantage direction 0.1666667
davantage actual 0.3333333
davantage NULL 0.0010341
davantage greater 0.0909091
davantage reminiscent 0.3333333
travail NULL 0.0015512
travail work 0.3913043
travail job 0.5000000
travail well 0.1000000
travail jobs 0.2000000
travail report 0.0181818
travail exceptionally 0.2500000
travail extremely 0.1428571
travail his 0.1250000
globalement as 0.0112360
globalement working 0.1000000
rythme development 0.0303030
évolution extraordinarily 0.2500000
évolution NULL 0.0005171
évolution how 0.1000000
évolution technical 0.2500000
examinons debate 0.0500000
examinons at 0.0208333
examinons up 0.1000000
examinons look 0.1000000
ces affected 0.0909091
ces these 0.6410256
ces NULL 0.0005171
ces governing 0.5000000
ces storms 0.2857143
ces enforcement 0.0909091
ces those 0.0769231
ces aligned 0.1666667
ces borders 0.3333333
ces totally 0.2500000
recommandait recommended 1.0000000
utiliser " 0.1250000
utiliser be 0.0076336
utiliser spent 0.1666667
témoignant amount 0.2500000
venu implement 0.3333333
venu come 0.1000000
venu has 0.0140845
appliquent for 0.0068966
rejette rejected 1.0000000
dit said 0.3333333
dit NULL 0.0005171
dit already 0.0714286
dit expressed 0.2000000
dit been 0.0196078
lanka lanka 0.6666667
déplaçant shifting 1.0000000
déplaçant by 0.0163934
socialistes NULL 0.0005171
socialistes socialists 0.3333333
socialistes european 0.0263158
position unfortunate 0.5000000
position matter 0.0588235
position NULL 0.0005171
position position 0.5000000
position stands 0.1428571
aurai object 0.2000000
aurai have 0.0112360
voilà so 0.0666667
voilà these 0.0256410
voilà purpose 0.1000000
voilà much 0.0714286
voilà are 0.0089286
voilà build 0.1666667
régit apply 0.1666667
régit to 0.0021186
régit equally 0.1666667
aparicio aparicio 1.0000000
prise taken 0.0666667
prise be 0.0076336
prise into 0.0555556
prise consideration 0.1000000
prise slow 0.2500000
enrayer alleviate 0.1666667
quarts quarters 0.5000000
reprises underlying 0.5000000
reprises principles 0.2000000
reprises NULL 0.0005171
logique wynn 0.5000000
logique out 0.0625000
logique logical 0.2500000
rapkay rapkay 1.0000000
rapkay mr 0.0238095
obligations regulatory 0.3333333
respecté observed 0.2500000
respecté be 0.0076336
efforcée created 0.3333333
efforcée a 0.0049261
efforcée means 0.0909091
semblent somewhat 0.2500000
semblent seem 0.1666667
reprendre willing 0.1666667
reprendre include 0.2500000
devra individually 0.2000000
devra should 0.0204082
devra state 0.0227273
plusieurs several 0.2000000
plusieurs number 0.2222222
plusieurs for 0.0068966
plusieurs lasted 0.2000000
plusieurs build 0.1666667
bruxelles buildings 0.2000000
unies expeditiously 0.5000000
unies too 0.0666667
table dismantled 0.1666667
enceinte NULL 0.0005171
compris benefits 0.5000000
compris appreciate 0.1428571
faut-il at 0.0208333
formes form 0.3333333
formes shape 0.3333333
formes and 0.0031447
quand when 0.1428571
quand stands 0.1428571
wynn wynn 0.5000000
wynn makes 0.1666667
wynn sense 0.2000000
wynn that 0.0059172
adresser on 0.0078125
adresser commend 0.0909091
adresser her 0.1333333
infrastructure over 0.1428571
infrastructure times 0.3333333
infrastructure many 0.0625000
lien link 0.3333333
dollar euro 0.2500000
grief like 0.0185185
grief would 0.0147059
conséquences have 0.0112360
conséquences consequences 0.6666667
certificats company 0.3333333
-20 below 0.3333333
constat observation 1.0000000
constat make 0.0555556
constat statement 0.3333333
constat let 0.0909091
constat fact 0.0909091
constat me 0.0769231
escomptés desired 0.3333333
escomptés producing 0.2500000
escomptés result 0.1666667
semble to 0.0042373
semble be 0.0076336
semble seem 0.1666667
semble feel 0.1428571
semble me 0.0769231
semble seems 0.3333333
vrai true 0.2500000
monti monti 1.0000000
alors whereas 1.0000000
alors provide 0.1666667
alors NULL 0.0015512
alors have 0.0112360
alors desperately 0.1666667
web web 1.0000000
solution solution 0.3333333
stimuli incentives 0.3333333
stimuli do 0.0222222
revenir return 0.5000000
parlerai speak 0.1000000
parlerai from 0.0250000
parlerai will 0.0178571
territoire territory 1.0000000
territoire development 0.0606061
territoire national 0.1000000
erreur to 0.0021186
erreur mistake 1.0000000
erreur eliminate 1.0000000
recherche-développement development 0.0303030
recherche-développement research 0.0909091
recherche-développement technological 0.5000000
mène NULL 0.0005171
mène does 0.0500000
mène and 0.0031447
optimale optimum 0.5714286
fonctionnaires officials 0.5000000
confrontés face 0.5000000
proposés proposed 0.1250000
soi NULL 0.0005171
soi in 0.0032468
soi themselves 0.2500000
soi end 0.1111111
soi an 0.0204082
soi itself 0.4285714
introduira will 0.0178571
introduira introduce 0.3333333
brefs NULL 0.0005171
entre several 0.2000000
entre quotation 1.0000000
entre balance 0.1250000
entre in 0.0097403
entre between 0.8333333
entre things 0.3333333
entre force 0.2000000
principe NULL 0.0005171
principe applies 0.2000000
principe principle 0.6428571
loin NULL 0.0005171
loin time-consuming 0.1666667
loin votes 0.3333333
plus minimal 0.1428571
plus weakest 1.0000000
plus most 0.2307692
plus degree 0.1250000
plus NULL 0.0056877
plus especially 0.0714286
plus barely 0.5000000
plus faster 0.3333333
plus furthermore 0.1428571
plus towards 0.1538462
plus seasonal 0.3333333
plus meeting 0.2000000
plus volume 0.4000000
plus entails 0.3333333
plus depend 0.2000000
plus either 0.1428571
plus logical 0.2500000
plus 20 1.0000000
plus little 0.3333333
plus be 0.0076336
plus greater 0.1818182
plus more 0.4473684
croissant growing 0.2500000
croissant further 0.1250000
croissant in 0.0032468
croissant still 0.0769231
croissant and 0.0031447
citerai would 0.0147059
citerai cite 0.5000000
vie livelihood 0.5000000
vie living 0.5000000
vie NULL 0.0005171
vie dwellers 0.3333333
vie life 1.0000000
facile or 0.0434783
facile for 0.0068966
facile easier 1.0000000
facile his 0.1250000
facile children 1.0000000
facile her 0.0666667
' responsibility 0.1250000
' quoted 0.3333333
' aims 0.2000000
' agriculture 0.2000000
' modest 0.3333333
' makes 0.1666667
' prepared 0.2000000
' based 0.2500000
' appraisal 0.3333333
' simply 0.2500000
' daring 0.3333333
' effectiveness 0.1666667
' applied 0.2500000
' union 0.0882353
' follow 0.1666667
' putting 0.2000000
' hope 0.1176471
' from 0.0250000
' will 0.0535714
' envisaged 0.3333333
' eu 0.2068966
' entrepreneurial 0.5000000
' ownership 0.1666667
' adopting 0.3333333
' allocations 0.1250000
' advertising 0.2000000
' perhaps 0.3333333
' excuse 0.2500000
' times 0.3333333
' given 0.0833333
' modernised 0.2000000
' speaking 0.2500000
' 2 0.1250000
' accorded 0.3333333
' in 0.0129870
' quite 0.0769231
' paying 0.2500000
' drafting 0.2500000
' recently 0.2000000
' reiterated 0.2000000
' discover 0.2000000
' event 0.2000000
' referring 0.3333333
' presently 0.2000000
' differences 0.2500000
' treatment 0.1666667
' administrative 0.3333333
' support 0.1111111
' NULL 0.0351603
' belatedly 1.0000000
' purpose 0.1000000
' confirm 0.1666667
' fill 0.3333333
' straight 0.4000000
' had 0.0909091
' flexible 0.1666667
' austria 0.3333333
' migration 0.2500000
' requests 0.2500000
' he 0.4000000
' employers 0.2000000
' seppänen 0.2000000
' while 0.1666667
' firstly 0.2307692
' encouraging 0.1666667
remonte dates 0.2500000
convaincu certain 0.1428571
met importance 0.1000000
met emphasises 1.0000000
annuelle presentation 0.2500000
annuelle annual 0.5000000
énormes standard 0.2500000
énormes money 0.3333333
centres strongest 1.0000000
lequel whole 0.1666667
lequel exclusion 0.2500000
lequel subsequently 1.0000000
lequel which 0.0224719
lequel fourthly 0.2500000
prises NULL 0.0005171
prises taken 0.1333333
prises stands 0.1428571
or well 0.1000000
or it 0.0089286
or NULL 0.0005171
expression french 0.2000000
crédible viable 0.1666667
soient a 0.0049261
soient NULL 0.0005171
soient monies 0.3333333
soient iso 1.0000000
soient are 0.0089286
soient finer 1.0000000
cinquième fifthly 0.5000000
profiter take 0.0500000
profiter this 0.0052083
coordination coordination 0.4000000
coordination NULL 0.0005171
solutions solutions 1.0000000
véhémence forcefully 1.0000000
véhémence most 0.0769231
véhémence this 0.0052083
renforcée further 0.1250000
renforcée strengthened 0.1428571
apport largest 1.0000000
veut NULL 0.0005171
veut are 0.0089286
présentent standard 0.2500000
présentent are 0.0089286
accusent are 0.0178571
. ? 0.0476190
. NULL 0.0031024
. . 0.9788839
. p.m. 0.4444444
. restrictions 0.3333333
. adhere 0.2000000
rôle decisive 0.5000000
rôle essential 0.3333333
rôle role 0.6250000
importante cut 0.2500000
importante important 0.1052632
importante where 0.0625000
application signs 0.2000000
application NULL 0.0010341
application are 0.0089286
application retrodisplacement 0.3333333
suffisamment sufficiently 0.4000000
suffisamment adequate 0.3333333
suffisamment explained 0.5000000
suffisamment enough 0.4000000
suffisamment has 0.0140845
suffisamment sufficient 0.3333333
vote passes 0.3333333
vote voted 0.1250000
vote time-consuming 0.1666667
vote vote 0.6000000
antisocial anti 1.0000000
antisocial grass-roots 1.0000000
approfondissant more 0.0263158
espère hope 0.2941176
environnementale environmental 0.5000000
avec NULL 0.0015512
avec geneva 0.3333333
avec exploit 0.5000000
avec condemned 0.1666667
avec carefully 0.2500000
avec wholehearted 0.3333333
avec urge 0.1428571
avec occasions 0.3333333
avec interfaces 0.3333333
avec expressed 0.2000000
avec coming 0.3333333
avec with 0.1911765
avec though 0.2000000
européen stands 0.1428571
européen european 0.2631579
suggérer suggested 0.3333333
vigilance vigilance 1.0000000
versement disbursed 1.0000000
versement which 0.0112360
versement are 0.0089286
versement by 0.0163934
clarté openness 0.5000000
clarté NULL 0.0005171
clarté clarity 0.2500000
discutons discussing 0.3333333
discutons are 0.0089286
comitologique comitology 0.6666667
veux want 0.0909091
veux to 0.0021186
veux NULL 0.0005171
veux wish 0.1818182
veux do 0.0666667
veux refer 0.2000000
marquées characterised 0.5000000
parlait us 0.0256410
parlait spoke 1.0000000
applicable law 0.1250000
applicable applicable 1.0000000
applicable directly 0.1666667
maintenir standards 0.1250000
maintenir at 0.0208333
maintenir safety 0.0344828
théâtre in 0.0032468
diminué there 0.0172414
diminué rather 0.1250000
diminué decreased 0.2500000
diminué than 0.0833333
diminué increased 0.2000000
consommateur consumer 0.1666667
écrit wrote 0.5000000
écrit inform 0.1428571
souvent NULL 0.0005171
souvent often 1.0000000
souvent transparent 0.1428571
souvent not 0.0085470
code aid 0.0454545
code steel 0.2500000
code code 1.0000000
55 ec 0.1666667
55 55 1.0000000
mener pursuing 1.0000000
mener prepared 0.2000000
mener being 0.0526316
principalement through 0.1666667
principalement particularly 0.1428571
principalement mainly 0.5000000
appris be 0.0076336
demeurant time 0.0555556
rapportaient referred 0.1666667
important due 0.3333333
important matter 0.0588235
important NULL 0.0005171
important one 0.0270270
important discover 0.2000000
important important 0.5263158
important an 0.0204082
financer proportion 1.0000000
trop going 0.1666667
trop NULL 0.0005171
trop processes 0.3333333
trop transparent 0.1428571
trop price 0.3333333
trop too 0.4000000
trop slow 0.2500000
demanderais would 0.0147059
demanderais ask 0.0714286
demanderais unjustified 0.2500000
demanderais also 0.0212766
transit country 0.1428571
transit transit 0.6000000
transit countries 0.0869565
publics phased 1.0000000
publics publicly 0.2000000
publics public 0.3571429
publics are 0.0089286
35 35 1.0000000
lente slowly 0.5000000
lente making 0.3333333
injustifiable upon 0.1428571
injustifiable unjustifiable 0.5000000
injustifiable constraint 0.3333333
attentes mutual 1.0000000
fait-il there 0.0517241
fait-il has 0.0140845
fait-il why 0.1818182
fait-il air 0.2500000
fait-il this 0.0052083
lance appeal 1.0000000
lance therefore 0.0357143
milliers stretched 1.0000000
milliers this 0.0052083
précédaient NULL 0.0005171
clé be 0.0076336
clé will 0.0178571
clé which 0.0112360
clé key 0.2857143
leçon basic 0.2000000
leçon one 0.0270270
relancer reopen 0.5000000
relancer issue 0.0476190
restructurations restructuring 0.5000000
restructurations offer 0.1428571
instructive telling 1.0000000
instructive instructive 1.0000000
instructive in 0.0032468
fiscalité taxation 0.2000000
fiscalité regards 0.2000000
répercussions impact 0.3333333
répercussions an 0.0204082
temps heard 0.1666667
temps part-time 0.3333333
temps NULL 0.0005171
temps time 0.2777778
temps at 0.0208333
illégale unlawful 0.4000000
manières such 0.0909091
dès waste 0.3333333
dès request 0.1111111
dès to 0.0042373
dès NULL 0.0005171
dès therefore 0.0357143
dès formally 0.1666667
adaptation NULL 0.0005171
technologie industries 0.3333333
technologie sector 0.1250000
technologie hi-tech 0.2500000
états-unis reports 0.1111111
faute NULL 0.0005171
faute from 0.0250000
faute that 0.0059172
faute apart 0.5000000
relève raises 0.2500000
relève NULL 0.0005171
relève will 0.0178571
relève relates 0.2000000
relève about 0.0476190
relève discussion 0.2500000
déficit enforcement 0.0909091
déficit lament 0.3333333
déficit lack 0.2000000
ispa pre-accession 0.3333333
ispa structural 0.0333333
augmentation boost 0.1111111
augmentation increased 0.2000000
augmentation increasing 0.1428571
pénurie do 0.0222222
pénurie shortage 0.5000000
réparer in 0.0032468
ores is 0.0044643
ores endorsed 0.3333333
ores something 0.1000000
mercredi wednesday 1.0000000
mercredi ' 0.0185185
mercredi relating 0.1000000
connaît aware 0.3333333
substituer operators 0.2000000
risque military 1.0000000
risque coup 0.5000000
vos on 0.0156250
vos your 0.1250000
vos finding 0.2000000
attentats explosions 0.2500000
limitation in 0.0032468
limitation restrictions 0.3333333
jonckheer jonckheer 0.6000000
refusé feet 0.3333333
refusé dragged 1.0000000
refusé regard 0.1111111
refusé with 0.0147059
refusé its 0.0500000
existence denominator 1.0000000
existence common 0.1250000
texte text 1.0000000
texte itself 0.1428571
soit basic 0.2000000
soit NULL 0.0015512
soit meeting 0.2000000
soit yet 0.3333333
soit reconsider 0.2500000
soit dispose 0.2000000
soit rating 0.5000000
soit be 0.0458015
soit should 0.0408163
soit communication 0.2500000
imposer our 0.0256410
imposer within 0.0357143
imposer power 0.5000000
imposer force 0.2000000
5,5 provides 0.5000000
5,5 5.5 1.0000000
5,5 % 0.2000000
seul be 0.0076336
seul supporting 0.1428571
opportunités increase 0.1666667
opportunités no 0.0434783
trouver NULL 0.0005171
trouver strike 1.0000000
trouver be 0.0076336
trouver opportunity 0.1000000
trouver find 0.3333333
instituées pertaining 0.1428571
clientèle customers 0.1111111
global partnership 0.3333333
global overall 1.0000000
traités given 0.0833333
traités even 0.0833333
traités status 0.3333333
traités quo 1.0000000
traités treaty 0.1250000
termes budgetary 0.2857143
termes principle 0.0714286
termes and 0.0031447
termes welcomed 0.3333333
car NULL 0.0010341
car reached 0.1111111
car for 0.0068966
car since 0.1333333
car because 0.4000000
instamment urged 0.5000000
élaboré developed 0.5000000
indicateur mistaken 0.3333333
aborder consider 0.2000000
aborder have 0.0112360
aborder we 0.0068966
environnement way 0.0454545
environnement it 0.0089286
environnement becomes 1.0000000
environnement that 0.0059172
procédure procedures 0.3333333
procédure latest 0.5000000
procédure order 0.2000000
procédure codecision 0.2500000
procédure procedure 0.4285714
temporaire period 0.1428571
temporaire interim 0.5000000
abus conditions 0.1538462
devant towards 0.0769231
acceptera able 0.1250000
acceptera accept 0.1000000
acceptera is 0.0044643
articule interfaces 0.3333333
montée inequalities 0.3333333
montée increase 0.1666667
montée every 0.2500000
préconisons would 0.0147059
préconisons encourage 0.3333333
agriculture agriculture 0.4000000
avancer raise 0.1250000
suivra follow 0.1666667
suivra 2003 0.3333333
extrêmement interesting 0.2500000
extrêmement very 0.0606061
extrêmement exceptionally 0.2500000
extrêmement extremely 0.5714286
extrêmement continuing 0.2500000
gains profits 0.5000000
citoyen citizens 0.0909091
route road 0.8000000
insistant firstly 0.0769231
insistant : 0.1000000
insistant things 0.3333333
insistant two 0.0769231
insistant stressing 1.0000000
299 299 1.0000000
efficaces out 0.0625000
efficaces NULL 0.0005171
efficaces be 0.0076336
efficaces efficiently 0.5000000
efficaces carried 0.2000000
efficaces supplements 0.2500000
pourrait respect 0.1428571
pourrait may 0.1538462
travaux business 0.1428571
travaux cen 0.2500000
travaux agenda 0.0370370
acceptation there 0.0172414
enfin finally 0.3076923
enfin conclude 0.6666667
enfin implement 0.3333333
enfin mention 0.1428571
enfin address 0.2000000
transport transport 0.3888889
transport tankers 0.3333333
transport but 0.0277778
transport dangerous 0.0625000
revitaliser revitalising 1.0000000
revitaliser relations 0.2000000
opter towards 0.0769231
opter work 0.0434783
rares just 0.0370370
rares few 0.0666667
rares comments 0.1000000
dans here 0.0909091
dans NULL 0.0082730
dans economy 0.1000000
dans activity 1.0000000
dans safety 0.0344828
dans proliferation 0.2000000
dans whole 0.1666667
dans publicly 0.2000000
dans in 0.3181818
dans at 0.0833333
dans accommodated 0.5000000
dans scope 0.3333333
dans country 0.1428571
dans fit 0.2500000
dans accurate 0.3333333
dans principles 0.2000000
dans while 0.1666667
dans reality 0.5000000
dans type 0.2000000
dans continue 0.3000000
dans worse 0.2500000
dans decide 0.2500000
consommation consumer 0.3333333
dramatiquement marked 0.2000000
dramatiquement much 0.0714286
dramatiquement more 0.0263158
occasion to 0.0042373
occasion opportunity 0.4000000
occasion prepared 0.2000000
auquel NULL 0.0005171
auquel reached 0.1111111
auquel by 0.0163934
aucuns as 0.0112360
sentiment opinion 0.2500000
amie friend 0.3333333
amie very 0.0303030
amie great 0.1428571
bon out 0.0625000
bon NULL 0.0005171
bon very 0.0303030
bon work 0.0434783
bon carried 0.2000000
bon good 0.1000000
bon right 0.1428571
bon extremely 0.1428571
bon been 0.0196078
bon sound 0.3333333
coordonner link 0.3333333
coordonner NULL 0.0005171
engendre it 0.0089286
engendre causes 1.0000000
étant NULL 0.0015512
étant since 0.1333333
étant case 0.1428571
étant permitted 0.2000000
étant however 0.0454545
probable probable 0.5000000
perd is 0.0044643
barón barón 1.0000000
devrions the 0.0010504
devrions NULL 0.0010341
devrions should 0.2040816
avez shown 0.2500000
avez you 0.0634921
avez NULL 0.0020683
avez expressed 0.2000000
avez pointed 0.3333333
avez have 0.0337079
avez assessed 0.5000000
avez wrote 0.5000000
fournis made 0.0666667
réelle very 0.0303030
réelle situation 0.0909091
réelle carefully 0.2500000
auxquelles undoubtedly 0.2500000
auxquelles NULL 0.0005171
auxquelles that 0.0059172
cela it 0.0089286
cela NULL 0.0031024
cela information 0.2000000
cela check 0.2857143
cela just 0.0370370
cela properly 0.1111111
cela encourage 0.3333333
cela recession 0.3333333
cela this 0.0885417
cela superb 0.2000000
âpres bitter 0.3333333
absence lack 0.4000000
devrons have 0.0112360
devrons another 0.1111111
devrons sector 0.1250000
devrons where 0.0625000
objectifs isolation 0.3333333
objectifs NULL 0.0010341
objectifs objectives 0.7777778
établi clear 0.1428571
votons on 0.0078125
votons ourselves 0.0909091
votons pass 0.2500000
votons vote 0.0500000
durement hit 1.0000000
durement catastrophic 0.3333333
enfants so 0.0333333
déterminer regard 0.1111111
déterminer us 0.0256410
handicapés disabled 1.0000000
amélioration comparison 0.2500000
amélioration strengthen 0.2000000
amélioration NULL 0.0005171
amélioration reports 0.1111111
amélioration improving 0.3333333
amélioration upgrading 1.0000000
véritable genuine 0.3333333
lisez please 0.2500000
lisez read 0.3333333
traitons deal 0.1428571
traitons with 0.0147059
158 158 1.0000000
sérieuses reforms 0.3333333
sérieuses questions 0.1666667
sérieuses serious 0.1666667
électroniquement NULL 0.0005171
publiques public 0.1428571
mutuelles expectations 0.5000000
économies economies 1.0000000
mm. von 0.2500000
apporte am 0.0588235
fournit only 0.0500000
fournit gives 0.3333333
n simply 0.2500000
n migration 0.2500000
n it 0.0178571
n NULL 0.0020683
n check 0.1428571
n projects 0.0909091
n that 0.0118343
n are 0.0089286
partenariat partnership 0.6666667
approbation endorse 0.2500000
approbation this 0.0052083
berend berend 0.5555556
urbaines towns 0.3333333
urbaines urban 0.1250000
socialement isolation 0.3333333
socialement achieve 0.1428571
pieds feet 0.3333333
pieds and 0.0031447
pieds go 0.2500000
divers another 0.1111111
bonne conduct 0.2500000
bonne well-intentioned 0.2000000
bonne workable 0.2000000
bonne NULL 0.0005171
bonne constructive 0.1250000
bonne good 0.1000000
bonne proper 0.1666667
bonne worse 0.2500000
comment how 0.3000000
comment why 0.3181818
comment can 0.0588235
pourcentage a 0.0049261
pourcentage as 0.0112360
pourcentage percentage 0.5000000
chacun each 0.5000000
chacun state 0.0227273
projet draft 0.5000000
projet use 0.1250000
projet project 0.6666667
capital NULL 0.0005171
capital tax 0.7500000
capital capital 0.2222222
orientée demand-orientated 0.6666667
transparente a 0.0049261
transparente which 0.0112360
transparente transparent 0.1428571
transparente is 0.0044643
prend ' 0.0185185
éliminer removing 1.0000000
influencer on 0.0078125
influencer have 0.0112360
influencer thus 0.1666667
influencer influence 1.0000000
influencer an 0.0204082
projets NULL 0.0005171
projets allowing 0.1666667
projets projects 0.3636364
projets intentions 0.3333333
projets matched 0.1666667
cargaison or 0.0434783
cargaison cargo 0.3333333
cargaison mix 0.5000000
révision review 1.0000000
révision mid-term 0.2000000
pendant in 0.0064935
9002 analyses 0.3333333
dix see 0.0769231
faire endeavouring 0.5000000
faire so 0.0666667
faire accomplished 0.2000000
faire make 0.0555556
faire ensure 0.2666667
faire produce 0.5000000
faire NULL 0.0041365
faire do 0.1555556
faire we 0.0068966
faire marker 0.2000000
faire to 0.0021186
faire get 0.1666667
faire dismantled 0.1666667
plan far-reaching 0.3333333
plan experts 0.3333333
plan forefront 0.3333333
obligatoirement come 0.1000000
obligatoirement necessarily 0.3333333
obligatoirement about 0.0476190
évoluer enacting 0.5000000
relative relative 0.3333333
relative concerns 0.3333333
relative stability 1.0000000
mesurées measured 1.0000000
touchés storms 0.1428571
informations environmental 0.5000000
informations access 0.1666667
gouvernements governments 0.8000000
réussi succeeded 0.3333333
trouvait there 0.0344828
trouvait was 0.0256410
portugal portugal 1.0000000
bureaucratie bureaucracy 0.5000000
bureaucratie NULL 0.0005171
bureaucratie tape 0.6666667
bureaucratie red 0.2500000
bruits commission 0.0142857
va growing 0.2500000
va NULL 0.0005171
va will 0.0178571
va encourage 0.3333333
va her 0.0666667
priorité priority 0.3333333
priorité one 0.0270270
priorité adopt 0.2500000
explication explanation 1.0000000
explication an 0.0408163
défaveur detriment 0.5000000
aurons shall 0.0384615
aurons then 0.0555556
revoir properly 0.1111111
laisser monopolies 0.1428571
meilleure better 0.5000000
déclaration statement 0.6666667
déclaration that 0.0059172
dirai shall 0.0384615
dirai say 0.0666667
imposées which 0.0112360
imposées relevant 0.3333333
inclusion NULL 0.0005171
préjudice s 0.0217391
règlement regulation 0.7500000
règlement NULL 0.0005171
règlement debate 0.0500000
règlement regulations 0.1250000
s' deviate 0.5000000
s' effort 0.2500000
s' NULL 0.0031024
s' looked 0.5000000
s' not 0.0085470
s' constructive 0.1250000
s' is 0.0223214
s' express 0.2500000
s' remains 0.1250000
s' interfaces 0.3333333
s' producers 0.3333333
s' lasted 0.2000000
s' its 0.0500000
s' this 0.0052083
s' adopted 0.0769231
s' stop 0.3333333
s' ease 0.3333333
s' willing 0.1666667
s' comment 0.1428571
s' increasing 0.1428571
s' become 0.3333333
dos expense 0.5000000
retrouver find 0.3333333
cohérence internal 0.1428571
entres towns 0.3333333
entres between 0.0833333
entres rich 0.1666667
entres relations 0.2000000
monsieur commissioner 0.3000000
monsieur NULL 0.0010341
monsieur mr 0.5476190
monopoles turned 0.2500000
monopoles monopolies 0.5714286
pse pse 1.0000000
2 2 0.5000000
capables capable 1.0000000
capables be 0.0076336
capables saying 0.2000000
capables this 0.0052083
côte here 0.0909091
côte over 0.1428571
côte adjacent 0.3333333
côte ships 0.6666667
lever rise 0.1666667
lever then 0.0555556
lever please 0.2500000
lever , 0.0028818
italie turn 0.2500000
italie italy 1.0000000
italie ' 0.0185185
italie s 0.0217391
précédente previous 0.3750000
partiellement cargo 0.3333333
tiens like 0.0925926
tiens must 0.0204082
tiens would 0.0735294
tiens assure 0.3333333
tiens inform 0.1428571
tiens too 0.0666667
est-à-dire i.e. 0.5000000
indonésie there 0.0172414
meilleurs crust 0.5000000
kumar kumar 1.0000000
portée made 0.0666667
portée evaluation 0.5000000
heure NULL 0.0010341
heure now 0.0416667
heure just 0.0370370
arrive NULL 0.0010341
arrive come 0.1000000
arrive has 0.0140845
arrive late 0.2000000
arrive too 0.0666667
rédaction wording 1.0000000
suivre direction 0.1666667
suivre the 0.0010504
suivre NULL 0.0010341
suivre forward 0.1666667
suivre monitor 0.3333333
suivre endeavour 0.3333333
administratives rate 0.2500000
administratives costs 1.0000000
administratives at 0.0208333
administratives any 0.0526316
instants moment 0.5000000
instants ago 0.1111111
rappelés made 0.0666667
autour on 0.0078125
autour subject 0.1666667
autour bitter 0.3333333
régulièrement on 0.0078125
régulièrement one 0.0270270
régulièrement a 0.0049261
régulièrement again 0.0666667
régulièrement interest 0.3333333
régulièrement and 0.0031447
enrichir producers 0.3333333
enrichir at 0.0208333
enrichir profit 0.5000000
sûr course 0.0833333
sûr NULL 0.0005171
remboursements repayment 0.5000000
judicieux meaningful 1.0000000
judicieux worthwhile 1.0000000
attend which 0.0112360
attend has 0.0140845
attend awaited 0.3333333
ministère appealing 0.2000000
nouveau once 0.2727273
nouveau millennium 0.5000000
nouveau a 0.0098522
nouveau new 0.1818182
nouveau expires 0.2500000
ouvrir opened 0.5000000
ouvrir up 0.1000000
concerne the 0.0042017
concerne 11 0.1428571
concerne especially 0.1428571
concerne far 0.0909091
concerne ventilators 0.5000000
concerne as 0.0112360
concerne involves 1.0000000
concerne relating 0.1000000
concerne inadmissibility 0.3333333
reçoivent general 0.0909091
reçoivent provided 0.1666667
adopte order 0.1000000
désolée sorry 1.0000000
lundi monday 1.0000000
trouvons exciting 0.2000000
eux-mêmes amount 0.2500000
eux-mêmes certain 0.1428571
essentiellement invest 0.2500000
autorités authorities 0.6666667
augmente system 1.0000000
augmente NULL 0.0005171
élimination eliminating 1.0000000
ayant appealing 0.2000000
ayant lasting 0.2000000
ayant adopted 0.1538462
ayant affairs 0.1666667
presque almost 1.0000000
80 80 1.0000000
ancienne longstanding 0.3333333
ancienne idea 0.2000000
parus looking 0.5000000
uvre strict 0.5000000
uvre programmes 0.1111111
uvre enforcement 0.0909091
uvre of 0.0043197
uvre implementation 0.2857143
uvre implementing 0.3076923
uvre implemented 0.1250000
uvre set 0.1666667
intensification it 0.0089286
intensification intensifying 0.3333333
liées operations 0.1666667
occupé shown 0.2500000
occupé consistently 1.0000000
occupé has 0.0140845
occupé interest 0.3333333
occupé an 0.0204082
plénière NULL 0.0005171
plénière plenary 0.5000000
soutient it 0.0089286
soutient supports 0.5000000
écarts proliferation 0.2000000
écarts standard 0.2500000
écarts becoming 0.3333333
écarts witnessed 1.0000000
référence reference 0.3333333
larges far-reaching 0.3333333
larges reason 0.2000000
claires clear 0.1428571
claires quite 0.0769231
négligé island 1.0000000
émettre NULL 0.0005171
émettre some 0.0769231
droite right-wing 0.2500000
savez know 0.0909091
simple a 0.0049261
simple considered 0.3333333
humains human 0.1428571
humains interchange 1.0000000
humains , 0.0014409
ainsi create 0.3333333
ainsi way 0.0454545
ainsi example 0.0666667
ainsi NULL 0.0005171
ainsi for 0.0068966
ainsi build 0.1666667
ainsi thus 0.1666667
discréditées discredited 1.0000000
hôpitaux consequently 0.1666667
provoqué led 0.5000000
couru through 0.1666667
couru those 0.0769231
couru drove 1.0000000
couru countries 0.0434783
saisonnière seasonal 0.3333333
débattrons will 0.0178571
débattrons form 0.3333333
pourtant live 0.1666667
pourtant nonetheless 0.5000000
pourtant all 0.0163934
lumière light 0.3333333
décider watering-down 0.2000000
décider no 0.0434783
différenciations entrenchment 0.3333333
entraver impeding 0.3333333
entraver still 0.0769231
vol changeover 0.5000000
vol quick 0.5000000
recherche seeking 0.2500000
recherche research 0.3636364
définis cases 0.1666667
définis defined 0.3333333
définis precisely 0.1111111
promotion promotion 1.0000000
promotion promoting 0.5000000
schroedter mrs 0.0625000
schroedter schroedter 0.5555556
aura NULL 0.0005171
aura will 0.1071429
aura take 0.2000000
nécessaire consider 0.2000000
nécessaire required 1.0000000
nécessaire NULL 0.0015512
nécessaire necessary 0.7272727
nécessaire vital 1.0000000
nécessaire needed 0.2000000
dossier NULL 0.0005171
dossier monitor 0.3333333
dossier accurate 0.3333333
dossier issue 0.0476190
efficacement efficiently 0.5000000
coup NULL 0.0005171
coup gesture 0.5000000
coup future 0.0625000
focalisé on 0.0078125
focalisé paper 0.3333333
parfois pronounced 0.2500000
parfois even 0.0833333
publié submitted 0.2000000
auteur made 0.0666667
auteur who 0.0625000
auteur crespo 0.3333333
je NULL 0.0020683
je thank 0.0526316
je please 0.5000000
je unjustified 0.2500000
je prevails 0.1428571
je i 0.7653061
envisage report 0.0181818
spécifique treatment 0.1666667
spécifique specific 0.1666667
réduire reduce 0.1428571
espérant hope 0.0588235
chances opportunities 0.3333333
effrénée subsidy 0.3333333
effrénée one 0.0270270
patrons above 1.0000000
institutions institutions 1.0000000
réside greatest 0.2500000
armée american 0.5000000
main hand 0.2000000
main state 0.0227273
avançant grounds 1.0000000
imputer just 0.0370370
1998 1998 0.5454545
partiel part-time 0.3333333
comité been 0.0196078
plutôt those 0.0769231
plutôt rather 0.2500000
plutôt extent 0.2500000
confiance road 0.2000000
coopération for 0.0068966
coopération cooperation 0.3333333
inscrit consequently 0.1666667
flautre flautre 0.5000000
bouche certain 0.1428571
réflexion our 0.0256410
réflexion thinking 0.1428571
réflexion myself 0.5000000
mêmes hospitals 1.0000000
habitat sparse 1.0000000
parfait perfect 0.5000000
pense NULL 0.0010341
pense thinking 0.4285714
pense am 0.1764706
pense think 0.2142857
pense believe 0.3333333
pense feel 0.1428571
pense prevails 0.1428571
avouerai admit 0.5000000
acquièrent getting 0.5000000
acquièrent are 0.0089286
graves squeezed 1.0000000
graves being 0.0526316
ante ante 0.5000000
compétitivité NULL 0.0005171
compétitivité fore 1.0000000
compétitivité competitiveness 0.8333333
compétitivité are 0.0089286
moi NULL 0.0010341
moi did 0.0909091
moi me 0.0769231
moi either 0.1428571
moi call 0.2000000
moi commend 0.0909091
méthode method 0.3333333
clarifier clear 0.1428571
ou rail 0.3333333
ou infrastructure 0.1666667
ou NULL 0.0005171
ou or 0.6086957
ou and 0.0031447
ou kinds 0.1666667
deuxième second 0.8750000
deuxième my 0.0697674
suffisance demonstrate 0.5000000
indiquer direction 0.1666667
généralement generally 0.4000000
appui use 0.1250000
appui full 0.2500000
explications any 0.0526316
explications explanations 0.4000000
très alert 0.2500000
très minimal 0.1428571
très affected 0.0909091
très very 0.2727273
très NULL 0.0015512
très has 0.0140845
très time-consuming 0.1666667
très is 0.0044643
très carried 0.2000000
très badly 0.2500000
très expire 0.5000000
très properly 0.1111111
très an 0.0204082
excellent in-depth 0.5000000
excellent NULL 0.0005171
excellent excellent 0.3333333
attribuées granted 0.1428571
attribuées for 0.0068966
annoncé be 0.0076336
annoncé expected 0.5000000
annoncé document 1.0000000
annoncé ready 1.0000000
vingt-cinq ago 0.1111111
vingt-cinq twenty-five 1.0000000
action constructive 0.1250000
action needing 0.5000000
action issue 0.0476190
bonnes pleasant 0.5000000
bonnes very 0.0606061
bonnes powerful 1.0000000
répète already 0.0714286
répète have 0.0112360
forme form 0.3333333
novembre november 0.5000000
attarder right 0.0714286
attarder time 0.0555556
attarder spend 1.0000000
dépenses NULL 0.0005171
dépenses administration 0.3333333
évaluation assessing 0.2500000
évaluation their 0.0357143
évaluation appraisal 0.3333333
mérite deserves 1.0000000
mérite such 0.0909091
mérite really 1.0000000
implication involve 0.5000000
implication an 0.0204082
cher fuster 0.5000000
cher berenguer 1.0000000
cher costly 1.0000000
cher mr 0.0238095
oblige fact 0.0909091
ancrée anchored 1.0000000
autorisées permissible 1.0000000
autorisées permitted 0.2000000
élaboration planning 0.3333333
élaboration involved 0.1666667
élaboration while 0.1666667
élaboration drafting 0.5000000
élaboration directives 0.1666667
élaboration and 0.0031447
preussag preussag 1.0000000
insister given 0.0833333
moment right 0.0714286
moment NULL 0.0005171
moment time 0.0555556
moment at 0.0208333
moment present 0.1250000
identiques uniform 1.0000000
différentiels differentiating 0.5000000
interprétation personal 0.3333333
souligne flautre 0.5000000
souligne see 0.0769231
témoignent demonstrate 0.5000000
conduira what 0.0357143
conduira us 0.0256410
conduira persuades 0.3333333
vis-à-vis particularly 0.1428571
introduire inject 0.5000000
introduire introduce 0.3333333
introduire incorporate 0.2500000
clairement it 0.0089286
clairement clearly 0.1666667
puissent NULL 0.0005171
puissent precisely 0.1111111
spécificités specific 0.1666667
spécificités local 0.2000000
cern cern 0.5000000
travaillent will 0.0357143
travaillent business 0.0476190
travaillent work 0.0434783
travaillent start 0.2000000
entreprise NULL 0.0005171
entreprise business 0.0476190
entreprise entrepreneurship 0.2500000
entreprise ownership 0.1666667
entreprise entrepreneurial 0.5000000
demander to 0.0021186
demander lot 0.3333333
demander a 0.0049261
demander NULL 0.0010341
demander ask 0.2142857
simpson simpson 1.0000000
actuel NULL 0.0005171
consister of 0.0021598
consister be 0.0076336
consister about 0.0476190
survenus to 0.0021186
survenus accidents 0.2500000
survenus delays 0.3333333
immédiats profits 0.5000000
irrémédiablement damaged 0.3333333
irrémédiablement been 0.0196078
irrémédiablement have 0.0112360
irrémédiablement irreparably 1.0000000
français french 0.4000000
français experts 0.3333333
rurales parts 0.5000000
rurales rural 0.2500000
montre signs 0.2000000
montre recent 0.2500000
montre shows 0.3333333
15 15 1.0000000
développer develop 0.1666667
efforcera effort 0.2500000
efforcera make 0.0555556
efforcera will 0.0178571
efforcera every 0.2500000
entraîneraient extremely 0.1428571
entraîneraient time-consuming 0.1666667
contenter ourselves 0.0909091
contenter content 0.5000000
contenter with 0.0147059
originel purpose 0.1000000
originel true 0.2500000
privé involvement 0.3333333
privé private 0.6666667
particulièrement NULL 0.0005171
particulièrement particularly 0.1428571
particulièrement slowly 0.5000000
particulièrement media 0.3333333
particulièrement especially 0.1428571
particulièrement greatly 0.3333333
astucieuses thought-out 1.0000000
utilisation managed 0.5000000
utilisation use 0.1250000
utilisation utilisation 1.0000000
judicieuses provisions 0.2000000
invite urge 0.1428571
invite invite 0.3333333
invite rise 0.1666667
a petersen 0.3333333
a function 0.2000000
a number 0.1111111
a NULL 0.0108583
a yet 0.3333333
a did 0.2727273
a desperately 0.1666667
a has 0.4929577
a , 0.0028818
a constructive 0.1250000
a ari 0.1666667
a cut 0.2500000
a vatanen 0.2000000
a duisenberg 0.3333333
a mentioned 0.0833333
a particular 0.0909091
a said 0.1111111
a produced 0.3333333
a effect 0.2000000
a decreased 0.2500000
a diverted 0.5000000
a submitted 0.4000000
a ago 0.2222222
a succeeded 0.3333333
a was 0.1794872
a customers 0.1111111
a yesterday 0.1666667
a afresh 1.0000000
communes fact 0.0909091
communes common 0.2500000
communautaire general 0.0909091
communautaire existing 0.2000000
communautaire effectiveness 0.1666667
communautaire union 0.0294118
tirées with 0.0147059
passionnant front 0.5000000
passionnant of 0.0021598
passionnant us 0.0256410
distances long 0.1428571
distances distances 1.0000000
national levels 0.0909091
national policies 0.1000000
national national 0.1000000
identifier identify 1.0000000
soi-disant perfect 0.2500000
soi-disant supposedly 1.0000000
rappeler reiterate 0.2000000
rappeler raising 0.2500000
rappeler remind 0.3333333
ma NULL 0.0005171
ma counted 0.5000000
ma been 0.0196078
ma my 0.0697674
considération NULL 0.0010341
considération account 0.2857143
considération into 0.1111111
considération take 0.0500000
considération consideration 0.3000000
parle speak 0.1000000
parle now 0.0416667
parle just 0.0370370
parle failure 1.0000000
parle about 0.0476190
directement directly 0.3333333
nomme what 0.0357143
nomme referred 0.1666667
nomme is 0.0044643
lesquelles NULL 0.0005171
lesquelles reasons 0.2000000
lesquelles why 0.0454545
modalités procedures 0.3333333
modalités exercise 1.0000000
creuser widen 0.5000000
diversification diversification 1.0000000
montrée willing 0.1666667
montrée being 0.0526316
déchargés shipment 1.0000000
déchargés for 0.0068966
accrue out 0.0625000
accrue pointed 0.3333333
accrue been 0.0196078
accrue has 0.0140845
exceptionnel was 0.0256410
exceptionnel it 0.0089286
exceptionnel quite 0.0769231
exceptionnel superb 0.2000000
a-t-on was 0.0256410
vues her 0.0666667
parlé mentioned 0.0833333
parlé as 0.0112360
inutile unnecessary 0.5000000
inutile fracture 0.5000000
préoccupations concerns 0.3333333
cibler targeted 1.0000000
cibler be 0.0076336
cibler at 0.0208333
cibler can 0.0294118
défis challenges 0.5000000
campagnes rural 0.0833333
campagnes areas 0.0526316
libération acquitted 0.2500000
libération him 0.2000000
félicitations work 0.0434783
félicitations commend 0.0909091
avéré proved 0.5000000
avéré has 0.0140845
reprocher accused 0.3333333
reprocher stand 0.1428571
accordez-lui as 0.0112360
accordez-lui treat 0.5000000
informé abreast 1.0000000
géographiques terms 0.1250000
géographiques geographical 1.0000000
euro euro 0.2500000
quelques to 0.0084746
quelques moment 0.5000000
quelques intrinsically 0.3333333
quelques a 0.0246305
quelques NULL 0.0015512
quelques few 0.4666667
quelques study 0.2000000
travailleurs workers 0.2500000
froids cold 0.2500000
qu' fair 0.5000000
qu' NULL 0.0067218
qu' both 0.0666667
qu' desperately 0.1666667
qu' , 0.0028818
qu' that 0.0650888
qu' remind 0.1666667
qu' step 0.2000000
qu' means 0.1818182
qu' think 0.1428571
qu' merely 0.3333333
qu' much 0.0714286
qu' company 0.3333333
qu' passes 0.3333333
qu' said 0.1111111
qu' working 0.1000000
qu' provided 0.3333333
qu' without 0.2000000
qu' than 0.1666667
qu' budgetary 0.1428571
qu' rather 0.1250000
qu' believe 0.0666667
qu' whether 0.1250000
qu' feel 0.1428571
qu' improved 0.2500000
qu' air 0.2500000
charger obliged 0.3333333
inégale been 0.0196078
inégale has 0.0140845
inégale uneven 0.3333333
entendu course 0.1666667
entendu hear 0.3333333
sánchez sánchez 1.0000000
complémentaires additional 0.2000000
complémentaires explanations 0.2000000
notification and 0.0031447
notification notify 1.0000000
possibilités opportunities 0.3333333
possibilités NULL 0.0005171
appelle expect 0.1666667
appelle is 0.0044643
appelle needing 0.5000000
souligner stressed 0.5000000
souligner like 0.0185185
souligner NULL 0.0005171
souligner highlight 0.6666667
japonais japan 1.0000000
régions standard 0.2500000
régions NULL 0.0015512
régions remote 0.4000000
régions anyway 0.2500000
régions within 0.0714286
régions regions 0.6829268
régions poor 0.1428571
régions rich 0.1666667
régions transit 0.2000000
régions areas 0.2631579
régions northern 0.4285714
décidée decisively 0.5000000
décidée must 0.0204082
décidée act 0.3333333
inévitablement unclear 0.3333333
on degree 0.1250000
on NULL 0.0067218
on watering-down 0.2000000
on desperately 0.1666667
on is 0.0044643
on we 0.0551724
on if 0.0333333
on see 0.0769231
on perfectly 1.0000000
on 9002 1.0000000
on in 0.0032468
on concentrating 1.0000000
on hesitant 0.5000000
on addition 0.1666667
on can 0.0294118
on there 0.0172414
on de 0.2500000
on as 0.0112360
on reached 0.1111111
on proceed 0.1666667
on referred 0.1666667
on again 0.0666667
on encouraging 0.1666667
on expires 0.2500000
interviens am 0.0588235
interviens speaking 0.2500000
peuples section 0.1666667
accessible via 0.5000000
accessible accessible 0.5000000
façon magnificently 0.5000000
façon a 0.0098522
façon fashion 1.0000000
façon in 0.0129870
façon assimilated 0.2000000
façon vague 0.5000000
éloignement remoteness 1.0000000
diminution fall 0.2000000
première first 0.2500000
première a 0.0049261
première delay 0.3333333
première reading 0.5000000
fossé gap 1.0000000
accepte accept 0.2000000
accepte that 0.0059172
malgré despite 1.0000000
prépare prepare 1.0000000
complexe processes 0.3333333
réglementaires requirements 0.1000000
réglementaires regulatory 0.3333333
perfectible upon 0.1428571
perfectible further 0.1250000
perfectible improved 0.2500000
consulté heard 0.1666667
atténuer it 0.0089286
proposition on 0.0078125
proposition amendment 0.2142857
proposition proposal 0.9090909
proposition proposed 0.2500000
limites the 0.0010504
limites limit 0.3333333
prochaine coming 0.3333333
procéder proceeding 0.3333333
autorité commissioner 0.0166667
fournisseurs employers 0.2000000
dramatiques rates 1.0000000
dramatiques this 0.0052083
dramatiques consequences 0.3333333
droit enforcement 0.1818182
droit right 0.0714286
droit law 0.8750000
droit NULL 0.0005171
droit constitutional 0.5000000
voté " 0.1250000
voté NULL 0.0005171
entendre stand 0.1428571
entendre out 0.0625000
entendre you 0.0158730
entendre finding 0.2000000
entendre where 0.0625000
voix votes 0.6666667
sri sri 0.5000000
sri lanka 0.3333333
sri was 0.0256410
faisons-nous what 0.0357143
seule only 0.0500000
seule fault 1.0000000
autoriser permit 0.3333333
jour withdrawn 0.1428571
jour NULL 0.0015512
jour day 0.2857143
jour 's 0.2857143
jour agenda 0.2962963
délais possible 0.1250000
directrices guidelines 0.1739130
directrices the 0.0031513
directrices NULL 0.0010341
directrices seem 0.1666667
significative in 0.0032468
significative significant 0.5000000
significative , 0.0014409
ait made 0.0666667
ait test 0.5000000
ait acquitted 0.2500000
ait NULL 0.0010341
ait see 0.0769231
ait recognise 1.0000000
ait comprehensive 0.3333333
ait ought 0.5000000
ait voted 0.1250000
sera success 0.2500000
sera be 0.0076336
sera will 0.0892857
sera back 0.2500000
bâtir build 0.1666667
justement precisely 0.2222222
justement stated 0.3333333
j indeed 0.1111111
j straight 0.2000000
j NULL 0.0005171
j hope 0.1176471
j event 0.2000000
j seppänen 0.2000000
j i 0.0408163
guère fill 0.1666667
guère NULL 0.0005171
guère with 0.0147059
réalité reality 0.5000000
réalité a 0.0049261
réalité fact 0.0909091
importants NULL 0.0010341
importants be 0.0076336
importants will 0.0178571
importants attracting 1.0000000
importants extensive 1.0000000
importants major 0.1666667
importants problems 0.1818182
effroyable rather 0.1250000
futur holds 1.0000000
futur future 0.0625000
négociations spring 0.3333333
négociations negotiations 0.3333333
articles some 0.0769231
structurels structural 0.6666667
débouché committee 0.0454545
débouché from 0.0250000
catalogue catalogue 1.0000000
questions issues 0.4285714
questions matters 0.3333333
questions NULL 0.0010341
questions questions 0.6666667
modernisation modernisation 0.6666667
accompagnement accompanying 0.5000000
prévoit NULL 0.0005171
prévoit applies 0.2000000
prévoit treaty 0.1250000
prévoit also 0.0212766
elle competition 0.0172414
elle NULL 0.0020683
elle it 0.0357143
elle decreased 0.2500000
elle created 0.3333333
elle rather 0.1250000
elle presented 0.2000000
elle manage 0.5000000
créent specific 0.1666667
créent personality 1.0000000
rapidement quickly 0.3333333
rapidement implemented 0.1250000
rapidement briefly 0.2000000
rapidement respond 0.1428571
rapidement losing 1.0000000
planification planning 0.3333333
britanniques figures 0.1666667
profondément well 0.1000000
migratoire migration 0.2500000
chapeau hat 0.3333333
chapeau gesture 0.5000000
crois believe 0.0666667
crois think 0.2142857
assemblée house 0.3571429
assemblée NULL 0.0005171
espoir a 0.0049261
arrête our 0.0256410
arrête stop 0.3333333
arrête at 0.0208333
94 94 1.0000000
von mr 0.0119048
von von 0.2500000
von by 0.0163934
pesant supervision 0.3333333
pesant s 0.0217391
prévalant for 0.0068966
prévalant worse 0.2500000
accords inter-company 0.5000000
permettent us 0.0256410
permettent allow 0.5000000
permettent incorporate 0.2500000
permettent force 0.2000000
parole house 0.0714286
parole to 0.0042373
parole speak 0.3000000
parole NULL 0.0005171
parole asked 0.3333333
collègues members 0.4285714
collègues speakers 0.2500000
collègues NULL 0.0046536
collègues limited 0.5000000
collègues gentlemen 0.5000000
collègues words 0.2500000
collègues colleagues 0.6666667
/ - 0.3333333
/ / 1.0000000
/ NULL 0.0005171
/ ec 0.1666667
mal may 0.0769231
relations relationships 0.5000000
relations institutional 0.5000000
suivants following 0.5000000
mi-parcours point 0.0476190
mi-parcours mid-way 0.5000000
mi-parcours appraisal 0.3333333
mi-parcours mid-term 0.4000000
27 27 0.5000000
progresser on 0.0078125
progresser get 0.1666667
eau water 0.5000000
fumeurs enforced 0.5000000
ententes monopolies 0.2857143
politique general 0.0909091
politique political 0.5000000
politique policy 0.6285714
constitue infrastructure 0.1666667
constitue is 0.0178571
frappées hard 1.0000000
absolument is 0.0044643
absolument imperative 0.5000000
laissé had 0.0909091
laissé lasting 0.2000000
laissé have 0.0112360
laissé which 0.0112360
laissé benefit 0.2500000
nord north 1.0000000
nord european 0.0263158
nord southern 1.0000000
possible change 0.2000000
possible keep 0.1428571
possible possible 0.2500000
possible where 0.0625000
possible also 0.0212766
envisagent considering 0.5000000
envisagent rejection 0.3333333
résistent out 0.0625000
résistent reluctantly 0.5000000
barnier bernié 0.3333333
barnier . 0.0015083
abstentions abstentions 1.0000000
paperasserie tape 0.3333333
modifiant amend 0.2857143
celui report 0.0363636
celui NULL 0.0005171
celui share 0.3333333
celui challenge 0.5000000
celui harmonisation 0.0909091
celui that 0.0059172
renouveler renew 0.3333333
enfer province 0.5000000
régionaux becoming 0.3333333
régionaux regional 0.0333333
régionaux aspects 0.2500000
connaissent high 0.2000000
connaissent differ 1.0000000
connaissent are 0.0089286
connaissent danish 0.5000000
60 60 1.0000000
viser be 0.0076336
viser towards 0.0769231
viser working 0.1000000
viser strengthening 0.2500000
dont degree 0.1250000
dont NULL 0.0005171
dont which 0.0786517
dont instrument 0.2500000
dont whose 1.0000000
dont , 0.0028818
dont drawing 0.1666667
dont disregards 1.0000000
dont discussion 0.2500000
prolonger eu 0.0344828
prolonger irresponsible 0.2500000
afin guaranteeing 0.5000000
afin for 0.0068966
afin and 0.0031447
elles they 0.1785714
elles it 0.0089286
elles NULL 0.0020683
elles dispose 0.2000000
elles analyses 0.3333333
positivement include 0.2500000
fin NULL 0.0005171
fin end 0.3333333
étage particular 0.0909091
fondements cornerstones 0.5000000
avancées steps 0.3333333
avancées contrary 0.3333333
impliquerait would 0.0147059
chômage rate 0.2500000
chômage unemployment 0.6666667
envisagée NULL 0.0005171
alexandre alexander 1.0000000
défi challenge 0.5000000
donnait given 0.0833333
donnait were 0.0714286
faiblesse weakness 0.5000000
succès success 0.5000000
succès desired 0.3333333
aient uk 0.2500000
aient staircases 0.3333333
aient make 0.0555556
mon fischler 0.3333333
mon turn 0.2500000
mon NULL 0.0015512
mon begin 0.1666667
mon my 0.3488372
élection elected 0.5000000
élection we 0.0068966
élection were 0.0714286
sérieusement ensure 0.0666667
sérieusement it 0.0089286
sérieusement into 0.0555556
sérieusement properly 0.1111111
sérieusement look 0.1000000
judicieuse reasonable 0.2500000
judicieuse between 0.0416667
souscris agree 0.0909091
souscris actually 0.1250000
souscris with 0.0147059
dirais would 0.0147059
rappelées those 0.0769231
rappelées highlighted 0.2000000
chargés ministers 0.5000000
diminuer less 0.2000000
diminuer red 0.2500000
probablement will 0.0178571
mardi tuesday 0.5000000
après-demain reason 0.2000000
privilégié for 0.0068966
privilégié forum 1.0000000
pib gdp 1.0000000
pib terms 0.1250000
prix raises 0.2500000
prix sufficiently 0.2000000
prix standards 0.1250000
prix focus 0.1428571
prix prices 0.2000000
appropriés there 0.0172414
appropriés for 0.0068966
appropriés matched 0.1666667
améliorations upon 0.1428571
améliorations improving 0.1666667
classée within 0.0357143
classée accommodated 0.5000000
poser question 0.1111111
poser ourselves 0.0909091
poser must 0.0204082
poser a 0.0049261
poser seem 0.1666667
poser fundamental 0.1666667
poser ask 0.0714286
parfaite perfect 0.2500000
parfaite bring 0.2000000
parfaite about 0.0476190
appoint require 0.3333333
appoint supplements 0.2500000
résulté be 0.0076336
résulté diverted 0.2500000
bateaux adjacent 0.3333333
portent relate 1.0000000
réalisation practical 0.2000000
réalisation implementation 0.0476190
réalisation operation 0.3333333
moins NULL 0.0010341
moins smaller 0.2500000
moins , 0.0014409
moins with 0.0147059
moins bureaucratic 0.3333333
moins worse 0.2500000
critiquer criticising 1.0000000
quatrième fourthly 0.2500000
observations observations 0.5000000
observations comments 0.4000000
ultrapériphériques most 0.1538462
ultrapériphériques outermost 1.0000000
ultrapériphériques remote 0.4000000
stade point 0.0476190
opérer expansion 1.0000000
opérer most 0.0769231
opérer for 0.0068966
opérer in 0.0032468
opérer part 0.1428571
opérer invest 0.2500000
assassinée recently 0.2000000
assassinée very 0.0303030
assassinée assassinated 1.0000000
exprimer express 0.7500000
exprimer comment 0.1428571
exprimer that 0.0059172
dérogatoire cases 0.1666667
dérogatoire special 0.3333333
dérogatoire exceptional 0.5000000
lorsque when 0.1428571
domaine here 0.0909091
domaine one 0.0270270
domaine NULL 0.0015512
domaine area 0.2727273
domaine mind 0.2000000
domaine is 0.0044643
domaine field 0.5000000
avenir on 0.0078125
avenir viability 1.0000000
avenir future 0.4375000
avenir discussion 0.2500000
union strengthen 0.2000000
union NULL 0.0010341
union eu 0.2068966
union aims 0.2000000
union strengthened 0.1428571
union european 0.0263158
union union 0.6470588
différences disparities 0.2857143
différences existing 0.2000000
unanimité unanimously 0.2000000
unanimité NULL 0.0005171
scandaleux ourselves 0.0909091
scandaleux it 0.0089286
précisément connection 0.3333333
précisément with 0.0147059
précisément line 1.0000000
face NULL 0.0005171
face in 0.0064935
face relation 0.5000000
face exciting 0.2000000
face euro 0.2500000
obligés schools 0.5000000
obligés build 0.1666667
nouveaux new 0.1818182
nouveaux more 0.0263158
nouveaux four 0.1428571
freiner apply 0.1666667
freiner to 0.0021186
freiner a 0.0049261
freiner brake 1.0000000
eu NULL 0.0005171
eu have 0.0112360
eu voted 0.1250000
eu chipped 1.0000000
motion point 0.0952381
home old 1.0000000
investissement from 0.0250000
investissement investment 0.3333333
rapporteur schroedter 0.2222222
rapporteur berend 0.2222222
rapporteur rapporteur 1.0000000
propositions to 0.0021186
propositions amendments 0.2105263
propositions contrary 0.3333333
propositions analyse 0.2000000
propositions proposals 0.2500000
angle view 0.1250000
soucieuse NULL 0.0005171
avais had 0.0909091
avais did 0.0909091
avais my 0.0232558
mienne myself 0.5000000
mienne including 0.2000000
humaines human 0.1428571
orientations direction 0.1666667
orientations guidelines 0.3478261
orientations these 0.0256410
orientations directives 0.3333333
orientations section 0.1666667
facteur simple 0.5000000
facteur factor 0.5000000
grâce the 0.0010504
toujours high 0.2000000
toujours course 0.0833333
toujours do 0.0222222
toujours still 0.0769231
toujours always 0.8571429
ambition urgency 1.0000000
ambition claim 0.3333333
évolutions developments 0.5000000
exactement precisely 0.1111111
malentendus out 0.0625000
malentendus misunderstandings 0.3333333
appliqué applies 0.2000000
promettant promise 0.3333333
promettant and 0.0031447
redéfini NULL 0.0005171
rase dismantled 0.1666667
poids following 0.5000000
croissent growing 0.2500000
croissent are 0.0089286
besoins satisfy 1.0000000
emballages packaging 0.5000000
emballages kind 0.1428571
emballages this 0.0052083
dissiper straighten 0.5000000
montant supply 0.1666667
grand behind 0.3333333
grand way 0.0454545
grand eu 0.0344828
grand long 0.1428571
perdent out 0.0625000
effets NULL 0.0005171
effets effects 1.0000000
ports belgium 0.5000000
ports by 0.0163934
climat cold 0.2500000
climat climates 1.0000000
climat are 0.0089286
climat that 0.0118343
climat climate 0.5000000
climat prevails 0.1428571
pêche sector 0.1250000
pêche fisheries 0.5000000
débats there 0.0172414
visite had 0.0909091
visite visited 0.2500000
indicateurs several 0.2000000
indicateurs indicators 1.0000000
indicateurs study 0.2000000
joue plays 1.0000000
types types 1.0000000
pourrons correct 1.0000000
pourrons may 0.0769231
spéculation damage 1.0000000
spéculation speculation 0.5000000
spéculation by 0.0163934
voudraient live 0.1666667
apportées answered 0.2500000
recueillir collate 0.3333333
recueillir only 0.0500000
début start 0.4000000
trompe not 0.0085470
trompe mistaken 0.3333333
songer develop 0.1666667
haut loud 1.0000000
haut convergence 0.2500000
urbaine our 0.0256410
urbaine at 0.0208333
urbaine urban 0.2500000
contrôle NULL 0.0005171
contrôle ' 0.0185185
contrôle supervision 0.3333333
modèle model 1.0000000
embargo embargo 0.5000000
embargo irresponsible 0.2500000
force power 0.5000000
évités what 0.0357143
défaillant failing 0.3333333
expirera shortly 1.0000000
expirera due 0.3333333
expirera expire 0.5000000
contribué helped 0.3333333
naturellement course 0.2500000
naturellement number 0.1111111
naturellement a 0.0049261
naturellement of 0.0064795
naturellement , 0.0057637
petersen stressed 0.5000000
petersen petersen 0.3333333
petersen just 0.0370370
déplorer lament 0.3333333
société NULL 0.0005171
société society 0.7500000
société social 0.0416667
l' withdrawn 0.1428571
l' opportunity 0.1000000
l' represent 0.5000000
l' succeed 0.3333333
l' intervention 0.1428571
l' see 0.0769231
l' employment 0.3500000
l' agriculture 0.2000000
l' on 0.0078125
l' business 0.1904762
l' constraint 0.3333333
l' province 0.5000000
l' what 0.0357143
l' spirit 0.3750000
l' supply 0.3333333
l' one 0.1081081
l' again 0.1333333
l' union 0.0588235
l' inadmissibility 0.3333333
l' outcomes 0.5000000
l' additionality 0.5000000
l' efficiency 0.3333333
l' intensifying 0.3333333
l' doubtful 1.0000000
l' activities 0.3333333
l' 1989 0.3333333
l' hope 0.1176471
l' objective 0.3529412
l' renew 0.3333333
l' vatanen 0.2000000
l' her 0.1333333
l' something 0.1000000
l' draw 0.2000000
l' it 0.0178571
l' access 0.1666667
l' improving 0.3333333
l' 's 0.1428571
l' strengthen 0.4000000
l' reached 0.1111111
l' then 0.0555556
l' enlargement 0.3333333
l' were 0.0714286
l' the 0.0871849
l' assessing 0.2500000
l' argues 0.3333333
l' turn 0.2500000
l' future 0.1875000
l' read 0.3333333
l' participate 0.1428571
l' retrodisplacement 0.3333333
l' full 0.2500000
l' unanimously 0.4000000
l' enforcement 0.0909091
l' balance 0.2500000
l' other 0.1333333
l' referred 0.1666667
l' strengthened 0.1428571
l' NULL 0.0232678
l' harmonisation 0.2727273
l' rules 0.0909091
l' abroad 0.5000000
l' exclusion 0.2500000
l' improve 0.2000000
l' accept 0.1000000
l' under 0.2500000
l' ban 0.5000000
l' irresponsible 0.2500000
l' investment 0.3333333
l' industry 0.2000000
l' brought 0.2500000
l' through 0.3333333
l' as 0.0898876
l' just 0.0370370
l' ultimate 0.2500000
l' europe 0.2307692
l' increasing 0.1428571
l' encouraging 0.1666667
l' indicated 0.5000000
commissions ask 0.0714286
central one 0.0270270
secondes as 0.0112360
conférence conference 1.0000000
conférence intergovernmental 0.5000000
mois least 0.2000000
mois NULL 0.0005171
mois month 0.3333333
mois at 0.0208333
mois agreement 0.3333333
mois months 0.5000000
quelque there 0.0172414
quelque accomplished 0.2000000
quelque though 0.2000000
qui these 0.0256410
qui which 0.4044944
qui , 0.0014409
qui far 0.0909091
qui ari 0.1666667
qui unacceptably 1.0000000
qui reasonable 0.2500000
qui annexes 1.0000000
qui who 0.7500000
qui adjourned 0.2500000
qui concerning 0.1250000
qui problems 0.0909091
qui out 0.0625000
qui time-consuming 0.1666667
qui 1997 0.1666667
qui those 0.2307692
qui happening 0.3333333
qui covered 0.2500000
qui relating 0.1000000
qui 11 0.1428571
qui NULL 0.0118925
qui of 0.0021598
qui especially 0.1428571
qui unable 0.3333333
qui constructive 0.1250000
qui is 0.0044643
qui programming 0.3333333
qui merely 0.3333333
qui persuades 0.3333333
qui adopted 0.0769231
qui wurtz 0.2500000
qui instrument 0.2500000
qui nothing 0.1666667
qui serious 0.1666667
modifié adopted 0.0769231
modifié was 0.0256410
modifié amended 0.5000000
modifié thus 0.1666667
riches rich 0.3333333
peine a 0.0049261
peine just 0.0370370
peine few 0.0666667
peine ago 0.1111111
peine months 0.5000000
offensive call 0.2000000
présidente president 0.1844660
quittant earn 1.0000000
quittant can 0.0294118
quittant where 0.0625000
allemagne germany 0.3333333
unifié unified 0.3333333
efforcerai shall 0.0384615
efforcerai with 0.0147059
efforcerai comply 0.5000000
efforcerai endeavour 0.3333333
11 11 0.2857143
réponses they 0.0357143
prêter particular 0.0909091
prêter pay 0.5000000
fonctionnement prerequisites 0.1666667
fonctionnement making 0.3333333
fonctionnement controversy 0.2500000
fonctionnement operation 0.6666667
fonctionnement operability 0.5000000
présentaient in 0.0032468
présentaient principle 0.0714286
présentaient , 0.0028818
modifiée amended 0.5000000
devraient-ils producers 0.3333333
devraient-ils arms 0.5000000
devraient-ils should 0.0204082
abordées raised 0.5000000
certes even 0.0833333
certes just 0.0370370
certes though 0.2000000
habitude follow 0.1666667
commission parliamentary 0.2000000
commission committee 0.8181818
commission NULL 0.0010341
commission commission 0.9428571
ue arms 0.5000000
ue 1989 0.3333333
ue eu 0.0689655
préoccupation members 0.1428571
préoccupation problem 0.1250000
préoccupation concern 0.3333333
approche approach 1.0000000
actuelle stand 0.2857143
actuelle NULL 0.0010341
actuelle present 0.1250000
actuelle procedure 0.1428571
communautaires community 0.2857143
blanc white 0.5000000
approfondie require 0.3333333
approfondie in-depth 0.5000000
approfondie now 0.0416667
approfondie we 0.0068966
approfondie analysis 0.1428571
approfondie an 0.0204082
oubli NULL 0.0005171
satisfaisante correctly 0.2000000
satisfaisante satisfactorily 0.5000000
satisfaisante applied 0.2500000
conclure finally 0.1538462
conclure conclude 0.3333333
acier industry 0.2000000
acier steel 0.1250000
député french 0.2000000
député member 0.0689655
député fruteau 0.5000000
expliquées enough 0.2000000
expliquées explained 0.5000000
exécuté NULL 0.0005171
chose accomplished 0.2000000
chose NULL 0.0005171
chose thing 0.2500000
structurelle cost-intensive 0.1666667
structurelle a 0.0049261
structurelle structural 0.1000000
rien there 0.0172414
rien blame 0.5000000
rien nothing 0.3333333
rien this 0.0052083
vraiment must 0.0204082
vraiment all 0.0163934
additionner add 0.2500000
servir help 0.2500000
trois three 0.6666667
ministres ministers 0.5000000
ministres responsible 0.2500000
parlant point 0.0476190
parlant this 0.0052083
remarques make 0.1111111
remarques a 0.0098522
remarques comments 0.2000000
.... vote 0.0500000
.... .... 1.0000000
retiennent specifically 0.3333333
données the 0.0010504
données presented 0.2000000
données data 0.6000000
éligible granted 0.1428571
éligible been 0.0196078
moteurs behind 0.3333333
moteurs forces 1.0000000
invités urged 0.5000000
favorable favour 0.0769231
favorable in 0.0032468
grandes great 0.2857143
grandes quantities 0.5000000
soulever one 0.0270270
soulever raise 0.1250000
dangereuses obvious 0.2500000
dangereuses goods 0.8333333
chaque country 0.1428571
chaque each 0.2500000
visant margins 0.1428571
visant it 0.0089286
visant NULL 0.0005171
visant be 0.0076336
visant initiatives 0.2500000
visant ppe-de 0.2500000
purement nature 1.0000000
par favour 0.0769231
par human 0.1428571
par guidance 1.0000000
par NULL 0.0062048
par of 0.0107991
par therefore 0.1071429
par mainly 0.5000000
par ari 0.1666667
par opinions 0.2500000
par long 0.1428571
par holzmann 0.2500000
par television 0.3333333
par example 0.3333333
par inland 0.5000000
par for 0.0068966
par per 0.8000000
par inform 0.1428571
par by 0.4262295
par prevails 0.1428571
par storms 0.1428571
par rail 0.3333333
par those 0.0769231
par warning 0.5000000
ponnambalam ponnambalam 1.0000000
entend on 0.0078125
entend matter 0.0588235
entend hears 1.0000000
entend again 0.1333333
existent decisions 0.1666667
existent have 0.0112360
supérieur be 0.0076336
supérieur higher 0.5000000
supérieur achieved 0.3333333
holzmann holzmann 0.2500000
discussion NULL 0.0005171
discussion fully 0.2500000
discussion joint 0.6666667
cependant dear 0.2500000
cependant NULL 0.0005171
cependant now 0.0416667
cependant nonetheless 0.5000000
cependant but 0.0277778
cependant , 0.0072046
cependant however 0.1818182
suffisent enough 0.2000000
suffisent are 0.0089286
dangereuse dangerous 0.1250000
nettement considerably 1.0000000
nettement developing 0.3333333
nettement shows 0.3333333
ajuster degree 0.1250000
régional provisions 0.2000000
régional regional 0.1333333
37 37 1.0000000
proposer propose 0.1428571
proposer inspired 1.0000000
proposer us 0.0256410
angles very 0.0303030
angles differently 0.2000000
pourront NULL 0.0005171
pourront have 0.0112360
pourront may 0.0769231
pourront clearly 0.1666667
regret reluctantly 0.5000000
regret only 0.0500000
du withdrawn 0.1428571
du the 0.0504202
du boost 0.1111111
du item 0.2857143
du steel 0.2500000
du save 0.2500000
du on 0.0078125
du iron 0.3333333
du agenda 0.2962963
du know-how 0.3333333
du list 0.2500000
du period 0.1428571
du unemployment 0.2222222
du data 0.2000000
du reduction 0.5000000
du open 0.3333333
du level 0.1250000
du socialist 0.2500000
du effectiveness 0.1666667
du development 0.1212121
du fund 0.0909091
du friend 0.3333333
du 11 0.1428571
du NULL 0.0103413
du parliament 0.0638298
du of 0.0863931
du status 0.3333333
du terms 0.1250000
du treaty 0.2500000
du council 0.2857143
du planning 0.3333333
du cohesion 0.0645161
du free 0.3333333
du from 0.0500000
du limit 0.3333333
du stands 0.1428571
du rural 0.1666667
du something 0.1000000
du sustainable 0.2500000
du adoption 0.5000000
du failures 1.0000000
du consumer 0.1666667
du strasbourg 1.0000000
du controversy 0.5000000
du work 0.1739130
du water 0.5000000
du talk 0.3333333
du action 0.2222222
du ' 0.1296296
du bureaucratic 0.3333333
messieurs NULL 0.0010341
messieurs gentlemen 0.5000000
d follow 0.1666667
d NULL 0.0020683
d of 0.0129590
d complicated 1.0000000
d analyse 0.2000000
d 2 0.1250000
d modest 0.3333333
d to 0.0063559
d ownership 0.1666667
d approving 0.5000000
d flexible 0.1666667
d paying 0.2500000
d requests 0.2500000
d discover 0.2000000
d employers 0.2000000
d perhaps 0.3333333
d firstly 0.1538462
d be 0.0076336
d creating 0.2000000
d and 0.0125786
matière regard 0.1111111
matière NULL 0.0031024
matière area 0.1818182
matière involvement 0.3333333
matière are 0.0089286
matière regards 0.2000000
matière reminiscent 0.3333333
matière foundation 0.2500000
matière respect 0.2857143
matière legislation 0.2000000
matière this 0.0208333
sud south 0.6666667
sud northern 0.1428571
langen langen 1.0000000
langen mr 0.0119048
locaux players 0.5000000
locaux local 0.2000000
collaboration rapporteurs 0.2500000
collaboration cooperation 0.1666667
ari ari 0.1666667
sauvetage NULL 0.0005171
sauvetage intervention 0.2857143
conséquence to 0.0021186
conséquence NULL 0.0005171
conséquence consequently 0.1666667
conséquence result 0.1666667
déposé tabled 0.1111111
déposé party 0.1666667
massif mass 1.0000000
importe absolutely 0.1428571
importe important 0.0526316
importe is 0.0089286
établie communication 0.2500000
introduite presented 0.2000000
donner NULL 0.0010341
donner them 0.0833333
donner give 0.1250000
donner this 0.0052083
1997 1997 0.1666667
parvenir achieving 0.2000000
parvenir achieve 0.2857143
armes why 0.0454545
bouleversant subvert 1.0000000
bouleversant legally 0.2500000
tenue bound 0.5000000
tenue though 0.2000000
tenue however 0.0454545
implique here 0.0909091
implique discussing 0.3333333
implique does 0.0500000
février , 0.0014409
février february 1.0000000
celle priority 0.1666667
celle is 0.0044643
nombreux NULL 0.0005171
nombreux many 0.1250000
faites so 0.0333333
faites made 0.1333333
faites far 0.0909091
parvient when 0.0476190
parvient we 0.0068966
parvient manage 0.5000000
longtemps NULL 0.0005171
longtemps parliament 0.0212766
longtemps long 0.1428571
longtemps by 0.0163934
longtemps awaited 0.3333333
cumul from 0.0250000
cumul money 0.3333333
cumul accumulation 1.0000000
supportable limit 0.3333333
instrument pre-accession 0.3333333
instrument instrument 0.5000000
redistribution such 0.0909091
redistribution redistribution 0.5000000
réagissent react 1.0000000
réagissent by 0.0163934
naturelles disasters 1.0000000
formuler object 0.2000000
formuler that 0.0059172
technologies latest 0.5000000
demandé NULL 0.0005171
demandé personal 0.3333333
demandé asked 0.3333333
document NULL 0.0005171
féliciter congratulate 0.3333333
féliciter NULL 0.0010341
féliciter him 0.2000000
féliciter welcome 1.0000000
féliciter commend 0.0909091
structurel more 0.0263158
brut per 0.2000000
brut product 0.2500000
brut domestic 1.0000000
brut gross 1.0000000
soutiendra support 0.1111111
soutiendra will 0.0178571
soutiendra always 0.1428571
subventions subsidy 0.3333333
subventions subsidies 0.5000000
personnellement visit 1.0000000
centre also 0.0212766
tirions from 0.0250000
tirions this 0.0052083
tirions learn 1.0000000
deviennent benefit 0.2500000
deviennent also 0.0212766
réglementations various 0.1666667
réglementations NULL 0.0005171
réglementations regulations 0.1250000
réglementations proper 0.1666667
réglementations legislation 0.1000000
apprécie deep 0.2500000
apprécie a 0.0049261
apprécie have 0.0112360
apprécie which 0.0112360
apprécie for 0.0068966
apprécie is 0.0044643
apprécie something 0.1000000
rénovation project 0.3333333
rénovation renovation 1.0000000
favorables support 0.1111111
favorables welfare 0.2000000
pauvreté poverty 0.5000000
permettre restructuring 0.5000000
permettre enable 0.3333333
permettre allowed 0.5000000
permettre afford 0.2500000
définir define 1.0000000
dynamiques centres 1.0000000
où NULL 0.0005171
où wonder 0.2000000
où where 0.3125000
autre NULL 0.0010341
autre another 0.3333333
autre negative 0.5000000
autre secondly 0.2000000
autre institution 0.5000000
terminer finally 0.0769231
terminer a 0.0049261
exploiter individually 0.2000000
fois on 0.0078125
fois schools 0.5000000
fois time 0.1666667
fois , 0.0014409
fois again 0.0666667
fois raise 0.1250000
harmonisation harmonisation 0.5454545
harmonisation harmonising 0.6666667
vaste when 0.0476190
vaste large 0.1666667
présentée as 0.0224719
présentée soon 0.5000000
présentée presented 0.2000000
politiques policy 0.0142857
politiques policies 0.7000000
politiques conclusions 0.3333333
adoptées adopted 0.0769231
appropriée level 0.1250000
appropriée entirely 0.3333333
appropriée appropriate 0.5000000
réglementation special 0.3333333
réglementation it 0.0089286
réglementation NULL 0.0005171
réglementation regulations 0.1250000
réglementation eu 0.0344828
réglementation arrangement 1.0000000
pauvres poor 0.5714286
désespérément yet 0.3333333
désespérément desperately 0.1666667
améliorer improve 0.4000000
améliorer improving 0.1666667
améliorer day 0.1428571
éclairer enlighten 0.5000000
éclairer us 0.0256410
souples flexibly 1.0000000
russie russia 1.0000000
communication most 0.0769231
communication recent 0.2500000
communication route 0.5000000
communication communication 0.5000000
défaut NULL 0.0005171
défaut transparent 0.1428571
défaut upturn 0.2000000
péché sin 1.0000000
efficacité efficiency 0.3333333
efficacité NULL 0.0005171
efficacité effectiveness 0.3333333
élevés are 0.0089286
navigable waterway 0.5000000
navigable inland 0.5000000
reste it 0.0089286
reste is 0.0044643
reste still 0.0769231
éligibilité why 0.0454545
18 on 0.0078125
18 18 1.0000000
silence silence 1.0000000
silence s 0.0434783
grave seriously 0.5000000
grave indication 1.0000000
grave that 0.0059172
grave is 0.0044643
grave something 0.1000000
grave serious 0.3333333
connaître most 0.0769231
connaître very 0.0303030
connaître knowledge 0.3333333
connaître have 0.0112360
connaître finding 0.2000000
connaître about 0.0476190
wide wide 0.5000000
ayons been 0.0196078
impatience forward 0.1666667
industrielle developments 0.5000000
industrielle industrial 1.0000000
mènent lead 0.2000000
relever raise 0.1250000
95 95 1.0000000
égard connection 0.6666667
égard be 0.0076336
égard analysed 0.3333333
bénéficie they 0.0714286
bénéficie are 0.0089286
vont fit 0.2500000
vont NULL 0.0010341
vont be 0.0076336
vont heading 0.5000000
vont dispose 0.2000000
vont join 0.5000000
vont also 0.0212766
existante existing 0.2000000
exhaustive bear 0.5000000
exhaustive fully 0.2500000
procède proceed 0.1666667
court short 0.3333333
technique exceptionally 0.2500000
technique technical 0.5000000
prospère base 1.0000000
fulgurant meteoric 1.0000000
capitaux saving 1.0000000
capitaux does 0.0500000
capitaux capital 0.1111111
! hat 0.3333333
! off 0.2000000
circonstance materials 0.3333333
attention NULL 0.0005171
attention attention 0.4166667
attention your 0.0625000
attention carefully 0.2500000
attention minds 1.0000000
concernant single 1.0000000
concernant on 0.0078125
concernant said 0.1111111
concernant NULL 0.0010341
concernant regarding 0.1111111
concernant oral 0.3333333
concernant taxation 0.2000000
unanime NULL 0.0005171
structures competitive 0.2000000
structures depend 0.2000000
normes minimum 0.1666667
normes standards 0.3750000
normes concerns 0.3333333
normes relevant 0.3333333
assez front 0.5000000
assez was 0.0256410
assez NULL 0.0010341
îles NULL 0.0005171
îles islands 0.7500000
profile us 0.0256410
réseaux related 0.2000000
réseaux networks 0.5000000
égalité equal 0.5000000
aux small 0.2500000
aux the 0.0073529
aux matters 0.3333333
aux NULL 0.0031024
aux states 0.0540541
aux turned 0.2500000
aux anyway 0.2500000
aux to 0.0296610
aux reference 0.3333333
aux less 0.2000000
aux in 0.0032468
aux operators 0.2000000
aux pillars 0.2500000
aux citizens 0.0909091
aux subsidy 0.3333333
aux access 0.1666667
aux according 0.2000000
aux operations 0.1666667
aux regions 0.0487805
aux deficiencies 0.5000000
aux repayment 0.5000000
supplémentaires additional 0.4000000
supplémentaires be 0.0076336
système change 0.2000000
luxembourg luxembourg 0.5000000
contrariant essentially 1.0000000
contrariant doing 0.5000000
contrariant nuisance 1.0000000
contrariant a 0.0049261
contrariant today 0.0333333
bourlanges on 0.0078125
bourlanges bourlanges 0.5000000
recommandations NULL 0.0005171
recommandations recommendations 1.0000000
coule does 0.0500000
adoptons come 0.1000000
faisant thereby 0.3333333
faisant NULL 0.0005171
faisant have 0.0112360
faisant that 0.0059172
imprimer flexible 0.1666667
échange key 0.1428571
communiquer inform 0.1428571
koch koch 1.0000000
écoulé been 0.0196078
écoulé has 0.0140845
s wishes 0.3333333
s continuation 1.0000000
s means 0.0909091
s wurtz 0.2500000
s no 0.0434783
s based 0.2500000
inscrire have 0.0112360
inscrire bourlanges 0.5000000
groupe group 1.0000000
énergie urge 0.1428571
énergie energy 1.0000000
énergie sector 0.1250000
hier on 0.0078125
hier yesterday 0.5000000
( ( 0.7777778
adaptées adapted 0.2500000
adaptées account 0.1428571
adaptées take 0.0500000
reçu received 1.0000000
exceptions exceptions 1.0000000
exceptions permitted 0.2000000
doutant i 0.0051020
tributaires on 0.0078125
tributaires depend 0.2000000
ensuite next 0.2000000
ensuite lament 0.3333333
ensuite to 0.0042373
ensuite proceed 0.1666667
ensuite then 0.1666667
ensuite technical 0.2500000
soutenus upheld 1.0000000
acquis a 0.0049261
tiendra will 0.0178571
tiendra sitting 0.1250000
moment-là when 0.0476190
moment-là time 0.0555556
lettre letter 1.0000000
générale general 0.2727273
générale ' 0.0185185
octroie we 0.0068966
expérimenté tested 1.0000000
expérimenté now 0.0416667
expérimenté being 0.0526316
orateurs previous 0.1250000
orateurs speakers 0.2500000
échelle less 0.2000000
infrastructures infrastructure 0.3333333
infrastructures potential 0.2000000
infrastructures infrastructures 1.0000000
sérieux problem 0.1250000
sérieux piece 1.0000000
sérieux substantive 1.0000000
sérieux of 0.0043197
sérieux thorough 1.0000000
sérieux work 0.0434783
institutionnelles institutional 0.5000000
constate has 0.0140845
constate directly 0.1666667
offrir NULL 0.0005171
offrir offer 0.1428571
offrir steer 0.5000000
rester us 0.0256410
rester still 0.0769231
rester leave 1.0000000
autriche austria 0.6666667
coupler for 0.0068966
audace ambition 0.5000000
audace daring 0.3333333
audace NULL 0.0005171
session session 1.0000000
session part-session 0.6666667
genève geneva 0.3333333
obligation political 0.1250000
obligation commitment 1.0000000
obligation obligation 0.6666667
acte directly 0.1666667
merci very 0.0303030
merci you 0.0952381
merci thank 0.3157895
merci much 0.0714286
principaux reiterate 0.2000000
déclarait stated 0.3333333
désaccord on 0.0078125
désaccord occasions 0.3333333
désaccord numerous 1.0000000
décision NULL 0.0005171
décision reconsider 0.2500000
décision ruling 1.0000000
décision decision 0.6666667
réalisable feasible 0.5000000
représente represent 0.5000000
agit remains 0.1250000
agit putting 0.2000000
agit NULL 0.0015512
agit about 0.0476190
agit are 0.0089286
agit all 0.0163934
positions adopted 0.0769231
positions then 0.0555556
positions positions 0.5714286
formule solution 0.6666667
formule workable 0.2000000
imaginer characterised 0.5000000
importantes volume 0.2000000
importantes smaller 0.2500000
importantes observations 0.5000000
importantes , 0.0014409
étatique interventionism 0.5000000
pratique practical 0.2000000
pratique practice 0.5000000
pratique implementation 0.0476190
pratique their 0.0357143
pratique administration 0.3333333
fonctionne dimension 0.5000000
fonctionne working 0.1000000
sein within 0.2857143
sein permit 0.3333333
sein NULL 0.0010341
sein equitably 0.3333333
êtes know 0.0909091
êtes reiterated 0.2000000
consigner useful 0.2500000
auront they 0.0357143
auront be 0.0076336
auront will 0.0178571
auront keen 0.2500000
hänsch hänsch 1.0000000
vers steps 0.3333333
vers step 0.2000000
vers ensure 0.0666667
vers NULL 0.0005171
vers enacting 0.5000000
vers towards 0.1538462
vers demand-orientated 0.3333333
capacités capacities 0.5000000
capacités skills 1.0000000
capacités and 0.0031447
manifestés declared 0.2500000
manifestés themselves 0.2500000
manifestés have 0.0112360
débarrassé do 0.0222222
prochaines weeks 0.5000000
lui NULL 0.0010341
lui him 0.2000000
lui would 0.0147059
lui commend 0.0909091
robert fellow 0.3333333
dénoncent population 0.5000000
dénoncent condemned 0.1666667
dénoncent has 0.0140845
dénoncent ' 0.0185185
dénoncent s 0.0217391
dénoncent strongly 1.0000000
montrent media 0.3333333
institution institution 0.5000000
alimenter boost 0.1111111
inclues them 0.0833333
inclues included 0.2500000
-40 40 1.0000000
agissant amendments 0.0526316
agissant been 0.0196078
agissant have 0.0112360
agissant proposed 0.1250000
agissant relating 0.1000000
remercier to 0.0021186
remercier thank 0.4210526
débat discuss 0.3333333
débat debate 0.7000000
débat about 0.0476190
débat discussed 0.2500000
quoi what 0.0714286
quoi apart 0.5000000
financée financed 1.0000000
dotation provision 0.5000000
sur establishing 0.1428571
sur affected 0.0909091
sur appreciate 0.1428571
sur responsibility 0.1250000
sur two 0.0769231
sur on 0.2656250
sur drag 0.2500000
sur about 0.1428571
sur lasted 0.2000000
sur upon 0.2857143
sur discuss 0.3333333
sur far-reaching 0.3333333
sur regarding 0.4444444
sur else 0.2000000
sur addition 0.1666667
sur drawing 0.1666667
sur 1998 0.1818182
sur away 0.2500000
sur and 0.0031447
sur role 0.1250000
sur prices 0.2000000
sur disturbing 0.2500000
sur general 0.0909091
sur welfare 0.2000000
sur accomplished 0.2000000
sur NULL 0.0062048
sur of 0.0021598
sur up 0.1000000
sur to 0.0042373
sur share 0.3333333
sur basis 0.1111111
sur discussing 0.3333333
sur demand 0.1666667
sur unified 0.3333333
sur cost-intensive 0.1666667
sur attention 0.1666667
sur draw 0.2000000
sur precisely 0.1111111
sur profit 0.5000000
sur fourthly 0.2500000
sur concern 0.1666667
sur aligned 0.1666667
sur allowing 0.1666667
appuie pro-active 1.0000000
appuie be 0.0076336
continueront : 0.1000000
continueront follows 0.3333333
continueront continue 0.1000000
classement list 0.2500000
actuelles operations 0.1666667
actuelles drawn 0.1428571
adapter spirit 0.1250000
températures affected 0.0909091
températures lower 1.0000000
optimisme much 0.0714286
optimisme optimism 0.5000000
puissions us 0.0256410
puissions get 0.1666667
mettre to 0.0042373
mettre NULL 0.0010341
mettre establish 0.5000000
mettre implement 0.3333333
mettre adopt 0.2500000
mettre terminating 0.2500000
mettre set 0.1666667
acteurs from 0.0250000
acteurs players 0.5000000
acteurs operators 0.2000000
voudrais want 0.2727273
voudrais like 0.6111111
voudrais to 0.0063559
voudrais would 0.2794118
voudrais should 0.3061224
commentaires matter 0.0588235
commentaires publicly 0.2000000
commentaires comments 0.1000000
commentaires this 0.0052083
accès access 0.1666667
analyse NULL 0.0005171
analyse type 0.2000000
analyse this 0.0052083
analyse analysis 0.7142857
compétitif environment 0.5000000
compétitif competitive 0.2000000
quotidienne everyday 1.0000000
vue a 0.0049261
vue NULL 0.0005171
vue view 0.3750000
vue legal 0.2000000
vue terms 0.1250000
vue with 0.0294118
vue forget 0.3333333
différents various 0.6666667
différents NULL 0.0005171
différents differently 0.2000000
contribue to 0.0021186
contribue a 0.0049261
contribue contribution 0.3333333
contribue this 0.0052083
prononcé acquitted 0.2500000
prierais would 0.0147059
prierais ask 0.0714286
cessent also 0.0212766
information information 0.2000000
britannique government 0.3333333
britannique is 0.0044643
représentants representatives 1.0000000
baisse significant 0.1666667
baisse reduction 0.2500000
164 164 1.0000000
passé NULL 0.0005171
passé past 0.5000000
directive to 0.0021186
directive amend 0.1428571
directive directive 0.9000000
continuité strengthening 0.2500000
marché market 1.0000000
marché NULL 0.0005171
adopté approved 0.5000000
adopté affairs 0.1666667
adopté were 0.0714286
législatif ' 0.0185185
législatif s 0.0217391
législatif legislative 0.2500000
marquait comparison 0.2500000
principes principles 0.4000000
refusant it 0.0089286
refusant irresponsible 0.2500000
refusant is 0.0044643
sectorielle rather 0.1250000
sectorielle pertains 1.0000000
scénario most 0.0769231
scénario scenario 1.0000000
scénario probable 0.5000000
tel follow-up 1.0000000
tel NULL 0.0005171
tel with 0.0147059
tel compulsory 0.3333333
tel this 0.0052083
précieuses valuable 0.5000000
possession ownership 0.1666667
lors NULL 0.0005171
lors therefore 0.0357143
lors experience 0.2500000
lors consideration 0.1000000
lors we 0.0068966
lors end 0.1111111
lors large 0.1666667
lors in 0.0064935
lors answered 0.2500000
lors formally 0.1666667
lors this 0.0052083
sidérurgie NULL 0.0005171
sidérurgie expired 1.0000000
sidérurgie future 0.0625000
sidérurgie industry 0.2000000
sidérurgie steel 0.2500000
trafic traffic 1.0000000
amené have 0.0112360
amené failed 0.2500000
poettering poettering 1.0000000
poettering logic 1.0000000
demandiez asking 0.3333333
n' staircases 0.3333333
n' object 0.2000000
n' know 0.0909091
n' NULL 0.0093071
n' did 0.4545455
n' since 0.0666667
n' do 0.0222222
n' others 0.2000000
n' employed 0.2000000
n' not 0.0170940
n' failed 0.2500000
n' room 0.1428571
n' never 0.1666667
n' incentives 0.3333333
n' let 0.0909091
n' delivered 0.2500000
n' fire 0.5000000
n' merely 0.3333333
n' internet 0.3333333
n' bernié 0.3333333
n' decreased 0.2500000
n' until 0.5000000
n' 1998 0.0909091
n' voted 0.1250000
n' positions 0.1428571
n' nations 1.0000000
n' nothing 0.3333333
n' permitted 0.2000000
compétence competence 0.5000000
couvertes covered 0.2500000
possibilité chance 0.6666667
possibilité opportunity 0.1000000
possibilité give 0.0625000
examen today 0.0333333
examen for 0.0068966
examen areas 0.0526316
examen discussion 0.2500000
examen transportation 0.5000000
sais whether 0.1250000
communs creation 0.2500000
communs schemes 1.0000000
communs job 0.2500000
intégrées strategies 1.0000000
tombée so 0.0333333
tombée made 0.0666667
tombée let 0.0909091
direction direction 0.1666667
direction for 0.0068966
direction directorate 0.6666667
preuve self-restraint 1.0000000
preuve refuse 0.3333333
phase phase 0.5000000
évaluations ex 1.0000000
justifier propose 0.2857143
servant used 0.1250000
dû NULL 0.0005171
dû by 0.0163934
estimer could 0.2000000
estimer refer 0.2000000
incitent fill 0.1666667
incitent me 0.0769231
lynne lynne 1.0000000
part pass 0.2500000
part well-intentioned 0.2000000
part NULL 0.0005171
part businesses 0.2500000
part responsibility 0.1250000
part , 0.0014409
part all 0.0163934
part secondly 0.2000000
540 540 0.5000000
540 totalling 1.0000000
540 company 0.3333333
540 capital 0.1111111
vous confirm 0.1666667
vous let 0.0909091
vous might 0.5000000
vous NULL 0.0020683
vous rise 0.3333333
vous you 0.7142857
vous admit 0.5000000
vous tell 0.2500000
vous speech 0.3333333
vous satisfied 0.3333333
vous expressing 1.0000000
interdiction on 0.0156250
interdiction ban 0.5000000
examiner address 0.2000000
finissons coming 0.3333333
finissons are 0.0089286
placer must 0.0204082
placer have 0.0112360
placer at 0.0208333
encore actual 0.3333333
encore NULL 0.0005171
encore even 0.0833333
encore degree 0.1250000
encore ease 0.3333333
encore we 0.0137931
encore still 0.0769231
encore remains 0.1250000
encore have 0.0224719
encore strengthened 0.1428571
encore also 0.0212766
créer so 0.0333333
créer create 0.6666667
créer layers 0.5000000
résolution resolution 1.0000000
entraves be 0.0076336
entraves dismantled 0.1666667
ai thought 0.5000000
ai " 0.1250000
ai wish 0.0909091
ai NULL 0.0041365
ai appreciate 0.1428571
ai have 0.0561798
ai do 0.0222222
votant voting 1.0000000
perpétrés killings 0.2500000
tendance 1997 0.1666667
tendance absent 1.0000000
doivent assume 0.5000000
doivent must 0.2448980
doivent NULL 0.0005171
doivent meet 0.5000000
doivent belong 0.5000000
doivent compromising 1.0000000
doivent drawn 0.1428571
restent still 0.0769231
chers thanking 0.3333333
chers able 0.1250000
chers NULL 0.0031024
chers limited 0.5000000
chers ladies 0.5000000
chers i 0.0051020
chers colleagues 0.3333333
saurai it 0.0089286
saurai would 0.0147059
future managed 0.5000000
future be 0.0076336
dramatiser into 0.0555556
dramatiser more 0.0263158
dramatiser dramatised 0.3333333
dramatiser something 0.1000000
cause NULL 0.0005171
cause commend 0.0909091
intérêt confirm 0.1666667
intérêt deliberations 1.0000000
intérêt your 0.0625000
intérêt part 0.1428571
intérêt positive 0.1428571
intérêt relating 0.1000000
