" , un premier discours . ||| a maiden speech . ||| 0.333333 6.61367e-06 1 0.0455983 2.718 ||| ||| 3 1
" , un premier discours ||| a maiden speech ||| 0.333333 6.75634e-06 1 0.0465116 2.718 ||| ||| 3 1
" , un premier ||| a maiden ||| 0.333333 2.0269e-05 1 0.0465116 2.718 ||| ||| 3 1
" , un ||| a ||| 0.00531915 4.0538e-05 1 0.465116 2.718 ||| ||| 188 1
" chapeau ! " ||| my hat off ||| 1 0.000689061 1 0.0138067 2.718 ||| ||| 1 1
" chapeau ! " à ||| my hat off to ||| 1 0.000127009 1 0.00425952 2.718 ||| ||| 1 1
" chapeau ! ||| hat off ||| 1 0.0296296 1 0.179487 2.718 ||| ||| 1 1
" esprit d' entreprise " , je ||| entrepreneurship i ||| 1 6.60807e-05 1 0.160399 2.718 ||| ||| 1 1
" esprit d' entreprise " , ||| entrepreneurship ||| 0.333333 8.63455e-05 1 0.170023 2.718 ||| ||| 3 1
" esprit d' entreprise " ||| entrepreneurship ||| 0.333333 0.000976562 1 0.170023 2.718 ||| ||| 3 1
" jungfernrede " , un premier discours ||| as a maiden speech ||| 0.5 1.17758e-10 1 0.0465116 2.718 ||| ||| 2 1
" jungfernrede " , un premier ||| as a maiden ||| 0.333333 3.53274e-10 1 0.0465116 2.718 ||| ||| 3 1
" jungfernrede " , un ||| as a ||| 0.2 7.06549e-10 1 0.465116 2.718 ||| ||| 5 1
" jungfernrede " , ||| as ||| 0.0102041 2.39049e-09 1 1 2.718 ||| ||| 98 1
" jungfernrede " ||| as ||| 0.0102041 2.70363e-08 1 1 2.718 ||| ||| 98 1
" jungfernrede ||| as ||| 0.0102041 1.74293e-05 1 1 2.718 ||| ||| 98 1
" votant avec leurs ||| voting with their ||| 0.5 6.35471e-05 1 0.288889 2.718 ||| ||| 2 1
" votant avec ||| voting with ||| 0.5 0.000296553 1 0.481482 2.718 ||| ||| 2 1
" votant ||| voting ||| 0.5 0.0015512 1 1 2.718 ||| ||| 2 1
" ||| my ||| 0.027027 0.0232558 1 0.0769231 2.718 ||| ||| 37 1
% ||| % ||| 0.333333 0.4 1 1 2.718 ||| ||| 3 1
' a effectivement pas ||| has actually not ||| 0.5 0.00144438 0.5 0.138298 2.718 ||| ||| 2 2
' a effectivement pas ||| this has actually not ||| 0.5 0.00144438 0.5 0.0015578 2.718 ||| ||| 2 2
' a effectivement pas été fait . ||| has actually not been done . ||| 0.5 0.000381193 0.5 0.0121055 2.718 ||| ||| 2 2
' a effectivement pas été fait . ||| this has actually not been done . ||| 0.5 0.000381193 0.5 0.000136358 2.718 ||| ||| 2 2
' a effectivement pas été fait ||| has actually not been done ||| 0.5 0.000389416 0.5 0.012348 2.718 ||| ||| 2 2
' a effectivement pas été fait ||| this has actually not been done ||| 0.5 0.000389416 0.5 0.000139089 2.718 ||| ||| 2 2
' a effectivement pas été ||| has actually not been ||| 0.5 0.000623065 0.5 0.0691489 2.718 ||| ||| 2 2
' a effectivement pas été ||| this has actually not been ||| 0.5 0.000623065 0.5 0.0007789 2.718 ||| ||| 2 2
' a effectivement ||| has actually ||| 0.5 0.00216657 0.5 0.18617 2.718 ||| ||| 2 2
' a effectivement ||| this has actually ||| 0.5 0.00216657 0.5 0.00209704 2.718 ||| ||| 2 2
' a ||| has ||| 0.0217391 0.0173325 0.5 0.37234 2.718 ||| ||| 46 2
' a ||| this has ||| 0.333333 0.0173325 0.5 0.00419408 2.718 ||| ||| 3 2
' abord ||| firstly , ||| 0.333333 0.000238638 0.5 0.00171572 2.718 ||| ||| 3 2
' abord ||| firstly ||| 0.166667 0.000238638 0.5 0.0198675 2.718 ||| ||| 6 2
' accent sur le principe de subsidiarité ||| of the principle of subsidiarity ||| 0.25 2.59023e-09 0.5 0.00319301 2.718 ||| ||| 4 2
' accent sur le principe de subsidiarité ||| the principle of subsidiarity ||| 0.2 2.59023e-09 0.5 0.110922 2.718 ||| ||| 5 2
' accent sur le principe de ||| of the principle of ||| 0.25 5.18047e-09 0.5 0.00319301 2.718 ||| ||| 4 2
' accent sur le principe de ||| the principle of ||| 0.0666667 5.18047e-09 0.5 0.110922 2.718 ||| ||| 15 2
' accent sur le principe ||| of the principle ||| 0.25 1.31789e-08 0.5 0.0109826 2.718 ||| ||| 4 2
' accent sur le principe ||| the principle ||| 0.0714286 1.31789e-08 0.5 0.381524 2.718 ||| ||| 14 2
' accent sur le ||| of the ||| 0.00719424 2.05005e-08 0.5 0.0134231 2.718 ||| ||| 139 2
' accent sur le ||| the ||| 0.00105152 2.05005e-08 0.5 0.466307 2.718 ||| ||| 951 2
' adaptation du droit ||| law ||| 0.0588235 1.64517e-07 1 0.583333 2.718 ||| ||| 17 1
' agissant de lundi ||| amendments have been proposed relating to monday ||| 0.5 0.000395239 1 4.39617e-05 2.718 ||| ||| 2 1
' agissant de ||| amendments have been proposed relating to ||| 0.5 0.000395239 1 4.39617e-05 2.718 ||| ||| 2 1
' agissant ||| amendments have been proposed relating ||| 0.5 0.00216922 1 0.00032 2.718 ||| ||| 2 1
' agit de présenter les priorités ||| putting forward ||| 1 3.06377e-05 1 0.0359276 2.718 ||| ||| 1 1
' ai cité ||| actually ||| 0.142857 1.81801e-05 1 1 2.718 ||| ||| 7 1
' ai d ' ailleurs eu l ||| , ||| 0.00144509 1.22245e-16 1 0.5 2.718 ||| ||| 692 1
' ai d ' ailleurs eu ||| , ||| 0.00144509 2.36424e-14 1 0.5 2.718 ||| ||| 692 1
' ai d ' ailleurs ||| , ||| 0.00144509 4.57211e-11 1 0.5 2.718 ||| ||| 692 1
' ai proposé que la ||| have thus proposed that the ||| 0.5 1.56533e-07 1 1.17972e-07 2.718 ||| ||| 2 1
' ai proposé que ||| have thus proposed that ||| 0.5 5.56043e-07 1 2.04249e-07 2.718 ||| ||| 2 1
' ai proposé ||| have thus proposed ||| 0.25 1.02143e-06 0.333333 4.3514e-07 2.718 ||| ||| 4 3
' ai proposé ||| have thus ||| 0.25 1.02143e-06 0.333333 0.000347667 2.718 ||| ||| 4 3
' ai proposé ||| have ||| 0.0166667 1.02143e-06 0.333333 0.277778 2.718 ||| ||| 60 3
' ai ||| have thus proposed ||| 0.25 0.0019753 0.333333 4.3514e-07 2.718 ||| ||| 4 3
' ai ||| have thus ||| 0.25 0.0019753 0.333333 0.000347667 2.718 ||| ||| 4 3
' ai ||| have ||| 0.0166667 0.0019753 0.333333 0.277778 2.718 ||| ||| 60 3
' ailleurs eu l ' ||| , ||| 0.00144509 1.42885e-11 1 0.5 2.718 ||| ||| 692 1
' ailleurs eu l ||| , ||| 0.00144509 4.06381e-10 1 0.5 2.718 ||| ||| 692 1
' ailleurs eu ||| , ||| 0.00144509 7.85945e-08 1 0.5 2.718 ||| ||| 692 1
' ailleurs ||| , ||| 0.00144509 0.000151991 1 0.5 2.718 ||| ||| 692 1
' ambition . ||| urgency . ||| 0.333333 0.0344179 1 0.490181 2.718 ||| ||| 3 1
' ambition ||| urgency ||| 0.333333 0.0351603 1 0.5 2.718 ||| ||| 3 1
' amendement sont de nature purement technique ||| are of a purely technical nature ||| 0.333333 6.73257e-07 1 0.0110306 2.718 ||| ||| 3 1
' amendement sont de nature ||| are of a purely ||| 0.25 1.34651e-06 1 0.0165459 2.718 ||| ||| 4 1
' amendement sont de ||| are of ||| 0.25 2.67983e-06 1 0.148913 2.718 ||| ||| 4 1
' amendement sont ||| are ||| 0.0108696 6.81736e-06 1 0.512195 2.718 ||| ||| 92 1
' amendement ||| by member ||| 0.5 0.000576397 0.25 0.000227555 2.718 ||| ||| 2 4
' amendement ||| by ||| 0.0178571 0.000576397 0.25 0.0909091 2.718 ||| ||| 56 4
' amendement ||| tabled by member ||| 0.5 0.000576397 0.25 2.84807e-07 2.718 ||| ||| 2 4
' amendement ||| tabled by ||| 0.2 0.000576397 0.25 0.000113782 2.718 ||| ||| 5 4
' amendements sur lesquelles aura débouché le ||| amendments from the ||| 0.5 1.19013e-13 1 0.109035 2.718 ||| ||| 2 1
' amendements sur lesquelles aura débouché ||| amendments from ||| 0.5 6.54914e-13 1 0.233826 2.718 ||| ||| 2 1
' amsterdam avait prévu le ||| amsterdam in order to ||| 0.25 3.4826e-07 0.5 0.0275344 2.718 ||| ||| 4 2
' amsterdam avait prévu le ||| amsterdam in order ||| 0.25 3.4826e-07 0.5 0.333333 2.718 ||| ||| 4 2
' amsterdam avait prévu ||| amsterdam in order to ||| 0.25 1.14158e-05 0.5 0.0275344 2.718 ||| ||| 4 2
' amsterdam avait prévu ||| amsterdam in order ||| 0.25 1.14158e-05 0.5 0.333333 2.718 ||| ||| 4 2
' amsterdam avait ||| amsterdam in ||| 0.5 0.000114158 1 0.333333 2.718 ||| ||| 2 1
' amsterdam ||| amsterdam ||| 0.111111 0.0351603 1 1 2.718 ||| ||| 9 1
' angle de la recherche . ||| view of research . ||| 0.5 0.00027953 1 0.115546 2.718 ||| ||| 2 1
' angle de la recherche ||| view of research ||| 0.5 0.00028556 1 0.11786 2.718 ||| ||| 2 1
' angle de ||| view of ||| 0.5 0.00172764 1 0.290735 2.718 ||| ||| 2 1
' angle ||| view ||| 0.125 0.00439504 1 1 2.718 ||| ||| 8 1
' après-demain je ||| reason ||| 0.0526316 1.45444e-05 1 1 2.718 ||| ||| 19 1
' après-demain ||| reason ||| 0.0526316 0.00703206 1 1 2.718 ||| ||| 19 1
' assez tardivement ||| was only ||| 0.5 9.01545e-05 1 0.05 2.718 ||| ||| 2 1
' assez ||| was ||| 0.0344828 0.000901545 1 0.25 2.718 ||| ||| 29 1
' augmentation de la concurrence et ||| increased competition and ||| 0.5 0.000125068 1 0.138573 2.718 ||| ||| 2 1
' augmentation de la concurrence ||| increased competition ||| 0.5 0.0001572 1 0.16103 2.718 ||| ||| 2 1
' augmentation de ||| increased ||| 0.2 0.000734475 1 0.333333 2.718 ||| ||| 5 1
' augmentation ||| increased ||| 0.2 0.00703206 1 0.333333 2.718 ||| ||| 5 1
' autriche et pour le luxembourg . ||| austria and luxembourg tomorrow . ||| 1 0.00393332 1 0.000576624 2.718 ||| ||| 1 1
' autriche et pour le luxembourg ||| austria and luxembourg tomorrow ||| 0.5 0.00401817 1 0.000588174 2.718 ||| ||| 2 1
' autriche et ||| austria and ||| 0.333333 0.176799 1 0.433122 2.718 ||| ||| 3 1
' autriche ||| austria ||| 0.25 0.222222 1 0.503311 2.718 ||| ||| 4 1
' avenir ||| future ||| 0.0714286 0.0153826 0.333333 0.7 2.718 ||| ||| 14 3
' avenir ||| in the future ||| 0.0909091 0.0153826 0.333333 0.00125494 2.718 ||| ||| 11 3
' avenir ||| the future ||| 0.0714286 0.0153826 0.333333 0.0477472 2.718 ||| ||| 14 3
' avenir à mettre en place ||| future , ||| 0.111111 1.50147e-12 0.333333 0.0172413 2.718 ||| ||| 9 3
' avenir à mettre en place ||| in the future , ||| 0.25 1.50147e-12 0.333333 3.09097e-05 2.718 ||| ||| 4 3
' avenir à mettre en place ||| the future , ||| 0.25 1.50147e-12 0.333333 0.00117604 2.718 ||| ||| 4 3
' avenir à mettre en ||| future , ||| 0.111111 2.90364e-09 0.333333 0.0172413 2.718 ||| ||| 9 3
' avenir à mettre en ||| in the future , ||| 0.25 2.90364e-09 0.333333 3.09097e-05 2.718 ||| ||| 4 3
' avenir à mettre en ||| the future , ||| 0.25 2.90364e-09 0.333333 0.00117604 2.718 ||| ||| 4 3
' avenir à mettre ||| future ||| 0.0714286 4.03026e-07 0.333333 0.7 2.718 ||| ||| 14 3
' avenir à mettre ||| in the future ||| 0.0909091 4.03026e-07 0.333333 0.00125494 2.718 ||| ||| 11 3
' avenir à mettre ||| the future ||| 0.0714286 4.03026e-07 0.333333 0.0477472 2.718 ||| ||| 14 3
' avenir à ||| future ||| 0.0714286 0.000389736 0.333333 0.7 2.718 ||| ||| 14 3
' avenir à ||| in the future ||| 0.0909091 0.000389736 0.333333 0.00125494 2.718 ||| ||| 11 3
' avenir à ||| the future ||| 0.0714286 0.000389736 0.333333 0.0477472 2.718 ||| ||| 14 3
' ayant laissé aucun profit durable ||| which have had no lasting benefit ||| 0.5 4.54738e-06 1 0.000135111 2.718 ||| ||| 2 1
' ayant laissé aucun profit durable à ||| which have had no lasting benefit for ||| 0.5 1.56806e-07 1 2.39559e-06 2.718 ||| ||| 2 1
' efficacité de ces programmes . ||| effectiveness of these programmes . ||| 1 0.00761293 1 0.0468832 2.718 ||| ||| 1 1
' efficacité de ces programmes ||| effectiveness of these programmes ||| 1 0.00777716 1 0.0478223 2.718 ||| ||| 1 1
' efficacité de ces ||| effectiveness of these ||| 1 0.0139989 1 0.0526046 2.718 ||| ||| 1 1
' efficacité de ||| effectiveness of ||| 0.5 0.0218383 1 0.0736464 2.718 ||| ||| 2 1
' efficacité des programmes mis en uvre ||| projects implemented ||| 0.333333 6.45646e-09 1 0.00187312 2.718 ||| ||| 3 1
' efficacité des ||| projects ||| 0.0526316 6.61142e-06 1 0.013468 2.718 ||| ||| 19 1
' efficacité ||| effectiveness ||| 1 0.0555556 1 0.253311 2.718 ||| ||| 1 1
' en effet nous votons . ||| we ourselves vote on . ||| 0.2 6.16921e-08 1 0.0104085 2.718 ||| ||| 5 1
' en effet nous votons ||| we ourselves vote on ||| 0.2 6.30229e-08 1 0.010617 2.718 ||| ||| 5 1
' en effet nous ||| we ||| 0.00606061 1.27129e-06 1 0.679487 2.718 ||| ||| 165 1
' en suis sûr , les gens ||| people ||| 0.0555556 5.76989e-13 1 0.340528 2.718 ||| ||| 18 1
' entreprise , à un environnement plus ||| a way that it becomes a more ||| 0.2 1.42757e-09 1 0.000271054 2.718 ||| ||| 5 1
' entreprise , à un environnement ||| a way that it becomes a ||| 0.2 3.19103e-09 0.5 0.000845051 2.718 ||| ||| 5 2
' entreprise , à un environnement ||| such a way that it becomes a ||| 0.2 3.19103e-09 0.5 2.11525e-06 2.718 ||| ||| 5 2
' entreprises ||| organisations should be able ||| 0.333333 0.0351603 0.25 7.26509e-09 2.718 ||| ||| 3 4
' entreprises ||| organisations should be ||| 0.333333 0.0351603 0.25 3.86997e-06 2.718 ||| ||| 3 4
' entreprises ||| organisations should ||| 0.333333 0.0351603 0.25 0.000220865 2.718 ||| ||| 3 4
' entreprises ||| organisations ||| 0.333333 0.0351603 0.25 0.0588235 2.718 ||| ||| 3 4
' espoir de trouver de meilleurs revenus ||| a crust ||| 0.5 2.44264e-10 1 0.666667 2.718 ||| ||| 2 1
' espoir de trouver de ||| a ||| 0.00531915 9.77057e-10 1 1 2.718 ||| ||| 188 1
' espoir de trouver ||| a ||| 0.00531915 9.3546e-09 1 1 2.718 ||| ||| 188 1
' espoir de ||| a ||| 0.00531915 1.80905e-05 1 1 2.718 ||| ||| 188 1
' espoir ||| a ||| 0.00531915 0.000173203 1 1 2.718 ||| ||| 188 1
' esprit des autorités nationales . ||| ' national authorities . ||| 0.25 2.45374e-07 0.25 0.00736193 2.718 ||| ||| 4 4
' esprit des autorités nationales . ||| member states ' national authorities . ||| 0.25 2.45374e-07 0.25 2.30641e-08 2.718 ||| ||| 4 4
' esprit des autorités nationales . ||| national authorities . ||| 0.25 2.45374e-07 0.25 0.980363 2.718 ||| ||| 4 4
' esprit des autorités nationales . ||| states ' national authorities . ||| 0.25 2.45374e-07 0.25 9.2142e-06 2.718 ||| ||| 4 4
' esprit des autorités nationales ||| ' national authorities ||| 0.25 2.50668e-07 0.25 0.0075094 2.718 ||| ||| 4 4
' esprit des autorités nationales ||| member states ' national authorities ||| 0.25 2.50668e-07 0.25 2.3526e-08 2.718 ||| ||| 4 4
' esprit des autorités nationales ||| national authorities ||| 0.25 2.50668e-07 0.25 1 2.718 ||| ||| 4 4
' esprit des autorités nationales ||| states ' national authorities ||| 0.25 2.50668e-07 0.25 9.39877e-06 2.718 ||| ||| 4 4
' esprit des autorités ||| authorities ||| 0.125 6.26669e-07 1 1 2.718 ||| ||| 8 1
' esprit ||| in ||| 0.00343643 1.34299e-05 1 0.0264901 2.718 ||| ||| 291 1
' est d ' ailleurs pour cette ||| for paying ||| 0.333333 4.62828e-07 1 0.01472 2.718 ||| ||| 3 1
' est intensifié pendant la discussion sur ||| strengthened in the course of consideration of ||| 0.111111 4.11283e-13 0.2 1.87435e-10 2.718 ||| ||| 9 5
' est intensifié pendant la discussion sur ||| strengthened in the course of consideration ||| 0.111111 4.11283e-13 0.2 6.51132e-09 2.718 ||| ||| 9 5
' est intensifié pendant la discussion sur ||| strengthened in the course of ||| 0.111111 4.11283e-13 0.2 1.04048e-05 2.718 ||| ||| 9 5
' est intensifié pendant la discussion sur ||| strengthened in the course ||| 0.111111 4.11283e-13 0.2 0.000361453 2.718 ||| ||| 9 5
' est intensifié pendant la discussion sur ||| strengthened in the ||| 0.111111 4.11283e-13 0.2 0.577586 2.718 ||| ||| 9 5
' est intensifié pendant la discussion ||| strengthened in the course of consideration of ||| 0.111111 6.62846e-11 0.2 1.87435e-10 2.718 ||| ||| 9 5
' est intensifié pendant la discussion ||| strengthened in the course of consideration ||| 0.111111 6.62846e-11 0.2 6.51132e-09 2.718 ||| ||| 9 5
' est intensifié pendant la discussion ||| strengthened in the course of ||| 0.111111 6.62846e-11 0.2 1.04048e-05 2.718 ||| ||| 9 5
' est intensifié pendant la discussion ||| strengthened in the course ||| 0.111111 6.62846e-11 0.2 0.000361453 2.718 ||| ||| 9 5
' est intensifié pendant la discussion ||| strengthened in the ||| 0.111111 6.62846e-11 0.2 0.577586 2.718 ||| ||| 9 5
' est intensifié pendant la ||| strengthened in the course of consideration of ||| 0.111111 1.28185e-07 0.2 1.87435e-10 2.718 ||| ||| 9 5
' est intensifié pendant la ||| strengthened in the course of consideration ||| 0.111111 1.28185e-07 0.2 6.51132e-09 2.718 ||| ||| 9 5
' est intensifié pendant la ||| strengthened in the course of ||| 0.111111 1.28185e-07 0.2 1.04048e-05 2.718 ||| ||| 9 5
' est intensifié pendant la ||| strengthened in the course ||| 0.111111 1.28185e-07 0.2 0.000361453 2.718 ||| ||| 9 5
' est intensifié pendant la ||| strengthened in the ||| 0.111111 1.28185e-07 0.2 0.577586 2.718 ||| ||| 9 5
' est intensifié pendant ||| strengthened in ||| 0.333333 4.55345e-07 1 1 2.718 ||| ||| 3 1
' est intensifié ||| strengthened ||| 0.333333 7.01232e-05 1 1 2.718 ||| ||| 3 1
' est le ||| is ||| 0.00462963 0.000464485 1 0.610063 2.718 ||| ||| 216 1
' est notre ||| , created by our ||| 0.2 0.000226552 0.166667 1.66019e-07 2.718 ||| ||| 5 6
' est notre ||| by our ||| 0.166667 0.000226552 0.166667 0.003072 2.718 ||| ||| 6 6
' est notre ||| created by our ||| 0.2 0.000226552 0.166667 1.92246e-06 2.718 ||| ||| 5 6
' est notre ||| our ||| 0.027027 0.000226552 0.166667 0.545454 2.718 ||| ||| 37 6
' est notre ||| problem , created by our ||| 0.2 0.000226552 0.166667 2.0779e-10 2.718 ||| ||| 5 6
' est notre ||| structural problem , created by our ||| 0.2 0.000226552 0.166667 2.6007e-13 2.718 ||| ||| 5 6
' est notre éloignement , notre insularité ||| by our remoteness , our insularity ||| 0.333333 7.41278e-05 0.333333 0.00112933 2.718 ||| ||| 3 3
' est notre éloignement , notre insularité ||| created by our remoteness , our insularity ||| 0.333333 7.41278e-05 0.333333 7.06736e-07 2.718 ||| ||| 3 3
' est notre éloignement , notre insularité ||| our remoteness , our insularity ||| 0.333333 7.41278e-05 0.333333 0.200521 2.718 ||| ||| 3 3
' est notre éloignement , notre ||| , created by our remoteness , our ||| 0.25 7.41278e-05 0.25 6.10323e-08 2.718 ||| ||| 4 4
' est notre éloignement , notre ||| by our remoteness , our ||| 0.25 7.41278e-05 0.25 0.00112933 2.718 ||| ||| 4 4
' est notre éloignement , notre ||| created by our remoteness , our ||| 0.25 7.41278e-05 0.25 7.06736e-07 2.718 ||| ||| 4 4
' est notre éloignement , notre ||| our remoteness , our ||| 0.25 7.41278e-05 0.25 0.200521 2.718 ||| ||| 4 4
' est notre éloignement , ||| , created by our remoteness , ||| 0.2 0.00016061 0.2 1.11893e-07 2.718 ||| ||| 5 5
' est notre éloignement , ||| by our remoteness , ||| 0.2 0.00016061 0.2 0.00207044 2.718 ||| ||| 5 5
' est notre éloignement , ||| created by our remoteness , ||| 0.2 0.00016061 0.2 1.29568e-06 2.718 ||| ||| 5 5
' est notre éloignement , ||| our remoteness , ||| 0.2 0.00016061 0.2 0.367621 2.718 ||| ||| 5 5
' est notre éloignement , ||| problem , created by our remoteness , ||| 0.2 0.00016061 0.2 1.40045e-10 2.718 ||| ||| 5 5
' est notre éloignement ||| , created by our remoteness ||| 0.2 0.000226552 0.166667 1.66019e-07 2.718 ||| ||| 5 6
' est notre éloignement ||| by our remoteness ||| 0.2 0.000226552 0.166667 0.003072 2.718 ||| ||| 5 6
' est notre éloignement ||| created by our remoteness ||| 0.2 0.000226552 0.166667 1.92246e-06 2.718 ||| ||| 5 6
' est notre éloignement ||| our remoteness ||| 0.2 0.000226552 0.166667 0.545454 2.718 ||| ||| 5 6
' est notre éloignement ||| problem , created by our remoteness ||| 0.2 0.000226552 0.166667 2.0779e-10 2.718 ||| ||| 5 6
' est notre éloignement ||| structural problem , created by our remoteness ||| 0.2 0.000226552 0.166667 2.6007e-13 2.718 ||| ||| 5 6
' est pas achevé . ||| is not complete . ||| 0.333333 0.00993611 1 0.44429 2.718 ||| ||| 3 1
' est pas achevé ||| is not complete ||| 0.333333 0.0101504 1 0.45319 2.718 ||| ||| 3 1
' est pas demander beaucoup . ||| is not a lot to ask . ||| 0.5 0.000918533 1 0.000379642 2.718 ||| ||| 2 1
' est pas demander beaucoup ||| is not a lot to ask ||| 0.5 0.000938347 1 0.000387247 2.718 ||| ||| 2 1
' est pas forcément une ||| is not necessarily an ||| 0.333333 0.00124291 1 0.0533164 2.718 ||| ||| 3 1
' est pas forcément ||| is not necessarily ||| 0.333333 0.00338348 1 0.45319 2.718 ||| ||| 3 1
' est pas ||| is not ||| 0.222222 0.0101504 1 0.45319 2.718 ||| ||| 18 4
' est pourquoi j ' ai proposé ||| i have thus proposed ||| 0.111111 3.17445e-14 0.333333 2.32074e-07 2.718 ||| ||| 9 3
' est pourquoi j ' ai proposé ||| i have thus ||| 0.111111 3.17445e-14 0.333333 0.000185422 2.718 ||| ||| 9 3
' est pourquoi j ' ai proposé ||| i have ||| 0.05 3.17445e-14 0.333333 0.148148 2.718 ||| ||| 20 3
' est pourquoi j ' ai ||| i have thus proposed ||| 0.111111 6.13895e-11 0.333333 2.32074e-07 2.718 ||| ||| 9 3
' est pourquoi j ' ai ||| i have thus ||| 0.111111 6.13895e-11 0.333333 0.000185422 2.718 ||| ||| 9 3
' est pourquoi j ' ai ||| i have ||| 0.05 6.13895e-11 0.333333 0.148148 2.718 ||| ||| 20 3
' est pourquoi j ' ||| i ||| 0.00438596 1.09273e-09 1 0.533333 2.718 ||| ||| 228 1
' est pourquoi j ||| i ||| 0.00438596 3.10786e-08 1 0.533333 2.718 ||| ||| 228 1
' est un processus extrêmement intéressant . ||| was a very interesting process . ||| 0.5 0.000182292 1 0.00120849 2.718 ||| ||| 2 1
' est un processus extrêmement intéressant ||| was a very interesting process ||| 0.5 0.000186224 1 0.0012327 2.718 ||| ||| 2 1
' est un ||| was a ||| 0.5 0.0015988 1 0.0175515 2.718 ||| ||| 2 1
' est une société ||| a ||| 0.00531915 6.62696e-08 1 0.346405 2.718 ||| ||| 188 1
' est une ||| a ||| 0.00531915 0.000128156 0.333333 0.346405 2.718 ||| ||| 188 3
' est une ||| makes it ||| 0.333333 0.000603239 0.333333 0.000132173 2.718 ||| ||| 3 3
' est une ||| makes ||| 0.333333 0.000603239 0.333333 0.00960055 2.718 ||| ||| 3 3
' est une évolution tout à fait ||| is extraordinarily ||| 0.5 1.50687e-06 1 0.0482041 2.718 ||| ||| 2 1
' est vrai que la consultation de ||| is true that consultation ||| 0.2 5.41068e-05 1 0.143487 2.718 ||| ||| 5 1
' est vrai que la consultation ||| is true that consultation ||| 0.2 0.000518033 1 0.143487 2.718 ||| ||| 5 1
' est vrai que ||| is true that ||| 0.5 0.00207213 1 0.286356 2.718 ||| ||| 2 1
' est vrai ||| is true ||| 0.5 0.00380642 1 0.610063 2.718 ||| ||| 2 1
' est ||| in ||| 0.00343643 0.000181308 0.0833333 0.0264901 2.718 ||| ||| 291 12
' est ||| is ||| 0.037037 0.0152257 0.666667 0.610063 2.718 ||| ||| 216 12
' est ||| makes it ||| 0.333333 0.0555556 0.0833333 0.000132173 2.718 ||| ||| 3 12
' est ||| makes ||| 0.333333 0.0555556 0.0833333 0.00960055 2.718 ||| ||| 3 12
' est ||| was ||| 0.0344828 0.00540928 0.0833333 0.0377358 2.718 ||| ||| 29 12
' est également une question importante ||| is also important where ||| 0.5 6.71262e-09 1 0.0578508 2.718 ||| ||| 2 1
' est également une question ||| is also ||| 0.0714286 8.0025e-08 1 0.462806 2.718 ||| ||| 14 1
' est également une ||| is also ||| 0.0714286 7.73861e-05 1 0.462806 2.718 ||| ||| 14 1
' est également ||| is also ||| 0.0714286 0.00712691 1 0.462806 2.718 ||| ||| 14 1
' europe connaissent une croissance nettement plus ||| are developing considerably more ||| 0.333333 1.75237e-10 1 0.00612552 2.718 ||| ||| 3 1
' europe connaissent une croissance nettement ||| are developing considerably ||| 0.25 3.91706e-10 1 0.0190972 2.718 ||| ||| 4 1
' europe connaissent une ||| are ||| 0.0108696 1.76268e-09 1 0.25 2.718 ||| ||| 92 1
' europe connaissent ||| are ||| 0.0108696 1.62334e-07 1 0.25 2.718 ||| ||| 92 1
' exprime contre cette demande . ||| speaking against this request . ||| 1 0.00467349 1 0.0356499 2.718 ||| ||| 1 1
' exprime contre cette demande ||| speaking against this request ||| 1 0.00477431 1 0.036364 2.718 ||| ||| 1 1
' exprime contre cette ||| speaking against this ||| 1 0.00716146 1 0.175759 2.718 ||| ||| 1 1
' exprime contre ||| speaking against ||| 1 0.0416667 1 0.287606 2.718 ||| ||| 1 1
' exprime ||| speaking ||| 1 0.0625 1 0.503311 2.718 ||| ||| 1 1
' heure actuelle par la commission ait ||| by the commission ought ||| 0.25 2.12684e-09 1 0.0158228 2.718 ||| ||| 4 1
' heure actuelle par la commission ||| by the commission ||| 0.25 4.25368e-09 1 0.158228 2.718 ||| ||| 4 1
' heure actuelle par la ||| by the ||| 0.0625 4.51148e-09 1 0.208573 2.718 ||| ||| 16 1
' heure actuelle par ||| by ||| 0.0178571 1.60259e-08 1 0.361111 2.718 ||| ||| 56 1
' idée que les orientations ||| idea that these guidelines ||| 0.5 6.21596e-05 1 0.00280991 2.718 ||| ||| 2 1
' idée que ||| idea that ||| 0.5 0.0038281 1 0.117347 2.718 ||| ||| 2 1
' idée ||| idea ||| 0.5 0.00703206 1 0.25 2.718 ||| ||| 2 1
' imaginer des mesures concrètes marquées par ||| , practical measures characterised by ||| 0.5 0.000134877 0.5 0.0118518 2.718 ||| ||| 2 2
' imaginer des mesures concrètes marquées par ||| practical measures characterised by ||| 0.5 0.000134877 0.5 0.13724 2.718 ||| ||| 2 2
' imaginer des mesures concrètes marquées ||| , practical measures characterised ||| 0.5 0.000316443 0.5 0.0328204 2.718 ||| ||| 2 2
' imaginer des mesures concrètes marquées ||| practical measures characterised ||| 0.5 0.000316443 0.5 0.380051 2.718 ||| ||| 2 2
' implique pas , en soi ||| discussing here does not , in itself ||| 0.5 0.000149866 1 0.00140444 2.718 ||| ||| 2 1
' implique pas , en ||| discussing here does not , in ||| 0.5 0.000349687 1 0.00374517 2.718 ||| ||| 2 1
' implique pas , ||| discussing here does not , ||| 0.5 0.00262692 1 0.0185432 2.718 ||| ||| 2 1
' implique pas ||| discussing here does not ||| 0.5 0.00370545 1 0.0275132 2.718 ||| ||| 2 1
' implique ||| discussing here does ||| 0.5 0.00555817 1 0.037037 2.718 ||| ||| 2 1
' impôt ||| capital ||| 0.5 0.0117201 1 0.75 2.718 ||| ||| 2 1
' insister sur le rôle décisif des ||| be given to the decisive importance of ||| 1 1.64577e-07 0.5 4.40423e-06 2.718 ||| ||| 1 2
' insister sur le rôle décisif des ||| given to the decisive importance of ||| 1 1.64577e-07 0.5 0.000251356 2.718 ||| ||| 1 2
' insister sur le rôle décisif ||| be given to the decisive importance ||| 1 8.02097e-07 0.5 1.3769e-05 2.718 ||| ||| 1 2
' insister sur le rôle décisif ||| given to the decisive importance ||| 1 8.02097e-07 0.5 0.000785817 2.718 ||| ||| 1 2
' insister sur le ||| be given to the ||| 1 5.34731e-06 0.5 8.56738e-05 2.718 ||| ||| 1 2
' insister sur le ||| given to the ||| 1 5.34731e-06 0.5 0.00488953 2.718 ||| ||| 1 2
' insister sur ||| be given to ||| 1 2.94257e-05 0.5 0.000183728 2.718 ||| ||| 1 2
' insister sur ||| given to ||| 0.5 2.94257e-05 0.5 0.0104856 2.718 ||| ||| 2 2
' insister ||| be given ||| 1 0.00694444 0.5 0.00881897 2.718 ||| ||| 1 2
' insister ||| given ||| 0.333333 0.00694444 0.5 0.503311 2.718 ||| ||| 3 2
' intérieur des pays , les ||| countries are ||| 0.0909091 2.37383e-10 0.5 0.00310505 2.718 ||| ||| 11 2
' intérieur des pays , les ||| within countries are ||| 0.0909091 2.37383e-10 0.5 7.77225e-06 2.718 ||| ||| 11 2
' intérieur des pays , ||| countries are ||| 0.0909091 1.24081e-08 0.5 0.00310505 2.718 ||| ||| 11 2
' intérieur des pays , ||| within countries are ||| 0.0909091 1.24081e-08 0.5 7.77225e-06 2.718 ||| ||| 11 2
' intérieur des pays ||| countries ||| 0.0277778 3.47426e-07 0.5 0.566667 2.718 ||| ||| 36 2
' intérieur des pays ||| within countries ||| 0.142857 3.47426e-07 0.5 0.00141842 2.718 ||| ||| 7 2
' occasion de mettre ||| opportunity to establish ||| 0.5 0.00128127 1 0.00872255 2.718 ||| ||| 2 1
' occasion de ||| opportunity to ||| 0.25 0.00256253 0.5 0.078503 2.718 ||| ||| 4 2
' occasion de ||| to ||| 0.00258398 1.5561e-05 0.5 0.285714 2.718 ||| ||| 387 2
' occasion ||| opportunity ||| 0.125 0.0140641 0.5 0.571429 2.718 ||| ||| 8 2
' occasion ||| to ||| 0.00258398 0.000148985 0.5 0.285714 2.718 ||| ||| 387 2
' on attribuera ||| legal ||| 0.111111 4.72681e-05 1 1 2.718 ||| ||| 9 1
' on aura alors l ' occasion ||| will provide the opportunity ||| 0.333333 2.11985e-09 1 0.0199199 2.718 ||| ||| 3 1
' on aura alors l ' ||| will provide the ||| 0.166667 5.29962e-09 1 0.0348599 2.718 ||| ||| 6 1
' on aura alors l ||| will provide the ||| 0.166667 1.50728e-07 1 0.0348599 2.718 ||| ||| 6 1
' on aura alors ||| will provide ||| 0.333333 4.22037e-06 1 0.077922 2.718 ||| ||| 3 1
' on aura ||| will ||| 0.0526316 2.53222e-05 1 0.545454 2.718 ||| ||| 19 1
' on devrait encourager fortement l' ||| it , lies in clearly encouraging ||| 1 1.81289e-05 1 1.32692e-05 2.718 ||| ||| 1 1
' on passe en ||| debated will make it possible to ||| 1 1.18351e-09 0.333333 1.18875e-14 2.718 ||| ||| 1 3
' on passe en ||| properly debated will make it possible to ||| 1 1.18351e-09 0.333333 2.23164e-17 2.718 ||| ||| 1 3
' on passe en ||| will make it possible to ||| 1 1.18351e-09 0.333333 1.89956e-11 2.718 ||| ||| 1 3
' on passe ||| debated will make it possible ||| 0.333333 1.86206e-07 0.0833333 8.04387e-13 2.718 ||| ||| 3 12
' on passe ||| debated will make it ||| 0.333333 1.86206e-07 0.0833333 6.42687e-10 2.718 ||| ||| 3 12
' on passe ||| debated will make ||| 0.333333 1.86206e-07 0.0833333 4.66825e-08 2.718 ||| ||| 3 12
' on passe ||| debated will ||| 0.333333 1.86206e-07 0.0833333 1.24331e-05 2.718 ||| ||| 3 12
' on passe ||| properly debated will make it possible ||| 0.333333 1.86206e-07 0.0833333 1.51008e-15 2.718 ||| ||| 3 12
' on passe ||| properly debated will make it ||| 0.333333 1.86206e-07 0.0833333 1.20652e-12 2.718 ||| ||| 3 12
' on passe ||| properly debated will make ||| 0.333333 1.86206e-07 0.0833333 8.7637e-11 2.718 ||| ||| 3 12
' on passe ||| properly debated will ||| 0.333333 1.86206e-07 0.0833333 2.33406e-08 2.718 ||| ||| 3 12
' on passe ||| will make it possible ||| 0.333333 1.86206e-07 0.0833333 1.28537e-09 2.718 ||| ||| 3 12
' on passe ||| will make it ||| 0.333333 1.86206e-07 0.0833333 1.02698e-06 2.718 ||| ||| 3 12
' on passe ||| will make ||| 0.333333 1.86206e-07 0.0833333 7.45965e-05 2.718 ||| ||| 3 12
' on passe ||| will ||| 0.0526316 1.86206e-07 0.0833333 0.0198675 2.718 ||| ||| 19 12
' on prenne aussi ||| it necessary to also ||| 0.333333 1.3656e-07 0.25 3.61843e-06 2.718 ||| ||| 3 4
' on prenne aussi ||| it necessary to ||| 0.333333 1.3656e-07 0.25 0.000826032 2.718 ||| ||| 3 4
' on prenne aussi ||| necessary to also ||| 0.333333 1.3656e-07 0.25 0.00026283 2.718 ||| ||| 3 4
' on prenne aussi ||| necessary to ||| 0.166667 1.3656e-07 0.25 0.06 2.718 ||| ||| 6 4
' on prenne ||| it necessary ||| 0.25 2.14855e-05 0.5 0.0068836 2.718 ||| ||| 4 2
' on prenne ||| necessary ||| 0.0714286 2.14855e-05 0.5 0.5 2.718 ||| ||| 14 2
' on ||| debated will make it possible ||| 0.333333 0.000360096 0.0833333 8.04387e-13 2.718 ||| ||| 3 12
' on ||| debated will make it ||| 0.333333 0.000360096 0.0833333 6.42687e-10 2.718 ||| ||| 3 12
' on ||| debated will make ||| 0.333333 0.000360096 0.0833333 4.66825e-08 2.718 ||| ||| 3 12
' on ||| debated will ||| 0.333333 0.000360096 0.0833333 1.24331e-05 2.718 ||| ||| 3 12
' on ||| properly debated will make it possible ||| 0.333333 0.000360096 0.0833333 1.51008e-15 2.718 ||| ||| 3 12
' on ||| properly debated will make it ||| 0.333333 0.000360096 0.0833333 1.20652e-12 2.718 ||| ||| 3 12
' on ||| properly debated will make ||| 0.333333 0.000360096 0.0833333 8.7637e-11 2.718 ||| ||| 3 12
' on ||| properly debated will ||| 0.333333 0.000360096 0.0833333 2.33406e-08 2.718 ||| ||| 3 12
' on ||| will make it possible ||| 0.333333 0.000360096 0.0833333 1.28537e-09 2.718 ||| ||| 3 12
' on ||| will make it ||| 0.333333 0.000360096 0.0833333 1.02698e-06 2.718 ||| ||| 3 12
' on ||| will make ||| 0.333333 0.000360096 0.0833333 7.45965e-05 2.718 ||| ||| 3 12
' on ||| will ||| 0.0526316 0.000360096 0.0833333 0.0198675 2.718 ||| ||| 19 12
' ordre du jour . ||| agenda . ||| 0.2 0.000895287 1 0.305283 2.718 ||| ||| 5 1
' ordre du jour ||| agenda ||| 0.166667 0.0009146 1 0.311398 2.718 ||| ||| 6 1
' outil servant ||| tool used ||| 0.5 0.00439504 1 0.666667 2.718 ||| ||| 2 1
' outil servant à spécifier les priorités ||| tool used to specify priorities ||| 0.5 6.19932e-06 1 0.102837 2.718 ||| ||| 2 1
' outil servant à spécifier les ||| tool used to specify ||| 0.25 1.54983e-05 1 0.205674 2.718 ||| ||| 4 1
' outil servant à spécifier ||| tool used to specify ||| 0.25 0.000810102 1 0.205674 2.718 ||| ||| 4 1
' outil servant à ||| tool used to ||| 0.5 0.000810102 1 0.205674 2.718 ||| ||| 2 1
' outil ||| tool ||| 0.5 0.0351603 1 0.666667 2.718 ||| ||| 2 1
' une gestion trop complexe . ||| administrative processes . ||| 1 0.00402833 1 0.00447917 2.718 ||| ||| 1 1
' une gestion trop complexe ||| administrative processes ||| 1 0.00411522 1 0.00456889 2.718 ||| ||| 1 1
' une politique de concurrence efficace , ||| achieve an effective competition policy ||| 0.5 0.000111655 0.5 1.26392e-05 2.718 ||| ||| 2 2
' une politique de concurrence efficace , ||| an effective competition policy ||| 0.5 0.000111655 0.5 0.0201969 2.718 ||| ||| 2 2
' une ||| achieve an ||| 0.5 0.012916 0.333333 7.36236e-05 2.718 ||| ||| 2 3
' une ||| administrative ||| 1 0.111111 0.333333 0.0065792 2.718 ||| ||| 1 3
' une ||| an ||| 0.027027 0.012916 0.333333 0.117647 2.718 ||| ||| 37 3
' union . ||| european union . ||| 0.333333 0.0290804 0.5 0.00961515 2.718 ||| ||| 3 2
' union . ||| union . ||| 0.25 0.0222704 0.5 0.634352 2.718 ||| ||| 4 2
' union européenne . ||| sea . ||| 0.2 3.55915e-05 1 0.0297079 2.718 ||| ||| 5 1
' union européenne a déjà soutenu , ||| eu has already aided , ||| 1 0.00198971 1 0.0124854 2.718 ||| ||| 1 1
' union européenne a déjà soutenu ||| eu has already aided ||| 1 0.00280662 1 0.018525 2.718 ||| ||| 1 1
' union européenne a déjà ||| eu has already ||| 1 0.00280662 1 0.0370501 2.718 ||| ||| 1 1
' union européenne a ||| eu has ||| 1 0.00436586 0.5 0.0494001 2.718 ||| ||| 1 2
' union européenne a ||| union have had their effect ||| 1 0.000692041 0.5 1.0543e-09 2.718 ||| ||| 1 2
' union européenne mérite un ||| eu really deserves such a ||| 1 0.00182444 1 0.00228552 2.718 ||| ||| 1 1
' union européenne mérite ||| eu really deserves such ||| 1 0.00617268 1 0.00491387 2.718 ||| ||| 1 1
' union européenne peut-elle faire ||| union respond ||| 0.5 1.98459e-06 1 0.242511 2.718 ||| ||| 2 1
' union européenne peut-elle ||| union respond ||| 0.5 0.000479776 1 0.242511 2.718 ||| ||| 2 1
' union européenne ||| eu ||| 0.285714 0.00885646 0.333333 0.132675 2.718 ||| ||| 7 6
' union européenne ||| sea ||| 0.2 3.63593e-05 0.166667 0.030303 2.718 ||| ||| 5 6
' union européenne ||| union have had their ||| 1 0.00346021 0.166667 9.9104e-08 2.718 ||| ||| 1 6
' union européenne ||| union have had ||| 1 0.00346021 0.166667 2.63947e-05 2.718 ||| ||| 1 6
' union européenne ||| union ||| 0.04 0.00335844 0.166667 0.242511 2.718 ||| ||| 25 6
' union ||| european union ||| 0.1 0.0297077 0.333333 0.00980775 2.718 ||| ||| 10 3
' union ||| union ||| 0.08 0.0570934 0.666667 0.333463 2.718 ||| ||| 25 3
' utilisation optimale , j ||| optimum utilisation , i ||| 0.5 0.000581372 1 0.119817 2.718 ||| ||| 2 1
' utilisation optimale , ||| optimum utilisation , ||| 0.5 0.0142436 1 0.224658 2.718 ||| ||| 2 1
' utilisation optimale ||| optimum utilisation ||| 0.5 0.0200916 1 0.333333 2.718 ||| ||| 2 1
' utilisation ||| utilisation ||| 0.5 0.0351603 1 0.333333 2.718 ||| ||| 2 1
' y ai couru pour la première ||| drove through those countries for the first ||| 0.25 3.2885e-09 1 0.000344457 2.718 ||| ||| 4 1
' y ai couru pour la ||| drove through those countries for the ||| 0.25 1.3154e-08 1 0.000602801 2.718 ||| ||| 4 1
' y ai couru pour ||| drove through those countries for ||| 0.25 4.67262e-08 1 0.00104365 2.718 ||| ||| 4 1
' y ai couru ||| drove through those countries ||| 0.25 1.9358e-07 1 0.00390625 2.718 ||| ||| 4 1
' ||| applied ||| 0.333333 0.25 0.0285714 0.0066225 2.718 ||| ||| 3 35
' ||| belatedly ||| 1 1 0.0285714 0.0066225 2.718 ||| ||| 1 35
' ||| debated will make it possible ||| 0.333333 0.0535714 0.0285714 8.04387e-13 2.718 ||| ||| 3 35
' ||| debated will make it ||| 0.333333 0.0535714 0.0285714 6.42687e-10 2.718 ||| ||| 3 35
' ||| debated will make ||| 0.333333 0.0535714 0.0285714 4.66825e-08 2.718 ||| ||| 3 35
' ||| debated will ||| 0.333333 0.0535714 0.0285714 1.24331e-05 2.718 ||| ||| 3 35
' ||| differences ||| 0.125 0.25 0.0285714 0.0066225 2.718 ||| ||| 8 35
' ||| entrepreneurial ||| 0.5 0.5 0.0285714 0.0066225 2.718 ||| ||| 2 35
' ||| firstly , ||| 0.333333 0.230769 0.0285714 0.00171572 2.718 ||| ||| 3 35
' ||| firstly ||| 0.166667 0.230769 0.0285714 0.0198675 2.718 ||| ||| 6 35
' ||| had their ||| 1 0.0909091 0.0285714 2.48655e-05 2.718 ||| ||| 1 35
' ||| had ||| 0.25 0.0909091 0.0285714 0.0066225 2.718 ||| ||| 4 35
' ||| have had their ||| 1 0.0909091 0.0285714 2.80087e-07 2.718 ||| ||| 1 35
' ||| have had ||| 1 0.0909091 0.0285714 7.45965e-05 2.718 ||| ||| 1 35
' ||| he so ||| 1 0.4 0.0285714 4.14423e-05 2.718 ||| ||| 1 35
' ||| he ||| 0.25 0.4 0.0285714 0.013245 2.718 ||| ||| 4 35
' ||| if he so ||| 1 0.4 0.0285714 5.18692e-08 2.718 ||| ||| 1 35
' ||| if he ||| 1 0.4 0.0285714 1.65774e-05 2.718 ||| ||| 1 35
' ||| in ||| 0.0103093 0.012987 0.0857143 0.0264901 2.718 ||| ||| 291 35
' ||| made more entrepreneurial ||| 1 0.5 0.0285714 4.14958e-08 2.718 ||| ||| 1 35
' ||| more entrepreneurial ||| 1 0.5 0.0285714 3.31542e-05 2.718 ||| ||| 1 35
' ||| properly debated will make it possible ||| 0.333333 0.0535714 0.0285714 1.51008e-15 2.718 ||| ||| 3 35
' ||| properly debated will make it ||| 0.333333 0.0535714 0.0285714 1.20652e-12 2.718 ||| ||| 3 35
' ||| properly debated will make ||| 0.333333 0.0535714 0.0285714 8.7637e-11 2.718 ||| ||| 3 35
' ||| properly debated will ||| 0.333333 0.0535714 0.0285714 2.33406e-08 2.718 ||| ||| 3 35
' ||| quite rightly ||| 1 0.0769231 0.0285714 8.28872e-06 2.718 ||| ||| 1 35
' ||| quite ||| 0.2 0.0769231 0.0285714 0.0066225 2.718 ||| ||| 5 35
' ||| support ||| 0.166667 0.111111 0.0285714 0.0066225 2.718 ||| ||| 6 35
' ||| will make it possible ||| 0.333333 0.0535714 0.0285714 1.28537e-09 2.718 ||| ||| 3 35
' ||| will make it ||| 0.333333 0.0535714 0.0285714 1.02698e-06 2.718 ||| ||| 3 35
' ||| will make ||| 0.333333 0.0535714 0.0285714 7.45965e-05 2.718 ||| ||| 3 35
' ||| will ||| 0.105263 0.0535714 0.0571429 0.0198675 2.718 ||| ||| 19 35
' échelle planétaire ||| less developed ||| 0.5 0.00351603 1 1 2.718 ||| ||| 2 1
' échelle ||| less ||| 0.333333 0.00703206 1 1 2.718 ||| ||| 3 1
' économie de marché ? ||| market economy ? ||| 0.5 0.00314775 1 0.686929 2.718 ||| ||| 2 1
' économie de marché ||| market economy ||| 0.2 0.00330514 1 0.789969 2.718 ||| ||| 5 1
' économie de ||| economy ||| 0.0769231 0.00330514 1 0.818182 2.718 ||| ||| 13 1
' économie ||| economy ||| 0.0769231 0.0316443 1 0.818182 2.718 ||| ||| 13 1
' élargissement sur les fonds structurels ||| union enlargement will be on structural funds ||| 0.5 3.143e-05 1 0.00048229 2.718 ||| ||| 2 1
' élargissement sur les ||| union enlargement will be on ||| 0.25 4.91094e-05 1 0.000622958 2.718 ||| ||| 4 1
' élargissement sur ||| union enlargement will be on ||| 0.25 0.00256696 1 0.000622958 2.718 ||| ||| 4 1
' élargissement ||| union enlargement will be ||| 0.5 0.00966387 1 0.00175894 2.718 ||| ||| 2 1
' était pour nous , nouveaux députés ||| us new members ||| 0.5 2.94487e-10 1 0.0333333 2.718 ||| ||| 2 1
' était pour nous , nouveaux ||| us new ||| 0.5 1.0307e-09 1 0.0833334 2.718 ||| ||| 2 1
' était pour nous , ||| us ||| 0.0238095 5.66888e-09 1 0.166667 2.718 ||| ||| 42 1
' était pour nous ||| us ||| 0.0238095 6.41147e-08 1 0.166667 2.718 ||| ||| 42 1
' était pour ||| us ||| 0.0238095 6.5262e-06 1 0.166667 2.718 ||| ||| 42 1
' était ||| us ||| 0.0238095 0.000901545 1 0.166667 2.718 ||| ||| 42 1
' étant comptées , ||| time is ||| 0.125 2.67909e-07 0.5 0.0250313 2.718 ||| ||| 8 2
' étant comptées , ||| time ||| 0.037037 2.67909e-07 0.5 1 2.718 ||| ||| 27 2
' étant comptées ||| time is ||| 0.125 3.03004e-06 0.5 0.0250313 2.718 ||| ||| 8 2
' étant comptées ||| time ||| 0.037037 3.03004e-06 0.5 1 2.718 ||| ||| 27 2
' état , les fonds structurels , ||| , the structural funds and ||| 0.2 2.43177e-07 1 0.00458946 2.718 ||| ||| 5 1
' état , les fonds structurels ||| , the structural funds ||| 0.2 5.15536e-06 1 0.223354 2.718 ||| ||| 5 1
' état , les ||| , the ||| 0.0208333 8.05525e-06 1 0.288499 2.718 ||| ||| 48 1
' état , ||| , ||| 0.00144509 6.4442e-05 1 0.673973 2.718 ||| ||| 692 1
' état aux entreprises ou les accords ||| business or inter-company ||| 0.2 4.43776e-11 0.5 0.000462774 2.718 ||| ||| 5 2
' état aux entreprises ou les accords ||| or inter-company ||| 0.2 4.43776e-11 0.5 0.369746 2.718 ||| ||| 5 2
' état aux entreprises ou ||| business or ||| 0.2 1.77511e-10 0.5 0.000922232 2.718 ||| ||| 5 2
' état aux entreprises ou ||| or ||| 0.0454545 1.77511e-10 0.5 0.736842 2.718 ||| ||| 22 2
' évaluation à mi-parcours des programmes et ||| mid-term appraisal of the programmes and ||| 1 0.000863803 1 0.0010186 2.718 ||| ||| 1 1
' évaluation à mi-parcours des programmes ||| mid-term appraisal of the programmes ||| 1 0.00108573 1 0.00118367 2.718 ||| ||| 1 1
' évaluation à mi-parcours des ||| mid-term appraisal of the ||| 1 0.00195431 1 0.00130204 2.718 ||| ||| 1 1
' évaluation à mi-parcours ||| mid-term appraisal ||| 1 0.0162963 1 0.0366353 2.718 ||| ||| 1 1
' évolution à l ' ||| the ||| 0.00105152 5.78444e-10 1 0.447368 2.718 ||| ||| 951 1
' évolution à l ' échelle planétaire ||| the less developed ||| 0.25 5.78444e-11 1 0.447368 2.718 ||| ||| 4 1
' évolution à l ' échelle ||| the less ||| 0.25 1.15689e-10 1 0.447368 2.718 ||| ||| 4 1
' évolution à l ||| the ||| 0.00105152 1.64516e-08 1 0.447368 2.718 ||| ||| 951 1
' évoque aussi ||| am referring both to the national and ||| 1 0.00865874 0.25 2.17894e-10 2.718 ||| ||| 1 4
' évoque aussi ||| am referring both to the national ||| 1 0.00865874 0.25 3.16541e-08 2.718 ||| ||| 1 4
' évoque aussi ||| am referring both to the ||| 1 0.00865874 0.25 5.05818e-05 2.718 ||| ||| 1 4
' évoque aussi ||| am referring both to ||| 1 0.00865874 0.25 0.000741556 2.718 ||| ||| 1 4
( applaudissements du groupe pse ) ||| ( applause from the pse group ) ||| 1 0.0155667 1 0.0325939 2.718 ||| ||| 1 1
( applaudissements du groupe pse ||| ( applause from the pse group ||| 1 0.0200143 1 0.0325939 2.718 ||| ||| 1 1
( applaudissements du ||| ( applause from the ||| 1 0.0200143 1 0.0325939 2.718 ||| ||| 1 1
( la séance est levée ||| ( the sitting was ||| 1 0.000431862 1 0.239753 2.718 ||| ||| 1 1
( la séance ||| ( the sitting ||| 1 0.109477 1 0.462069 2.718 ||| ||| 1 1
( la ||| ( the ||| 0.2 0.218954 1 0.577586 2.718 ||| ||| 5 1
( le parlement , debout , observe ||| ( the house rose and observed ||| 1 4.00587e-05 1 0.00507084 2.718 ||| ||| 1 1
( le parlement , debout , ||| ( the house rose and ||| 1 0.000160235 1 0.00507084 2.718 ||| ||| 1 1
( le parlement adopte ||| ( the order ||| 1 1.4616e-05 1 0.466307 2.718 ||| ||| 1 1
( le parlement rejette la demande ) ||| ( parliament rejected the request ) ||| 1 0.0180397 1 0.0469064 2.718 ||| ||| 1 1
( le parlement rejette la demande avec ||| ( parliament rejected the request , with ||| 1 0.00443413 1 0.00195036 2.718 ||| ||| 1 1
( le parlement rejette la demande ||| ( parliament rejected the request , ||| 1 0.0231939 0.333333 0.00405074 2.718 ||| ||| 1 3
( le parlement rejette la demande ||| ( parliament rejected the request ||| 1 0.0231939 0.666667 0.0469064 2.718 ||| ||| 2 3
( le parlement rejette la ||| ( parliament rejected the ||| 1 0.0347908 1 0.226714 2.718 ||| ||| 2 2
( le parlement rejette ||| ( parliament rejected ||| 1 0.123585 1 0.39252 2.718 ||| ||| 2 2
( le parlement ||| ( parliament ||| 1 0.123585 0.5 0.39252 2.718 ||| ||| 2 4
( le parlement ||| ( the house ||| 1 0.0605742 0.25 0.0777179 2.718 ||| ||| 1 4
( le parlement ||| ( the ||| 0.2 0.00014616 0.25 0.466307 2.718 ||| ||| 5 4
( le procès-verbal est adopté ) ||| ( the minutes were approved ) ||| 1 0.0157044 1 0.0215957 2.718 ||| ||| 1 1
( le procès-verbal est adopté ||| ( the minutes were approved ||| 1 0.0201914 1 0.0215957 2.718 ||| ||| 1 1
( le procès-verbal ||| ( the minutes ||| 1 0.14134 1 0.381524 2.718 ||| ||| 1 1
( le ||| ( the ||| 0.6 0.14134 1 0.466307 2.718 ||| ||| 5 3
( ||| ( ||| 1 0.777778 1 1 2.718 ||| ||| 7 7
) la présidente . ||| ) president . ||| 1 0.0259071 1 0.510253 2.718 ||| ||| 1 1
) la présidente ||| ) president ||| 1 0.026466 1 0.520474 2.718 ||| ||| 1 1
) ||| ) ||| 1 0.777778 1 1 2.718 ||| ||| 7 7
, 166 voix contre et 7 abstentions ||| , 166 votes against and 7 abstentions ||| 1 0.250678 1 0.331419 2.718 ||| ||| 1 1
, 166 voix contre et 7 ||| , 166 votes against and 7 ||| 1 0.250678 1 0.331419 2.718 ||| ||| 1 1
, 166 voix contre et ||| , 166 votes against and ||| 1 0.250678 1 0.331419 2.718 ||| ||| 1 1
, 166 voix contre ||| , 166 votes against ||| 1 0.315082 1 0.385127 2.718 ||| ||| 1 1
, 166 voix ||| , 166 votes ||| 1 0.472622 1 0.673973 2.718 ||| ||| 1 1
, 166 ||| , 166 ||| 1 0.708934 1 0.673973 2.718 ||| ||| 1 1
, 1993 , 1994 et 1999 ont ||| , 1993 , 1994 and 1999 have ||| 1 0.0449277 1 0.0396175 2.718 ||| ||| 1 1
, 1993 , 1994 et 1999 ||| , 1993 , 1994 and 1999 ||| 1 0.266571 1 0.0977232 2.718 ||| ||| 1 1
, 1993 , 1994 et ||| , 1993 , 1994 and ||| 1 0.399857 1 0.195446 2.718 ||| ||| 1 1
, 1993 , 1994 ||| , 1993 , 1994 ||| 1 0.502587 1 0.22712 2.718 ||| ||| 1 1
, 1993 , ||| , 1993 , ||| 1 0.502587 1 0.454239 2.718 ||| ||| 1 1
, 1993 ||| , 1993 ||| 1 0.708934 1 0.673973 2.718 ||| ||| 1 1
, 1994 et 1999 ont ||| , 1994 and 1999 have ||| 1 0.0633737 1 0.0587821 2.718 ||| ||| 1 1
, 1994 et 1999 ||| , 1994 and 1999 ||| 1 0.376017 1 0.144996 2.718 ||| ||| 1 1
, 1994 et ||| , 1994 and ||| 1 0.564026 1 0.289992 2.718 ||| ||| 1 1
, 1994 ||| , 1994 ||| 1 0.708934 1 0.336986 2.718 ||| ||| 1 1
, 95 / 35 / ce , ||| , 95 / 35 / ec , ||| 1 0.18149 1 0.0140726 2.718 ||| ||| 1 1
, 95 / 35 / ce ||| , 95 / 35 / ec ||| 1 0.256004 1 0.0208801 2.718 ||| ||| 1 1
, 95 ||| , 95 ||| 1 0.708934 1 0.673973 2.718 ||| ||| 1 1
, a coupé cette importante ||| , cut off this important ||| 1 0.00149418 1 0.0200571 2.718 ||| ||| 1 1
, a été ||| , was ||| 1 0.0261014 1 0.086365 2.718 ||| ||| 1 1
, a été élaboré par le cern ||| , was developed by cern ||| 1 0.00139065 1 0.0156357 2.718 ||| ||| 1 1
, a été élaboré par ||| , was developed by ||| 1 0.0055626 1 0.0311874 2.718 ||| ||| 1 1
, a été élaboré ||| , was developed ||| 1 0.0130507 1 0.086365 2.718 ||| ||| 1 1
, accentuent l' exode rural ||| , exacerbates the exodus from rural areas ||| 1 0.0111011 1 0.00809313 2.718 ||| ||| 1 1
, accentuent l' ||| , exacerbates the ||| 1 0.0618083 1 0.218515 2.718 ||| ||| 1 1
, accentuent ||| , exacerbates ||| 1 0.708934 1 0.673973 2.718 ||| ||| 1 1
, ainsi que sur la réforme administrative ||| on the administrative reform ||| 0.25 9.86101e-09 1 0.0664826 2.718 ||| ||| 4 1
, ainsi que sur la ||| on the ||| 0.030303 7.24784e-08 1 0.204562 2.718 ||| ||| 33 1
, ainsi que sur ||| on ||| 0.0131579 2.57461e-07 1 0.354167 2.718 ||| ||| 76 1
, ajouté aux déficiences des ||| , as well as the deficiencies in ||| 1 4.74459e-05 1 2.31831e-08 2.718 ||| ||| 1 1
, ajouté ||| , as well as ||| 0.25 0.00796558 0.333333 3.03519e-05 2.718 ||| ||| 4 3
, ajouté ||| , as well ||| 0.25 0.00796558 0.333333 0.00210879 2.718 ||| ||| 4 3
, ajouté ||| , as ||| 0.0277778 0.00796558 0.333333 0.673973 2.718 ||| ||| 36 3
, alors qu' on en a désespérément ||| , yet desperately ||| 1 2.27924e-05 1 0.0393261 2.718 ||| ||| 1 1
, alors que de nombreuses ||| , whereas many ||| 1 0.00311543 1 0.0325653 2.718 ||| ||| 1 1
, alors ||| , whereas ||| 1 0.708934 1 0.0962818 2.718 ||| ||| 1 1
, amendements ||| have tabled some amendments ||| 1 0.048583 0.25 1.78274e-08 2.718 ||| ||| 1 4
, amendements ||| i have tabled some amendments ||| 1 0.048583 0.25 1.00404e-10 2.718 ||| ||| 1 4
, amendements ||| some amendments ||| 1 0.048583 0.25 0.00126452 2.718 ||| ||| 1 4
, amendements ||| tabled some amendments ||| 1 0.048583 0.25 1.58268e-06 2.718 ||| ||| 1 4
, astucieuses , dirais-je . ||| thought-out and sensible guidelines . ||| 1 0.00213004 0.5 0.0050361 2.718 ||| ||| 1 2
, astucieuses , dirais-je . ||| well thought-out and sensible guidelines . ||| 1 0.00213004 0.5 1.57574e-05 2.718 ||| ||| 1 2
, astucieuses , dirais-je ||| thought-out and sensible guidelines ||| 1 0.00217599 0.5 0.00513698 2.718 ||| ||| 1 2
, astucieuses , dirais-je ||| well thought-out and sensible guidelines ||| 1 0.00217599 0.5 1.60731e-05 2.718 ||| ||| 1 2
, astucieuses , ||| thought-out and ||| 0.5 0.00417065 0.5 0.0205479 2.718 ||| ||| 2 2
, astucieuses , ||| well thought-out and ||| 0.5 0.00417065 0.5 6.42923e-05 2.718 ||| ||| 2 2
, astucieuses ||| thought-out and ||| 0.5 0.0471698 0.5 0.0205479 2.718 ||| ||| 2 2
, astucieuses ||| well thought-out and ||| 0.5 0.0471698 0.5 6.42923e-05 2.718 ||| ||| 2 2
, au cours des années ||| over the past few ||| 1 1.24145e-05 1 0.000170786 2.718 ||| ||| 1 1
, au cours des années écoulées , ||| over the past few years that ||| 0.5 2.74415e-07 0.5 2.77875e-06 2.718 ||| ||| 2 2
, au cours des années écoulées , ||| over the past few years ||| 0.5 2.74415e-07 0.5 0.000170786 2.718 ||| ||| 2 2
, au cours des années écoulées ||| over the past few years that ||| 0.5 3.10362e-06 0.5 2.77875e-06 2.718 ||| ||| 2 2
, au cours des années écoulées ||| over the past few years ||| 0.5 3.10362e-06 0.5 0.000170786 2.718 ||| ||| 2 2
, au cours des ||| over the past ||| 0.5 9.31087e-05 1 0.00025618 2.718 ||| ||| 2 1
, au cours ||| , during ||| 1 0.157541 0.5 0.0993453 2.718 ||| ||| 1 2
, au cours ||| over the past ||| 0.5 0.00360144 0.5 0.00025618 2.718 ||| ||| 2 2
, au pays ||| people within ||| 0.166667 2.93901e-05 0.5 0.000102401 2.718 ||| ||| 6 2
, au pays ||| within ||| 0.0833333 2.93901e-05 0.5 0.0272727 2.718 ||| ||| 12 2
, au sein ||| of the ||| 0.00719424 3.45754e-06 0.5 0.00942087 2.718 ||| ||| 139 2
, au sein ||| the ||| 0.00105152 3.45754e-06 0.5 0.327273 2.718 ||| ||| 951 2
, au ||| of the ||| 0.00719424 0.00334353 0.2 0.00942087 2.718 ||| ||| 139 5
, au ||| over the ||| 1 0.0108043 0.2 0.000896629 2.718 ||| ||| 1 5
, au ||| people within ||| 0.166667 0.00947334 0.2 0.000102401 2.718 ||| ||| 6 5
, au ||| the ||| 0.00105152 0.00334353 0.2 0.327273 2.718 ||| ||| 951 5
, au ||| within ||| 0.0833333 0.00947334 0.2 0.0272727 2.718 ||| ||| 12 5
, auquel les gouvernements régionaux ||| by the regional governments ||| 0.5 4.83156e-06 1 0.0475619 2.718 ||| ||| 2 1
, auquel les ||| by the ||| 0.0625 0.000181184 1 0.142686 2.718 ||| ||| 16 1
, auquel ||| by ||| 0.0178571 0.00144947 1 0.333333 2.718 ||| ||| 56 1
, autrement dit si on y ||| , in other words , if ||| 0.333333 7.24634e-10 0.5 0.00126804 2.718 ||| ||| 3 2
, autrement dit si on y ||| to , in other words , if ||| 0.333333 7.24634e-10 0.5 0.000104744 2.718 ||| ||| 3 2
, autrement dit si on ||| , in other words , if ||| 0.333333 1.75181e-07 0.5 0.00126804 2.718 ||| ||| 3 2
, autrement dit si on ||| to , in other words , if ||| 0.333333 1.75181e-07 0.5 0.000104744 2.718 ||| ||| 3 2
, autrement dit si ||| , in other words , if ||| 0.333333 2.60615e-05 0.5 0.00126804 2.718 ||| ||| 3 2
, autrement dit si ||| to , in other words , if ||| 0.333333 2.60615e-05 0.5 0.000104744 2.718 ||| ||| 3 2
, autrement dit ||| , in other words , ||| 0.5 3.90923e-05 0.25 0.00215566 2.718 ||| ||| 2 4
, autrement dit ||| , in other words ||| 0.5 3.90923e-05 0.25 0.0249619 2.718 ||| ||| 2 4
, autrement dit ||| to , in other words , ||| 0.5 3.90923e-05 0.25 0.000178065 2.718 ||| ||| 2 4
, autrement dit ||| to , in other words ||| 0.5 3.90923e-05 0.25 0.00206194 2.718 ||| ||| 2 4
, autrement ||| , in other words , ||| 0.5 0.0755992 0.25 0.00215566 2.718 ||| ||| 2 4
, autrement ||| , in other words ||| 0.5 0.0755992 0.25 0.0249619 2.718 ||| ||| 2 4
, autrement ||| to , in other words , ||| 0.5 0.0755992 0.25 0.000178065 2.718 ||| ||| 2 4
, autrement ||| to , in other words ||| 0.5 0.0755992 0.25 0.00206194 2.718 ||| ||| 2 4
, avançant que des réponses avaient déjà ||| grounds that they had ||| 0.25 2.0892e-09 1 0.469388 2.718 ||| ||| 4 1
, avançant que des réponses avaient ||| grounds that they had ||| 0.25 4.04022e-06 1 0.469388 2.718 ||| ||| 4 1
, avançant que des réponses ||| grounds that they ||| 0.5 4.44424e-05 1 0.469388 2.718 ||| ||| 2 1
, avançant que des ||| grounds that ||| 0.25 0.00124439 1 0.469388 2.718 ||| ||| 4 1
, avançant que ||| grounds that ||| 0.25 0.0481328 1 0.469388 2.718 ||| ||| 4 1
, avançant ||| grounds ||| 0.5 0.0884178 1 1 2.718 ||| ||| 2 1
, avec des ||| , ||| 0.00144509 2.84307e-05 1 0.673973 2.718 ||| ||| 692 1
, avec un ||| , with ||| 0.333333 0.00112125 1 0.324505 2.718 ||| ||| 3 1
, avec ||| , with ||| 0.333333 0.135531 0.5 0.324505 2.718 ||| ||| 3 2
, avec ||| , ||| 0.00144509 0.0010997 0.5 0.673973 2.718 ||| ||| 692 2
, bien loin de s' atténuer , ||| it ||| 0.01 4.83797e-14 1 1 2.718 ||| ||| 100 1
, bien loin de s' atténuer ||| it ||| 0.01 5.47171e-13 1 1 2.718 ||| ||| 100 1
, bref , notre personnalité propre qui ||| , in short , our own ||| 0.5 1.93437e-05 1 0.0317141 2.718 ||| ||| 2 1
, bref , notre personnalité propre ||| , in short , our own ||| 0.5 0.00162655 1 0.0317141 2.718 ||| ||| 2 1
, bref , notre ||| , in short , our ||| 1 0.0780742 1 0.0396427 2.718 ||| ||| 1 1
, bref , ||| , in short , ||| 1 0.169161 1 0.0726783 2.718 ||| ||| 1 1
, bref de ||| , ||| 0.00144509 3.82891e-05 1 0.673973 2.718 ||| ||| 692 1
, bref ||| , in short ||| 1 0.238613 0.5 0.107836 2.718 ||| ||| 1 2
, bref ||| , ||| 0.00144509 0.00036659 0.5 0.673973 2.718 ||| ||| 692 2
, c' est apparemment un péché contre ||| is , apparently , a sin against ||| 1 0.000109629 1 0.02732 2.718 ||| ||| 1 1
, c' est apparemment un péché ||| is , apparently , a sin ||| 1 0.000164443 1 0.04781 2.718 ||| ||| 1 1
, c' est apparemment un ||| is , apparently , a ||| 1 0.000164443 1 0.04781 2.718 ||| ||| 1 1
, c' est apparemment ||| is , apparently , ||| 1 0.000556367 1 0.102791 2.718 ||| ||| 1 1
, c' est dommage . ||| , in a sense . ||| 0.333333 0.00192619 0.5 0.00899093 2.718 ||| ||| 3 2
, c' est dommage . ||| pity , in a sense . ||| 0.333333 0.00192619 0.5 5.62653e-06 2.718 ||| ||| 3 2
, c' est dommage ||| , in a sense ||| 0.333333 0.00196774 0.5 0.00917103 2.718 ||| ||| 3 2
, c' est dommage ||| pity , in a sense ||| 0.333333 0.00196774 0.5 5.73923e-06 2.718 ||| ||| 3 2
, c' est une motion de procédure ||| , on a point of order ||| 1 3.02304e-07 1 0.00083799 2.718 ||| ||| 2 2
, c' est une motion de ||| , on a point of ||| 1 1.51152e-06 1 0.00377096 2.718 ||| ||| 2 2
, c' est une motion ||| , on a point ||| 1 3.84524e-06 1 0.0129704 2.718 ||| ||| 2 2
, c' est une ||| , on a ||| 1 4.0375e-05 1 0.0129704 2.718 ||| ||| 2 2
, c' est ||| , on ||| 0.333333 0.000154644 0.5 0.037443 2.718 ||| ||| 6 4
, c' est ||| is , ||| 0.333333 0.00111113 0.25 0.411166 2.718 ||| ||| 3 4
, c' est ||| reason ||| 0.0526316 0.000246875 0.25 0.0277778 2.718 ||| ||| 19 4
, c' est-à-dire jeudi avant ||| , i.e. on thursday prior ||| 1 0.0611548 1 0.0282732 2.718 ||| ||| 1 1
, c' est-à-dire jeudi ||| , i.e. on thursday ||| 1 0.0611548 1 0.0848197 2.718 ||| ||| 1 1
, c' est-à-dire ||| , i.e. ||| 1 0.177233 1 0.346347 2.718 ||| ||| 1 1
, c' ||| , on ||| 0.333333 0.0110771 0.5 0.037443 2.718 ||| ||| 6 4
, c' ||| , ||| 0.00144509 0.00256591 0.25 0.673973 2.718 ||| ||| 692 4
, c' ||| reason ||| 0.0526316 0.0176836 0.25 0.0277778 2.718 ||| ||| 19 4
, car c' est là ||| , because this is our ||| 1 0.000196791 1 0.0114213 2.718 ||| ||| 1 1
, car c' est ||| , because this is ||| 1 0.00767484 1 0.0685276 2.718 ||| ||| 1 1
, car c' ||| , because this ||| 1 0.0177233 1 0.112329 2.718 ||| ||| 1 1
, car c' était la fin ||| , as we had reached the end ||| 1 9.12545e-05 1 5.48513e-09 2.718 ||| ||| 1 1
, car c' était la ||| , as we had reached the ||| 1 0.000273764 1 7.31351e-09 2.718 ||| ||| 1 1
, car c' était ||| , as we had reached ||| 1 0.000972474 1 1.26622e-08 2.718 ||| ||| 1 1
, car ce fut un travail difficile ||| , which is a meticulous ||| 1 2.31933e-11 1 0.0783689 2.718 ||| ||| 1 1
, car ce fut un travail ||| , which is a ||| 0.5 2.31933e-11 1 0.0783689 2.718 ||| ||| 2 1
, car ce fut un ||| , which is a ||| 0.5 1.49519e-08 1 0.0783689 2.718 ||| ||| 2 1
, car ce fut ||| , which is ||| 0.333333 5.05871e-08 1 0.168493 2.718 ||| ||| 3 1
, car ce ||| , ||| 0.00144509 6.4441e-06 1 0.673973 2.718 ||| ||| 692 1
, car une europe dont les ||| because a europe which totally disregards the ||| 0.5 0.000407021 1 8.11475e-07 2.718 ||| ||| 2 1
, car une europe dont ||| because a europe which totally disregards ||| 0.5 0.00325616 1 1.89571e-06 2.718 ||| ||| 2 1
, car une europe ||| because a europe ||| 0.5 0.00603747 1 0.140212 2.718 ||| ||| 2 1
, car une ||| because a ||| 0.5 0.00923378 1 0.173203 2.718 ||| ||| 2 1
, car ||| , because ||| 1 0.283573 0.4 0.336986 2.718 ||| ||| 2 5
, car ||| , ||| 0.00289017 0.000733108 0.4 0.673973 2.718 ||| ||| 692 5
, car ||| because ||| 0.0666667 0.0353671 0.2 0.5 2.718 ||| ||| 15 5
, car à l' article 158 , ||| , as article 158 , ||| 1 1.18362e-06 1 0.0118291 2.718 ||| ||| 1 1
, car à l' article 158 ||| , as article 158 ||| 1 1.66958e-06 1 0.0175514 2.718 ||| ||| 1 1
, car à l' article ||| , as article ||| 1 1.66958e-06 1 0.0175514 2.718 ||| ||| 1 1
, car à l' ||| , as ||| 0.0277778 1.66958e-06 1 0.0210616 2.718 ||| ||| 36 1
, car à ||| , ||| 0.00144509 1.85741e-05 1 0.673973 2.718 ||| ||| 692 1
, ce n' est pas ||| not ||| 0.00970874 6.73231e-08 1 0.742857 2.718 ||| ||| 103 1
, ce que j' avais demandé n' ||| , my personal request ||| 0.5 1.47849e-11 0.5 4.68636e-05 2.718 ||| ||| 2 2
, ce que j' avais demandé n' ||| , my personal ||| 0.5 1.47849e-11 0.5 0.0748858 2.718 ||| ||| 2 2
, ce que j' avais demandé ||| , my personal request ||| 0.5 1.58856e-09 0.5 4.68636e-05 2.718 ||| ||| 2 2
, ce que j' avais demandé ||| , my personal ||| 0.5 1.58856e-09 0.5 0.0748858 2.718 ||| ||| 2 2
, ce que j' avais ||| , my ||| 1 4.76569e-09 1 0.224658 2.718 ||| ||| 1 1
, ce que j' ||| , ||| 0.00144509 2.04925e-07 1 0.673973 2.718 ||| ||| 692 1
, ce que nous faisons ||| what we are ||| 0.2 2.06112e-05 1 0.0146847 2.718 ||| ||| 5 1
, ce que nous ||| what we ||| 0.0714286 0.00230844 1 0.0293694 2.718 ||| ||| 14 1
, ce que ||| , ||| 0.00144509 0.000132107 0.5 0.673973 2.718 ||| ||| 692 2
, ce que ||| what ||| 0.0384615 0.00315778 0.5 0.043223 2.718 ||| ||| 26 2
, ce qui a une ||| , all of which has an ||| 1 0.000851282 1 2.74887e-06 2.718 ||| ||| 1 1
, ce qui a ||| , all of which has ||| 1 0.00231738 1 2.33654e-05 2.718 ||| ||| 1 1
, ce qui constitue des ||| , which is ||| 0.333333 4.46247e-06 1 0.10006 2.718 ||| ||| 3 1
, ce qui constitue des éléments très ||| , which is very important ||| 1 6.40546e-08 1 0.019577 2.718 ||| ||| 1 1
, ce qui constitue ||| , which is ||| 0.333333 0.000172608 1 0.10006 2.718 ||| ||| 3 1
, ce qui engendre ||| , which causes ||| 1 0.00966607 1 0.0833837 2.718 ||| ||| 1 1
, ce qui ||| , all of which ||| 1 0.00470097 0.333333 6.27527e-05 2.718 ||| ||| 1 3
, ce qui ||| , which ||| 0.125 0.00966607 0.666667 0.125075 2.718 ||| ||| 16 3
, ce rapport est devenu beaucoup trop ||| , the report grew too ||| 1 3.00884e-05 1 0.00126852 2.718 ||| ||| 1 1
, ce rapport est devenu beaucoup ||| , the report grew ||| 0.5 7.52209e-05 1 0.00253703 2.718 ||| ||| 2 1
, ce rapport ||| , the report ||| 0.142857 0.00203097 1 0.017995 2.718 ||| ||| 7 1
, ce sera le tour de ||| , it will be ||| 0.25 1.51619e-09 1 0.00149021 2.718 ||| ||| 4 1
, ce sera le tour ||| , it will be ||| 0.25 1.45164e-08 1 0.00149021 2.718 ||| ||| 4 1
, ce sera le ||| , it will be ||| 0.25 2.80727e-05 1 0.00149021 2.718 ||| ||| 4 1
, ce sera ||| , it will be ||| 0.25 0.000920214 1 0.00149021 2.718 ||| ||| 4 1
, ce sont elles qui sont le ||| , after all , they who ||| 0.333333 1.70173e-10 0.2 1.30246e-08 2.718 ||| ||| 3 5
, ce sont elles qui sont le ||| , they who ||| 0.333333 1.70173e-10 0.2 0.0320939 2.718 ||| ||| 3 5
, ce sont elles qui sont le ||| after all , they who ||| 0.333333 1.70173e-10 0.2 1.50822e-07 2.718 ||| ||| 3 5
, ce sont elles qui sont le ||| all , they who ||| 0.333333 1.70173e-10 0.2 0.000120503 2.718 ||| ||| 3 5
, ce sont elles qui sont le ||| is , after all , they who ||| 0.333333 1.70173e-10 0.2 3.26024e-10 2.718 ||| ||| 3 5
, ce sont elles qui sont ||| , after all , they who ||| 0.333333 5.57821e-09 0.2 1.30246e-08 2.718 ||| ||| 3 5
, ce sont elles qui sont ||| , they who ||| 0.333333 5.57821e-09 0.2 0.0320939 2.718 ||| ||| 3 5
, ce sont elles qui sont ||| after all , they who ||| 0.333333 5.57821e-09 0.2 1.50822e-07 2.718 ||| ||| 3 5
, ce sont elles qui sont ||| all , they who ||| 0.333333 5.57821e-09 0.2 0.000120503 2.718 ||| ||| 3 5
, ce sont elles qui sont ||| is , after all , they who ||| 0.333333 5.57821e-09 0.2 3.26024e-10 2.718 ||| ||| 3 5
, ce sont elles qui ||| , after all , they who ||| 0.333333 2.15766e-06 0.2 1.30246e-08 2.718 ||| ||| 3 5
, ce sont elles qui ||| , they who ||| 0.333333 2.15766e-06 0.2 0.0320939 2.718 ||| ||| 3 5
, ce sont elles qui ||| after all , they who ||| 0.333333 2.15766e-06 0.2 1.50822e-07 2.718 ||| ||| 3 5
, ce sont elles qui ||| all , they who ||| 0.333333 2.15766e-06 0.2 0.000120503 2.718 ||| ||| 3 5
, ce sont elles qui ||| is , after all , they who ||| 0.333333 2.15766e-06 0.2 3.26024e-10 2.718 ||| ||| 3 5
, ce sont elles ||| , after all , they ||| 1 2.87688e-06 0.2 1.13966e-07 2.718 ||| ||| 1 5
, ce sont elles ||| , they ||| 0.333333 2.87688e-06 0.2 0.280822 2.718 ||| ||| 3 5
, ce sont elles ||| after all , they ||| 1 2.87688e-06 0.2 1.31969e-06 2.718 ||| ||| 1 5
, ce sont elles ||| all , they ||| 1 2.87688e-06 0.2 0.0010544 2.718 ||| ||| 1 5
, ce sont elles ||| is , after all , they ||| 1 2.87688e-06 0.2 2.85271e-09 2.718 ||| ||| 1 5
, ce sont ||| , after all , ||| 0.333333 1.61106e-05 0.2 2.73517e-07 2.718 ||| ||| 3 5
, ce sont ||| , ||| 0.00144509 1.61106e-05 0.2 0.673973 2.718 ||| ||| 692 5
, ce sont ||| after all , ||| 0.333333 1.61106e-05 0.2 3.16726e-06 2.718 ||| ||| 3 5
, ce sont ||| all , ||| 0.0714286 1.61106e-05 0.2 0.00253056 2.718 ||| ||| 14 5
, ce sont ||| is , after all , ||| 0.333333 1.61106e-05 0.2 6.8465e-09 2.718 ||| ||| 3 5
, ce système augmente ||| , this change of system will ||| 1 0.0302774 0.5 2.81758e-05 2.718 ||| ||| 1 2
, ce système augmente ||| , this change of system ||| 1 0.0302774 0.5 0.00375208 2.718 ||| ||| 1 2
, ce système ||| , this change of ||| 1 0.0302774 0.5 0.00750415 2.718 ||| ||| 1 2
, ce système ||| , this change ||| 1 0.0302774 0.5 0.260688 2.718 ||| ||| 1 2
, ce ||| , after all , ||| 0.333333 0.0062316 0.0909091 2.73517e-07 2.718 ||| ||| 3 11
, ce ||| , all of ||| 1 0.0116218 0.0909091 0.000183029 2.718 ||| ||| 1 11
, ce ||| , all ||| 1 0.0116218 0.0909091 0.00635826 2.718 ||| ||| 1 11
, ce ||| , it ||| 0.0909091 0.0189893 0.0909091 0.0190747 2.718 ||| ||| 11 11
, ce ||| , the ||| 0.0208333 0.00223406 0.0909091 0.0190747 2.718 ||| ||| 48 11
, ce ||| , this ||| 0.166667 0.151387 0.0909091 0.260688 2.718 ||| ||| 6 11
, ce ||| , ||| 0.00289017 0.0062316 0.181818 0.673973 2.718 ||| ||| 692 11
, ce ||| after all , ||| 0.333333 0.0062316 0.0909091 3.16726e-06 2.718 ||| ||| 3 11
, ce ||| all , ||| 0.0714286 0.0062316 0.0909091 0.00253056 2.718 ||| ||| 14 11
, ce ||| is , after all , ||| 0.333333 0.0062316 0.0909091 6.8465e-09 2.718 ||| ||| 3 11
, cela ne permet que ||| , this only serves to prevent ||| 1 0.00627702 1 1.1835e-06 2.718 ||| ||| 1 1
, cela ne permet ||| , this only serves to ||| 1 0.00627702 0.5 0.000231968 2.718 ||| ||| 1 2
, cela ne permet ||| , this only serves ||| 1 0.00627702 0.5 0.00280822 2.718 ||| ||| 1 2
, cela ne ||| , this only ||| 1 0.00627702 1 0.00842465 2.718 ||| ||| 1 1
, cela ||| , this ||| 0.166667 0.0627702 1 0.358048 2.718 ||| ||| 6 1
, cette question ||| , this question ||| 1 0.0947707 1 0.144155 2.718 ||| ||| 1 1
, cette ||| , this ||| 0.166667 0.121848 1 0.411872 2.718 ||| ||| 6 1
, cher collègue . ||| , mr radwan . ||| 1 0.0165229 1 0.0220246 2.718 ||| ||| 1 1
, cher collègue ||| , mr radwan ||| 1 0.0168794 1 0.0224657 2.718 ||| ||| 1 1
, cher ||| , mr ||| 0.0555556 0.0168794 1 0.269589 2.718 ||| ||| 18 1
, chers collègues , aujourd' hui , ||| , today ||| 1 9.65935e-07 1 0.604971 2.718 ||| ||| 1 1
, chers collègues , j' interviens ||| , i am speaking ||| 1 1.08612e-07 1 0.110392 2.718 ||| ||| 1 1
, chers collègues , j' ||| , i ||| 0.015625 7.03389e-07 1 0.441568 2.718 ||| ||| 64 1
, chers collègues , je tiens ||| , i too would like ||| 0.5 4.30897e-07 1 0.00579285 2.718 ||| ||| 2 1
, chers collègues , je voudrais ||| , i would like to ||| 0.142857 2.47257e-06 0.5 0.00617953 2.718 ||| ||| 7 2
, chers collègues , je voudrais ||| , i would like ||| 0.1 2.47257e-06 0.5 0.0748098 2.718 ||| ||| 10 2
, chers collègues , je ||| , colleagues , ||| 0.5 0.000231 0.333333 0.0441621 2.718 ||| ||| 2 3
, chers collègues , je ||| , i ||| 0.03125 5.55307e-06 0.666667 0.635823 2.718 ||| ||| 64 3
, chers collègues , le ||| , ladies and gentlemen , the ||| 1 0.0228329 1 6.75023e-06 2.718 ||| ||| 1 1
, chers collègues , ||| , colleagues , ||| 0.5 0.111686 0.2 0.0441621 2.718 ||| ||| 2 5
, chers collègues , ||| , ladies and gentlemen , ||| 0.5 0.125647 0.2 1.44759e-05 2.718 ||| ||| 2 5
, chers collègues , ||| , ||| 0.00433526 7.25601e-06 0.6 0.673973 2.718 ||| ||| 692 5
, chers collègues ||| , colleagues ||| 1 0.157541 0.333333 0.0655251 2.718 ||| ||| 1 3
, chers collègues ||| , ladies and gentlemen ||| 0.5 0.177233 0.333333 2.14785e-05 2.718 ||| ||| 2 3
, chers collègues ||| , ||| 0.00144509 1.02351e-05 0.333333 0.673973 2.718 ||| ||| 692 3
, chers ||| , i would like to ||| 0.142857 0.00361698 0.142857 7.63057e-08 2.718 ||| ||| 7 7
, chers ||| , i would like ||| 0.1 0.00361698 0.142857 9.23761e-07 2.718 ||| ||| 10 7
, chers ||| , i would ||| 0.2 0.00361698 0.142857 0.00021088 2.718 ||| ||| 5 7
, chers ||| , i ||| 0.015625 0.00361698 0.142857 0.0561644 2.718 ||| ||| 64 7
, chers ||| , ladies and ||| 0.5 0.354467 0.142857 0.000386613 2.718 ||| ||| 2 7
, chers ||| , ladies ||| 0.5 0.354467 0.142857 0.0561644 2.718 ||| ||| 2 7
, chers ||| , ||| 0.00144509 0.0021994 0.142857 0.673973 2.718 ||| ||| 692 7
, climat trop chaud ou ||| , climates that are too cold or ||| 1 0.0146828 1 0.00144785 2.718 ||| ||| 1 1
, climat trop chaud ||| , climates that are too cold ||| 1 0.0241218 1 0.00196493 2.718 ||| ||| 1 1
, climat trop ||| , climates that are too ||| 1 0.0964871 1 0.00196493 2.718 ||| ||| 1 1
, climat ||| , climates that are ||| 1 0.241218 1 0.00392987 2.718 ||| ||| 1 1
, clé du ||| , which will be the key ||| 1 0.00288138 1 0.00055065 2.718 ||| ||| 1 1
, comme cela a ||| , as ||| 0.0277778 4.56167e-06 1 0.409198 2.718 ||| ||| 36 1
, comme cela a été le cas ||| , as was the case ||| 1 9.71674e-08 1 0.0154191 2.718 ||| ||| 1 1
, comme cela a été le ||| , as was the ||| 1 1.70043e-07 1 0.0346931 2.718 ||| ||| 1 1
, comme cela a été ||| , as was ||| 1 9.35728e-07 1 0.0743996 2.718 ||| ||| 1 1
, comme cela arrive bien souvent lorsque ||| , as so often when ||| 1 6.20621e-09 1 0.0247499 2.718 ||| ||| 1 1
, comme cela arrive bien souvent ||| , as so often ||| 1 4.34435e-08 1 0.0247499 2.718 ||| ||| 1 1
, comme cela arrive bien ||| , as so ||| 1 4.34435e-08 1 0.0395998 2.718 ||| ||| 1 1
, comme cela arrive ||| , as ||| 0.0277778 4.34435e-07 1 0.409198 2.718 ||| ||| 36 1
, comme cela ||| , as ||| 0.0555556 0.000420109 1 0.409198 2.718 ||| ||| 36 2
, comme le montre l' actualité . ||| as recent events have proved . ||| 0.5 4.99025e-06 1 0.00142611 2.718 ||| ||| 2 1
, comme le montre l' actualité ||| as recent events have proved ||| 0.5 5.0979e-06 1 0.00145467 2.718 ||| ||| 2 1
, comme ont tendance ||| absent , as ||| 0.5 0.000700173 1 0.204599 2.718 ||| ||| 2 1
, comme ont tendance à le ||| absent , as the ||| 1 3.2237e-06 1 0.0954059 2.718 ||| ||| 1 1
, comme ont tendance à ||| absent , as ||| 0.5 1.77397e-05 1 0.204599 2.718 ||| ||| 2 1
, comme ont ||| , as ||| 0.0277778 0.000700173 1 0.409198 2.718 ||| ||| 36 1
, comme tous les orateurs l' ont ||| as all the previous speakers have ||| 0.5 3.81705e-07 1 0.0219503 2.718 ||| ||| 2 1
, comme tous les orateurs l' ||| as all the previous speakers ||| 0.25 2.26478e-06 1 0.0541442 2.718 ||| ||| 4 1
, comme tous les orateurs ||| as all the previous speakers ||| 0.25 9.73355e-05 1 0.0541442 2.718 ||| ||| 4 1
, comme tous les ||| as all the ||| 0.5 0.000519123 1 0.216577 2.718 ||| ||| 2 1
, comme tous ||| as all ||| 0.5 0.00415298 1 0.505952 2.718 ||| ||| 2 1
, comme ||| , as ||| 0.0833333 0.135414 0.75 0.409198 2.718 ||| ||| 36 4
, comme ||| as ||| 0.0102041 0.0168888 0.25 0.607143 2.718 ||| ||| 98 4
, comment se fait-il que ||| , can you tell me why this ||| 1 0.000349559 1 4.88631e-11 2.718 ||| ||| 1 1
, compte tenu ||| considering ||| 0.333333 6.85768e-05 1 0.5 2.718 ||| ||| 3 1
, concernant le ||| , concerning the ||| 1 0.000133222 0.2 0.000196675 2.718 ||| ||| 1 5
, concernant le ||| let me point out , concerning the ||| 1 0.000133222 0.2 1.50816e-16 2.718 ||| ||| 1 5
, concernant le ||| me point out , concerning the ||| 1 0.000133222 0.2 2.40998e-13 2.718 ||| ||| 1 5
, concernant le ||| out , concerning the ||| 1 0.000133222 0.2 1.23079e-07 2.718 ||| ||| 1 5
, concernant le ||| point out , concerning the ||| 1 0.000133222 0.2 3.85103e-10 2.718 ||| ||| 1 5
, concernant ||| , concerning ||| 0.333333 0.000733108 0.0833333 0.000421772 2.718 ||| ||| 3 12
, concernant ||| , let me point out , concerning ||| 0.5 0.000733108 0.0833333 2.79305e-17 2.718 ||| ||| 2 12
, concernant ||| , let me point out , ||| 0.5 0.000733108 0.0833333 4.46316e-14 2.718 ||| ||| 2 12
, concernant ||| , ||| 0.00144509 0.000733108 0.0833333 0.673973 2.718 ||| ||| 692 12
, concernant ||| let me point out , concerning ||| 0.5 0.000733108 0.0833333 3.23427e-16 2.718 ||| ||| 2 12
, concernant ||| let me point out , ||| 0.5 0.000733108 0.0833333 5.16822e-13 2.718 ||| ||| 2 12
, concernant ||| me point out , concerning ||| 0.5 0.000733108 0.0833333 5.16822e-13 2.718 ||| ||| 2 12
, concernant ||| me point out , ||| 0.5 0.000733108 0.0833333 8.25857e-10 2.718 ||| ||| 2 12
, concernant ||| out , concerning ||| 0.5 0.000733108 0.0833333 2.63945e-07 2.718 ||| ||| 2 12
, concernant ||| out , ||| 0.5 0.000733108 0.0833333 0.000421772 2.718 ||| ||| 2 12
, concernant ||| point out , concerning ||| 0.5 0.000733108 0.0833333 8.25857e-10 2.718 ||| ||| 2 12
, concernant ||| point out , ||| 0.5 0.000733108 0.0833333 1.31968e-06 2.718 ||| ||| 2 12
, concrètement quatre , ||| , specifically four ||| 0.5 0.0179092 1 0.673973 2.718 ||| ||| 2 1
, concrètement quatre ||| , specifically four ||| 0.5 0.202552 1 0.673973 2.718 ||| ||| 2 1
, concrètement ||| , specifically ||| 1 0.236311 1 0.673973 2.718 ||| ||| 1 1
, conditions rigoureuses - ||| austere conditions ||| 0.5 0.0102021 1 0.361111 2.718 ||| ||| 2 1
, conditions ||| conditions ||| 0.142857 0.0408082 1 0.666667 2.718 ||| ||| 7 1
, d ' abord ||| and firstly ||| 1 0.000278706 1 0.00990233 2.718 ||| ||| 1 1
, d ' obtenir des améliorations sur ||| as perhaps improving upon ||| 0.5 1.93488e-06 1 0.0116145 2.718 ||| ||| 2 1
, d ' obtenir des ||| as perhaps ||| 0.25 4.37581e-05 1 0.089199 2.718 ||| ||| 4 1
, d ' obtenir ||| as perhaps ||| 0.25 0.00169256 1 0.089199 2.718 ||| ||| 4 1
, d' abord ||| , firstly ||| 1 0.033559 1 0.125604 2.718 ||| ||| 1 1
, d' ailleurs toute relative , de ||| , the entirely relative weakness of ||| 1 5.48997e-09 1 9.50488e-09 2.718 ||| ||| 1 1
, d' ailleurs toute relative , ||| , the entirely relative weakness ||| 0.5 1.39662e-08 1 3.26926e-08 2.718 ||| ||| 2 1
, d' ailleurs toute relative ||| , the entirely relative weakness ||| 0.5 1.57957e-07 1 3.26926e-08 2.718 ||| ||| 2 1
, d' analyses d' entreprises ||| of ||| 0.00252525 7.26536e-11 1 0.195455 2.718 ||| ||| 396 1
, d' analyses d' ||| of ||| 0.00252525 7.02579e-08 1 0.195455 2.718 ||| ||| 396 1
, d' analyses ||| of ||| 0.00252525 4.24621e-06 1 0.195455 2.718 ||| ||| 396 1
, d' après moi , ||| of the ||| 0.00719424 3.88243e-10 0.5 0.013332 2.718 ||| ||| 139 2
, d' après moi , ||| of ||| 0.00252525 3.88243e-10 0.5 0.195455 2.718 ||| ||| 396 2
, d' après moi ||| of the ||| 0.00719424 4.39101e-09 0.5 0.013332 2.718 ||| ||| 139 2
, d' après moi ||| of ||| 0.00252525 4.39101e-09 0.5 0.195455 2.718 ||| ||| 396 2
, d' après ||| of the ||| 0.00719424 4.24621e-06 0.5 0.013332 2.718 ||| ||| 139 2
, d' après ||| of ||| 0.00252525 4.24621e-06 0.5 0.195455 2.718 ||| ||| 396 2
, d' autre part , ||| , secondly , ||| 1 0.0040207 1 0.0385415 2.718 ||| ||| 1 1
, d' autre part ||| , secondly ||| 1 0.00567147 1 0.0571856 2.718 ||| ||| 1 1
, d' un montant de ||| supply of ||| 0.166667 7.9293e-07 1 0.290735 2.718 ||| ||| 6 1
, d' un montant ||| supply ||| 0.125 2.01718e-06 1 1 2.718 ||| ||| 8 1
, d' ||| of the ||| 0.00719424 0.00821159 0.333333 0.013332 2.718 ||| ||| 139 3
, d' ||| of ||| 0.00505051 0.00821159 0.666667 0.195455 2.718 ||| ||| 396 3
, dans cette enceinte ||| are pleased ||| 0.25 3.16004e-10 0.5 3.42907e-06 2.718 ||| ||| 4 2
, dans cette enceinte ||| are ||| 0.0108696 3.16004e-10 0.5 0.0054795 2.718 ||| ||| 92 2
, dans cette ||| are pleased ||| 0.25 6.11109e-07 0.5 3.42907e-06 2.718 ||| ||| 4 2
, dans cette ||| are ||| 0.0108696 6.11109e-07 0.5 0.0054795 2.718 ||| ||| 92 2
, dans de nombreux domaines touchant aux ||| in many cases where ||| 0.25 4.2617e-08 1 0.0170279 2.718 ||| ||| 4 1
, dans de nombreux domaines touchant ||| in many cases where ||| 0.25 1.37368e-05 1 0.0170279 2.718 ||| ||| 4 1
, dans de nombreux domaines ||| in many cases ||| 0.5 0.000219789 1 0.0340558 2.718 ||| ||| 2 1
, dans de nombreux ||| in many ||| 0.333333 0.00131873 1 0.238391 2.718 ||| ||| 3 1
, dans l' ensemble , notre assentiment ||| the ||| 0.00105152 1.09133e-14 1 0.324219 2.718 ||| ||| 951 1
, dans l' ensemble , notre ||| the ||| 0.00105152 2.11049e-11 1 0.324219 2.718 ||| ||| 951 1
, dans l' ensemble , ||| the ||| 0.00105152 5.83104e-09 1 0.324219 2.718 ||| ||| 951 1
, dans l' ensemble ||| the ||| 0.00105152 6.59487e-08 1 0.324219 2.718 ||| ||| 951 1
, dans l' ||| the ||| 0.00105152 6.37741e-05 1 0.324219 2.718 ||| ||| 951 1
, dans le même pays ||| in the same country ||| 0.5 0.00164327 1 0.00704493 2.718 ||| ||| 2 1
, dans le même ||| in the same ||| 0.333333 0.00383429 1 0.0704493 2.718 ||| ||| 3 1
, dans le parlementarisme allemand , ||| in german parliamentary-speak , ||| 0.5 0.000779078 0.5 0.0794093 2.718 ||| ||| 2 2
, dans le parlementarisme allemand , ||| to in german parliamentary-speak , ||| 0.5 0.000779078 0.5 0.00655947 2.718 ||| ||| 2 2
, dans le parlementarisme allemand ||| in german parliamentary-speak ||| 0.5 0.00109894 0.5 0.117823 2.718 ||| ||| 2 2
, dans le parlementarisme allemand ||| to in german parliamentary-speak ||| 0.5 0.00109894 0.5 0.00973255 2.718 ||| ||| 2 2
, dans le respect des spécificités locales ||| , while respecting the specific local ||| 1 5.45811e-05 1 8.74914e-05 2.718 ||| ||| 1 1
, dans le respect des ||| , while respecting the ||| 1 0.000744288 1 0.00023331 2.718 ||| ||| 1 1
, dans le ||| in the ||| 0.0119048 0.00511239 1 0.328763 2.718 ||| ||| 84 1
, dans ||| , in a number ||| 1 0.22557 0.1 2.30736e-05 2.718 ||| ||| 1 10
, dans ||| , in a ||| 1 0.22557 0.1 0.00921801 2.718 ||| ||| 1 10
, dans ||| , in ||| 0.0357143 0.22557 0.1 0.475175 2.718 ||| ||| 28 10
, dans ||| , while ||| 1 0.118156 0.1 0.00484869 2.718 ||| ||| 1 10
, dans ||| are pleased ||| 0.25 0.000295464 0.1 3.42907e-06 2.718 ||| ||| 4 10
, dans ||| are ||| 0.0108696 0.000295464 0.1 0.0054795 2.718 ||| ||| 92 10
, dans ||| in ||| 0.0103093 0.0281329 0.3 0.705036 2.718 ||| ||| 291 10
, dans ||| to in ||| 0.333333 0.0281329 0.1 0.0582383 2.718 ||| ||| 3 10
, de demander ||| , ||| 0.00144509 7.65707e-05 1 0.673973 2.718 ||| ||| 692 1
, de grands changements . ||| , entail any major changes . ||| 1 0.0152064 1 0.00917691 2.718 ||| ||| 1 1
, de grands changements ||| , entail any major changes ||| 1 0.0155345 1 0.00936073 2.718 ||| ||| 1 1
, de l' euro face au dollar ||| of the euro in relation to the ||| 0.5 1.19392e-05 0.333333 1.60495e-05 2.718 ||| ||| 2 3
, de l' euro face au dollar ||| of the euro in relation to ||| 0.5 1.19392e-05 0.333333 0.000235294 2.718 ||| ||| 2 3
, de l' euro face au dollar ||| of the euro in relation ||| 0.5 1.19392e-05 0.333333 0.00284848 2.718 ||| ||| 2 3
, de l' ||| of the ||| 0.00719424 0.0030302 1 0.0942617 2.718 ||| ||| 139 1
, de même , pas ||| , indeed there can be ||| 0.333333 9.02725e-06 0.25 3.17116e-08 2.718 ||| ||| 3 4
, de même , pas ||| , indeed there can ||| 0.333333 9.02725e-06 0.25 1.80982e-06 2.718 ||| ||| 3 4
, de même , pas ||| , indeed there ||| 0.333333 9.02725e-06 0.25 0.000361509 2.718 ||| ||| 3 4
, de même , pas ||| , indeed ||| 0.333333 9.02725e-06 0.25 0.0481409 2.718 ||| ||| 3 4
, de même , ||| , indeed there can be ||| 0.333333 0.00145488 0.25 3.17116e-08 2.718 ||| ||| 3 4
, de même , ||| , indeed there can ||| 0.333333 0.00145488 0.25 1.80982e-06 2.718 ||| ||| 3 4
, de même , ||| , indeed there ||| 0.333333 0.00145488 0.25 0.000361509 2.718 ||| ||| 3 4
, de même , ||| , indeed ||| 0.333333 0.00145488 0.25 0.0481409 2.718 ||| ||| 3 4
, de même ||| , indeed there can be ||| 0.333333 0.0164546 0.25 3.17116e-08 2.718 ||| ||| 3 4
, de même ||| , indeed there can ||| 0.333333 0.0164546 0.25 1.80982e-06 2.718 ||| ||| 3 4
, de même ||| , indeed there ||| 0.333333 0.0164546 0.25 0.000361509 2.718 ||| ||| 3 4
, de même ||| , indeed ||| 0.333333 0.0164546 0.25 0.0481409 2.718 ||| ||| 3 4
, de telle sorte que ses enfants ||| so as to ||| 0.5 9.44294e-15 1 0.00197731 2.718 ||| ||| 2 1
, de telle sorte que ses ||| as to ||| 0.0909091 2.83288e-13 0.5 0.00197731 2.718 ||| ||| 11 2
, de telle sorte que ses ||| to ||| 0.00258398 2.83288e-13 0.5 0.13738 2.718 ||| ||| 387 2
, de telle sorte que ||| as to ||| 0.0909091 1.82625e-10 0.5 0.00197731 2.718 ||| ||| 11 2
, de telle sorte que ||| to ||| 0.00258398 1.82625e-10 0.5 0.13738 2.718 ||| ||| 387 2
, de telle sorte ||| as to ||| 0.0909091 8.61456e-09 0.5 0.00197731 2.718 ||| ||| 11 2
, de telle sorte ||| to ||| 0.00258398 8.61456e-09 0.5 0.13738 2.718 ||| ||| 387 2
, de telle ||| as to ||| 0.0909091 8.33049e-06 0.5 0.00197731 2.718 ||| ||| 11 2
, de telle ||| to ||| 0.00258398 8.33049e-06 0.5 0.13738 2.718 ||| ||| 387 2
, de ||| , i ||| 0.015625 0.0740458 0.125 0.00379581 2.718 ||| ||| 64 8
, de ||| , ||| 0.00578035 0.0740458 0.5 0.673973 2.718 ||| ||| 692 8
, de ||| as to ||| 0.0909091 0.01611 0.125 0.00197731 2.718 ||| ||| 11 8
, de ||| of ||| 0.00252525 0.034756 0.125 0.290735 2.718 ||| ||| 396 8
, de ||| to ||| 0.00258398 0.01611 0.125 0.13738 2.718 ||| ||| 387 8
, debout , observe une minute de ||| rose and observed a minute ' ||| 1 2.87765e-05 1 0.000324946 2.718 ||| ||| 1 1
, debout , observe une minute ||| rose and observed a minute ||| 1 0.000172659 1 0.0226018 2.718 ||| ||| 1 1
, debout , observe une ||| rose and observed a ||| 1 0.000172659 1 0.0226018 2.718 ||| ||| 1 1
, debout , observe ||| rose and observed ||| 1 0.000661317 1 0.0652468 2.718 ||| ||| 1 1
, debout , ||| rose and ||| 1 0.00264527 1 0.0652468 2.718 ||| ||| 1 1
, demain , ||| sweden ||| 0.25 0.00781771 1 0.0769231 2.718 ||| ||| 4 1
, demain ||| sweden ||| 0.25 0.0884178 1 0.0769231 2.718 ||| ||| 4 1
, depuis le ||| 1 january ||| 0.25 0.00134867 0.333333 6.95333e-05 2.718 ||| ||| 4 3
, depuis le ||| from 1 january ||| 0.25 0.00134867 0.333333 2.17563e-07 2.718 ||| ||| 4 3
, depuis le ||| january ||| 0.166667 0.00134867 0.333333 0.111111 2.718 ||| ||| 6 3
, depuis ||| 1 january ||| 0.25 0.0442089 0.333333 6.95333e-05 2.718 ||| ||| 4 3
, depuis ||| from 1 january ||| 0.25 0.0442089 0.333333 2.17563e-07 2.718 ||| ||| 4 3
, depuis ||| january ||| 0.166667 0.0442089 0.333333 0.111111 2.718 ||| ||| 6 3
, des débats d' ||| there are ||| 0.0588235 6.52108e-07 0.5 0.0150188 2.718 ||| ||| 17 2
, des débats d' ||| there ||| 0.0153846 6.52108e-07 0.5 1 2.718 ||| ||| 65 2
, des débats ||| there are ||| 0.0588235 3.94118e-05 0.5 0.0150188 2.718 ||| ||| 17 2
, des débats ||| there ||| 0.0153846 3.94118e-05 0.5 1 2.718 ||| ||| 65 2
, des hôpitaux , bref de ||| consequently , ||| 0.0769231 1.45874e-08 1 0.673973 2.718 ||| ||| 13 1
, des hôpitaux , bref ||| consequently , ||| 0.0769231 1.39664e-07 1 0.673973 2.718 ||| ||| 13 1
, des hôpitaux , ||| consequently , ||| 0.0769231 0.00027009 1 0.673973 2.718 ||| ||| 13 1
, des hôpitaux ||| consequently ||| 0.166667 0.000380981 1 1 2.718 ||| ||| 6 1
, des ressources ont ||| funds have ||| 0.25 3.98399e-07 0.5 0.000253703 2.718 ||| ||| 4 2
, des ressources ont ||| have ||| 0.0166667 3.98399e-07 0.5 0.405405 2.718 ||| ||| 60 2
, des soins médicaux et des ||| , health care and ||| 1 0.0102817 1 0.109723 2.718 ||| ||| 1 1
, des taux ||| are still very high ||| 0.25 3.65731e-05 0.25 1.58431e-10 2.718 ||| ||| 4 4
, des taux ||| high ||| 0.2 3.65731e-05 0.25 0.006734 2.718 ||| ||| 5 4
, des taux ||| still very high ||| 0.25 3.65731e-05 0.25 1.05488e-08 2.718 ||| ||| 4 4
, des taux ||| very high ||| 0.25 3.65731e-05 0.25 8.42827e-06 2.718 ||| ||| 4 4
, des transports et ||| and transport , ||| 1 0.00810104 1 0.446141 2.718 ||| ||| 1 1
, des transports ||| transport , ||| 1 0.0101823 1 0.51844 2.718 ||| ||| 1 1
, des ||| , ||| 0.00144509 0.0183282 0.142857 0.673973 2.718 ||| ||| 692 7
, des ||| are still very high ||| 0.25 0.0353671 0.142857 1.58431e-10 2.718 ||| ||| 4 7
, des ||| high ||| 0.2 0.0353671 0.142857 0.006734 2.718 ||| ||| 5 7
, des ||| still very high ||| 0.25 0.0353671 0.142857 1.05488e-08 2.718 ||| ||| 4 7
, des ||| that were ||| 0.5 0.0189467 0.142857 0.000164346 2.718 ||| ||| 2 7
, des ||| very high ||| 0.25 0.0353671 0.142857 8.42827e-06 2.718 ||| ||| 4 7
, des ||| were ||| 0.0714286 0.0189467 0.142857 0.010101 2.718 ||| ||| 14 7
, deux points me tiennent cependant fort ||| , there are two issues dear ||| 1 0.000669494 1 3.57813e-06 2.718 ||| ||| 1 1
, deux points ||| , there are two issues ||| 1 0.171391 1 9.89507e-06 2.718 ||| ||| 1 1
, deux ||| , there are two ||| 1 0.599867 1 6.43179e-05 2.718 ||| ||| 1 1
, deviennent tangibles ||| also benefit ||| 0.333333 0.00299821 1 0.375 2.718 ||| ||| 3 1
, dirais-je . ||| sensible guidelines . ||| 0.5 0.0451569 1 0.245091 2.718 ||| ||| 2 1
, dirais-je ||| sensible guidelines ||| 0.5 0.046131 1 0.25 2.718 ||| ||| 2 1
, dire franchement " chapeau ! " ||| , i take my hat off ||| 1 2.49234e-07 1 0.00132933 2.718 ||| ||| 1 1
, dire franchement ||| , i take ||| 1 0.000361702 1 0.0962818 2.718 ||| ||| 1 1
, dire ||| , i ||| 0.015625 0.00723403 1 0.0962818 2.718 ||| ||| 64 1
, dont les objectifs 1 et 2 ||| , whose objectives 1 and 2 ||| 1 0.00373007 1 0.0601464 2.718 ||| ||| 1 1
, dont les objectifs 1 et ||| , whose objectives 1 and ||| 1 0.00746013 1 0.0601464 2.718 ||| ||| 1 1
, dont les objectifs 1 ||| , whose objectives 1 ||| 1 0.00937677 1 0.0698935 2.718 ||| ||| 1 1
, dont les objectifs ||| , whose objectives ||| 1 0.0105489 1 0.0786302 2.718 ||| ||| 1 1
, dont les ||| , whose ||| 0.5 0.0135628 1 0.112329 2.718 ||| ||| 2 1
, dont ||| , whose ||| 0.5 0.708934 1 0.112329 2.718 ||| ||| 2 1
, du point de vue de ||| , in terms of ||| 1 9.72718e-08 0.5 0.000515006 2.718 ||| ||| 1 2
, du point de vue de ||| europe , in terms of ||| 1 9.72718e-08 0.5 3.22291e-07 2.718 ||| ||| 1 2
, du point de vue ||| , in terms ||| 1 2.47455e-07 0.5 0.0017714 2.718 ||| ||| 1 2
, du point de vue ||| europe , in terms ||| 1 2.47455e-07 0.5 1.10854e-06 2.718 ||| ||| 1 2
, du point de ||| , in ||| 0.0357143 1.97964e-06 0.25 0.017714 2.718 ||| ||| 28 4
, du point de ||| , ||| 0.00144509 1.97964e-06 0.25 0.673973 2.718 ||| ||| 692 4
, du point de ||| europe , in ||| 0.25 1.97964e-06 0.25 1.10854e-05 2.718 ||| ||| 4 4
, du point de ||| europe , ||| 0.25 1.97964e-06 0.25 0.000421772 2.718 ||| ||| 4 4
, du point ||| , in ||| 0.0357143 1.89536e-05 0.25 0.017714 2.718 ||| ||| 28 4
, du point ||| , ||| 0.00144509 1.89536e-05 0.25 0.673973 2.718 ||| ||| 692 4
, du point ||| europe , in ||| 0.25 1.89536e-05 0.25 1.10854e-05 2.718 ||| ||| 4 4
, du point ||| europe , ||| 0.25 1.89536e-05 0.25 0.000421772 2.718 ||| ||| 4 4
, du traitement de l' eau et ||| , water treatment and ||| 1 0.000114227 1 0.145767 2.718 ||| ||| 1 1
, du traitement de l' eau ||| , water treatment ||| 1 0.000143574 1 0.169389 2.718 ||| ||| 1 1
, du traité ce prévoit ||| of the ec treaty also applies to ||| 0.5 0.000219316 0.5 8.45082e-06 2.718 ||| ||| 2 2
, du traité ce prévoit ||| of the ec treaty also applies ||| 0.5 0.000219316 0.5 0.000102306 2.718 ||| ||| 2 2
, du traité d ' amsterdam avait ||| of the treaty of amsterdam in ||| 0.5 8.43275e-09 1 0.00105124 2.718 ||| ||| 2 1
, du traité d ' amsterdam ||| of the treaty of amsterdam ||| 0.166667 2.59725e-06 1 0.00315372 2.718 ||| ||| 6 1
, du traité d ' ||| of the treaty of ||| 0.2 2.59725e-06 1 0.00315372 2.718 ||| ||| 5 1
, du traité d ||| of the treaty of ||| 0.2 7.38689e-05 1 0.00315372 2.718 ||| ||| 5 1
, du traité d' amsterdam , il ||| , of the treaty of amsterdam ||| 0.333333 1.85317e-06 1 0.0047707 2.718 ||| ||| 3 1
, du traité d' amsterdam , ||| , of the treaty of amsterdam ||| 0.333333 0.000199114 1 0.0047707 2.718 ||| ||| 3 1
, du traité d' amsterdam ||| , of the treaty of amsterdam ||| 0.333333 0.00225196 1 0.0047707 2.718 ||| ||| 3 1
, du traité d' ||| , of the treaty of ||| 1 0.00225196 1 0.0047707 2.718 ||| ||| 1 1
, du traité ||| , of the treaty ||| 1 0.0242479 0.5 0.0244082 2.718 ||| ||| 1 2
, du traité ||| of the treaty ||| 0.333333 0.0057002 0.5 0.0183967 2.718 ||| ||| 3 2
, du travail qu' elle a effectué ||| , for her work ||| 1 5.02283e-11 1 2.48464e-05 2.718 ||| ||| 1 1
, du ||| , in ||| 0.0357143 0.0073313 0.2 0.017714 2.718 ||| ||| 28 5
, du ||| , of the ||| 0.333333 0.0484958 0.2 0.0366124 2.718 ||| ||| 3 5
, du ||| , ||| 0.00144509 0.0073313 0.2 0.673973 2.718 ||| ||| 692 5
, du ||| europe , in ||| 0.25 0.0073313 0.2 1.10854e-05 2.718 ||| ||| 4 5
, du ||| europe , ||| 0.25 0.0073313 0.2 0.000421772 2.718 ||| ||| 4 5
, débarrassé ||| do their own thing again without the ||| 0.5 0.00196484 0.142857 3.14225e-16 2.718 ||| ||| 2 7
, débarrassé ||| do their own thing again without ||| 0.5 0.00196484 0.142857 4.6067e-15 2.718 ||| ||| 2 7
, débarrassé ||| do their own thing again ||| 0.5 0.00196484 0.142857 7.3613e-12 2.718 ||| ||| 2 7
, débarrassé ||| do their own thing ||| 0.5 0.00196484 0.142857 2.94087e-09 2.718 ||| ||| 2 7
, débarrassé ||| do their own ||| 0.5 0.00196484 0.142857 2.34969e-06 2.718 ||| ||| 2 7
, débarrassé ||| do their ||| 0.333333 0.00196484 0.142857 0.0037547 2.718 ||| ||| 3 7
, débarrassé ||| do ||| 0.047619 0.00196484 0.142857 1 2.718 ||| ||| 21 7
, développement ||| and development ||| 0.2 0.0271584 1 0.0177459 2.718 ||| ||| 5 1
, effroyable , bien loin de s' ||| , rather ||| 0.166667 5.4307e-12 0.333333 0.673973 2.718 ||| ||| 6 3
, effroyable , bien loin de s' ||| any way , rather ||| 0.166667 5.4307e-12 0.333333 7.38999e-06 2.718 ||| ||| 6 3
, effroyable , bien loin de s' ||| way , rather ||| 0.166667 5.4307e-12 0.333333 0.00168702 2.718 ||| ||| 6 3
, effroyable , bien loin de ||| , rather ||| 0.166667 1.75048e-09 0.333333 0.673973 2.718 ||| ||| 6 3
, effroyable , bien loin de ||| any way , rather ||| 0.166667 1.75048e-09 0.333333 7.38999e-06 2.718 ||| ||| 6 3
, effroyable , bien loin de ||| way , rather ||| 0.166667 1.75048e-09 0.333333 0.00168702 2.718 ||| ||| 6 3
, effroyable , bien loin ||| , rather ||| 0.166667 1.67596e-08 0.333333 0.673973 2.718 ||| ||| 6 3
, effroyable , bien loin ||| any way , rather ||| 0.166667 1.67596e-08 0.333333 7.38999e-06 2.718 ||| ||| 6 3
, effroyable , bien loin ||| way , rather ||| 0.166667 1.67596e-08 0.333333 0.00168702 2.718 ||| ||| 6 3
, effroyable , bien ||| , rather ||| 0.166667 3.24107e-05 0.333333 0.673973 2.718 ||| ||| 6 3
, effroyable , bien ||| any way , rather ||| 0.166667 3.24107e-05 0.333333 7.38999e-06 2.718 ||| ||| 6 3
, effroyable , bien ||| way , rather ||| 0.166667 3.24107e-05 0.333333 0.00168702 2.718 ||| ||| 6 3
, effroyable , ||| , rather ||| 0.166667 0.00783529 0.333333 0.673973 2.718 ||| ||| 6 3
, effroyable , ||| any way , rather ||| 0.166667 0.00783529 0.333333 7.38999e-06 2.718 ||| ||| 6 3
, effroyable , ||| way , rather ||| 0.166667 0.00783529 0.333333 0.00168702 2.718 ||| ||| 6 3
, effroyable ||| , rather ||| 0.166667 0.0886167 0.333333 0.673973 2.718 ||| ||| 6 3
, effroyable ||| any way , rather ||| 0.166667 0.0886167 0.333333 7.38999e-06 2.718 ||| ||| 6 3
, effroyable ||| way , rather ||| 0.166667 0.0886167 0.333333 0.00168702 2.718 ||| ||| 6 3
, elle ||| , once again , ||| 0.25 0.00146629 0.2 3.64671e-07 2.718 ||| ||| 4 5
, elle ||| , ||| 0.00144509 0.00146629 0.2 0.673973 2.718 ||| ||| 692 5
, elle ||| again , ||| 0.25 0.00146629 0.2 0.00168702 2.718 ||| ||| 4 5
, elle ||| once again , ||| 0.25 0.00146629 0.2 4.22278e-06 2.718 ||| ||| 4 5
, elle ||| which , once again , ||| 0.25 0.00146629 0.2 2.73846e-09 2.718 ||| ||| 4 5
, elles regagneront la confiance ||| eventually get them back onto the road ||| 1 0.000116451 1 3.87831e-13 2.718 ||| ||| 1 1
, elles regagneront la ||| eventually get them back onto the ||| 1 0.000582253 0.5 3.87831e-13 2.718 ||| ||| 1 2
, elles regagneront la ||| will eventually get them back onto the ||| 1 0.000582253 0.5 2.91238e-15 2.718 ||| ||| 1 2
, elles regagneront ||| eventually get them back onto ||| 1 0.0020683 0.333333 6.71468e-13 2.718 ||| ||| 1 3
, elles regagneront ||| we will eventually get them back onto ||| 1 0.0020683 0.333333 3.78648e-17 2.718 ||| ||| 1 3
, elles regagneront ||| will eventually get them back onto ||| 1 0.0020683 0.333333 5.04232e-15 2.718 ||| ||| 1 3
, elles ||| eventually get them back ||| 0.5 0.0020683 0.0625 6.71468e-13 2.718 ||| ||| 2 16
, elles ||| eventually get them ||| 0.5 0.0020683 0.0625 1.07298e-09 2.718 ||| ||| 2 16
, elles ||| eventually get ||| 0.5 0.0020683 0.0625 8.57283e-07 2.718 ||| ||| 2 16
, elles ||| eventually ||| 0.5 0.0020683 0.0625 0.0013699 2.718 ||| ||| 2 16
, elles ||| regions we will eventually get them back ||| 0.5 0.0020683 0.0625 9.47795e-20 2.718 ||| ||| 2 16
, elles ||| regions we will eventually get them ||| 0.5 0.0020683 0.0625 1.51453e-16 2.718 ||| ||| 2 16
, elles ||| regions we will eventually get ||| 0.5 0.0020683 0.0625 1.21008e-13 2.718 ||| ||| 2 16
, elles ||| regions we will eventually ||| 0.5 0.0020683 0.0625 1.93365e-10 2.718 ||| ||| 2 16
, elles ||| we will eventually get them back ||| 0.5 0.0020683 0.0625 3.78648e-17 2.718 ||| ||| 2 16
, elles ||| we will eventually get them ||| 0.5 0.0020683 0.0625 6.05063e-14 2.718 ||| ||| 2 16
, elles ||| we will eventually get ||| 0.5 0.0020683 0.0625 4.83431e-11 2.718 ||| ||| 2 16
, elles ||| we will eventually ||| 0.5 0.0020683 0.0625 7.72502e-08 2.718 ||| ||| 2 16
, elles ||| will eventually get them back ||| 0.5 0.0020683 0.0625 5.04232e-15 2.718 ||| ||| 2 16
, elles ||| will eventually get them ||| 0.5 0.0020683 0.0625 8.05741e-12 2.718 ||| ||| 2 16
, elles ||| will eventually get ||| 0.5 0.0020683 0.0625 6.43768e-09 2.718 ||| ||| 2 16
, elles ||| will eventually ||| 0.5 0.0020683 0.0625 1.02871e-05 2.718 ||| ||| 2 16
, en allemagne . ||| in germany . ||| 1 0.0253667 1 0.0664169 2.718 ||| ||| 1 1
, en allemagne ||| in germany ||| 1 0.0259139 1 0.0677473 2.718 ||| ||| 1 1
, en apportant une aide financière ||| , tying this in with financial aid ||| 1 3.62087e-06 0.5 4.48031e-06 2.718 ||| ||| 1 2
, en apportant une aide financière ||| , tying this in with financial ||| 1 3.62087e-06 0.5 0.00143191 2.718 ||| ||| 1 2
, en apportant une aide ||| , tying this in with ||| 1 9.05219e-06 1 0.00286383 2.718 ||| ||| 1 1
, en apportant une ||| , tying this in ||| 0.5 0.000615548 1 0.017183 2.718 ||| ||| 2 1
, en apportant ||| , tying this in ||| 0.5 0.0566892 1 0.017183 2.718 ||| ||| 2 1
, en asie et au brésil . ||| , asia and brazil . ||| 1 0.0345072 1 0.144147 2.718 ||| ||| 1 1
, en asie et au brésil ||| , asia and brazil ||| 1 0.0352516 1 0.147035 2.718 ||| ||| 1 1
, en asie et ||| , asia and ||| 1 0.141006 1 0.29142 2.718 ||| ||| 1 1
, en asie ||| , asia ||| 1 0.177233 1 0.338646 2.718 ||| ||| 1 1
, en ce qui concerne précisément la ||| , especially in connection with ||| 0.5 2.7527e-06 0.5 1.43117e-05 2.718 ||| ||| 2 2
, en ce qui concerne précisément la ||| , especially in connection ||| 0.5 2.7527e-06 0.5 0.00228702 2.718 ||| ||| 2 2
, en ce qui concerne précisément ||| , especially in connection with ||| 0.5 9.50666e-05 0.5 1.43117e-05 2.718 ||| ||| 2 2
, en ce qui concerne précisément ||| , especially in connection ||| 0.5 9.50666e-05 0.5 0.00228702 2.718 ||| ||| 2 2
, en ce qui concerne ||| , especially in ||| 0.5 0.0002852 1 0.00686105 2.718 ||| ||| 2 1
, en ce ||| , concerning item ||| 1 0.0126595 1 3.13214e-05 2.718 ||| ||| 1 1
, en cette période de catastrophes naturelles ||| , in this time of natural disasters ||| 1 0.000354217 1 0.00403084 2.718 ||| ||| 1 1
, en cette période de catastrophes ||| , in this time of natural ||| 1 0.000354217 1 0.00403084 2.718 ||| ||| 1 1
, en cette période de ||| , in this time of ||| 1 0.000354217 1 0.00403084 2.718 ||| ||| 1 1
, en cette période ||| , in this time ||| 1 0.000901113 1 0.0138643 2.718 ||| ||| 1 1
, en cette ||| , in this ||| 0.5 0.01622 1 0.083186 2.718 ||| ||| 2 1
, en effet , si vous le ||| , if you ||| 0.125 4.50378e-08 1 0.297341 2.718 ||| ||| 8 1
, en effet , si vous ||| , if you ||| 0.125 1.47632e-06 1 0.297341 2.718 ||| ||| 8 1
, en effet , si ||| , if ||| 0.0588235 2.06685e-06 1 0.396454 2.718 ||| ||| 17 1
, en effet , ||| , ||| 0.00144509 3.10028e-06 1 0.673973 2.718 ||| ||| 692 1
, en les approfondissant , sur les ||| more ||| 0.027027 8.93835e-12 1 1 2.718 ||| ||| 37 1
, en les approfondissant , sur ||| more ||| 0.027027 4.67211e-10 1 1 2.718 ||| ||| 37 1
, en les approfondissant , ||| more ||| 0.027027 7.52983e-08 1 1 2.718 ||| ||| 37 1
, en les approfondissant ||| more ||| 0.027027 8.51619e-07 1 1 2.718 ||| ||| 37 1
, en premier lieu , ||| begin by ||| 0.1 6.85309e-10 0.5 9.24779e-05 2.718 ||| ||| 10 2
, en premier lieu , ||| by ||| 0.0178571 6.85309e-10 0.5 0.0492611 2.718 ||| ||| 56 2
, en premier lieu ||| begin by ||| 0.1 7.75081e-09 0.5 9.24779e-05 2.718 ||| ||| 10 2
, en premier lieu ||| by ||| 0.0178571 7.75081e-09 0.5 0.0492611 2.718 ||| ||| 56 2
, en premier ||| begin by ||| 0.1 7.49522e-06 0.5 9.24779e-05 2.718 ||| ||| 10 2
, en premier ||| by ||| 0.0178571 7.49522e-06 0.5 0.0492611 2.718 ||| ||| 56 2
, en soi , de ||| , in itself , ||| 0.5 0.00299476 1 0.0344036 2.718 ||| ||| 2 1
, en soi , ||| , in itself , ||| 0.5 0.0286726 1 0.0344036 2.718 ||| ||| 2 1
, en soi ||| , in itself ||| 1 0.0404447 1 0.0510459 2.718 ||| ||| 1 1
, en soulignant que le développement urbain ||| , pointing out that urban development was ||| 1 0.000508404 1 0.00390072 2.718 ||| ||| 1 1
, en soulignant que ||| , pointing out that ||| 1 0.0256281 1 0.0403235 2.718 ||| ||| 1 1
, en soulignant ||| , pointing out ||| 1 0.0470776 1 0.0859066 2.718 ||| ||| 1 1
, en tant que nouveau député , ||| as a new member ||| 0.333333 5.50976e-10 1 0.00464231 2.718 ||| ||| 3 1
, en tant que nouveau ||| as a new ||| 0.25 2.31685e-07 1 0.0185185 2.718 ||| ||| 4 1
, en tant que ||| as ||| 0.0102041 2.41754e-06 1 0.375 2.718 ||| ||| 98 1
, en tant ||| as ||| 0.0102041 0.000114037 1 0.375 2.718 ||| ||| 98 1
, en ||| , by ||| 1 0.116219 0.166667 0.0332006 2.718 ||| ||| 1 6
, en ||| , concerning ||| 0.333333 0.0886167 0.166667 0.00332006 2.718 ||| ||| 3 6
, en ||| , in ||| 0.0714286 0.0943711 0.333333 0.136123 2.718 ||| ||| 28 6
, en ||| begin by ||| 0.1 0.0144947 0.166667 9.24779e-05 2.718 ||| ||| 10 6
, en ||| by ||| 0.0178571 0.0144947 0.166667 0.0492611 2.718 ||| ||| 56 6
, encore frappées durement par des taux ||| , still hard hit by catastrophic ||| 1 0.00172176 1 0.00235069 2.718 ||| ||| 1 1
, encore frappées ||| , still hard ||| 1 0.0545334 1 0.0518441 2.718 ||| ||| 1 1
, encore ||| , still ||| 1 0.0545334 1 0.0518441 2.718 ||| ||| 1 1
, entraînent la transparence et la clarté ||| believe will lead to transparency and openness ||| 1 8.22748e-06 1 3.11123e-06 2.718 ||| ||| 1 1
, entraînent la transparence et la ||| believe will lead to transparency and ||| 0.5 1.6455e-05 1 9.33369e-06 2.718 ||| ||| 2 1
, entraînent la transparence et ||| believe will lead to transparency and ||| 0.5 0.000568284 1 9.33369e-06 2.718 ||| ||| 2 1
, entraînent la transparence ||| believe will lead to transparency ||| 1 0.000714286 1 1.08463e-05 2.718 ||| ||| 1 1
, entraînent la ||| believe will lead to ||| 1 0.000952381 0.5 1.2654e-05 2.718 ||| ||| 1 2
, entraînent la ||| believe will lead ||| 1 0.000952381 0.5 0.00015319 2.718 ||| ||| 1 2
, entre guillemets . ||| , in quotation marks . ||| 1 0.350362 1 0.00252833 2.718 ||| ||| 1 1
, entre guillemets ||| , in quotation marks ||| 1 0.357919 1 0.00257898 2.718 ||| ||| 1 1
, entre ||| , in quotation ||| 1 0.357919 1 0.00257898 2.718 ||| ||| 1 1
, est défendue par ||| , has championed ||| 0.333333 2.27462e-06 0.333333 3.1831e-05 2.718 ||| ||| 3 3
, est défendue par ||| example , has championed ||| 0.333333 2.27462e-06 0.333333 3.98396e-08 2.718 ||| ||| 3 3
, est défendue par ||| for example , has championed ||| 0.333333 2.27462e-06 0.333333 4.48758e-10 2.718 ||| ||| 3 3
, est défendue ||| , has championed ||| 0.333333 0.00036659 0.333333 3.1831e-05 2.718 ||| ||| 3 3
, est défendue ||| example , has championed ||| 0.333333 0.00036659 0.333333 3.98396e-08 2.718 ||| ||| 3 3
, est défendue ||| for example , has championed ||| 0.333333 0.00036659 0.333333 4.48758e-10 2.718 ||| ||| 3 3
, est ||| , has championed ||| 0.333333 0.708934 0.333333 3.1831e-05 2.718 ||| ||| 3 3
, est ||| example , has championed ||| 0.333333 0.708934 0.333333 3.98396e-08 2.718 ||| ||| 3 3
, est ||| for example , has championed ||| 0.333333 0.708934 0.333333 4.48758e-10 2.718 ||| ||| 3 3
, est-ce que cela vous convient ||| , would this be acceptable to you ||| 1 4.74034e-06 1 0.00124322 2.718 ||| ||| 1 1
, est-ce que cela ||| , would this ||| 1 1.95692e-05 1 0.179024 2.718 ||| ||| 1 1
, est-ce que ||| , would ||| 0.5 0.000221017 1 0.336986 2.718 ||| ||| 2 1
, est-ce ||| , would ||| 0.5 0.0104255 1 0.336986 2.718 ||| ||| 2 1
, et attachera , ||| , and shall attach , ||| 1 0.107654 1 0.0977232 2.718 ||| ||| 1 1
, et attachera , à cette ||| , and shall attach , to the ||| 1 0.00012506 1 0.00334985 2.718 ||| ||| 1 1
, et attachera , à ||| , and shall attach , to ||| 1 0.019843 1 0.0301486 2.718 ||| ||| 1 1
, et attachera ||| , and shall attach ||| 1 0.151853 1 0.144996 2.718 ||| ||| 1 1
, et aussi dans l' ||| in the ||| 0.0119048 4.19694e-08 1 0.228586 2.718 ||| ||| 84 1
, et aussi dans ||| in ||| 0.00343643 4.81384e-07 1 0.705036 2.718 ||| ||| 291 1
, et c ' est un ||| , and this was a ||| 1 2.81802e-05 1 0.00436268 2.718 ||| ||| 1 1
, et c ' est ||| , and this was ||| 1 9.53429e-05 1 0.00937977 2.718 ||| ||| 1 1
, et c ' ||| , and this ||| 0.5 0.000619729 1 0.248564 2.718 ||| ||| 2 1
, et c ||| , and this ||| 0.5 0.0176258 1 0.248564 2.718 ||| ||| 2 1
, et ce dans l' ensemble ||| to a minimum , in all ||| 1 1.8229e-07 1 2.21844e-07 2.718 ||| ||| 1 1
, et ce dans l' ||| to a minimum , in ||| 0.5 5.55984e-06 1 8.87377e-07 2.718 ||| ||| 2 1
, et ce dans ||| to a minimum , in ||| 0.5 0.00023895 1 8.87377e-07 2.718 ||| ||| 2 1
, et ce ||| to a minimum , ||| 1 0.000750985 1 1.25863e-06 2.718 ||| ||| 1 1
, et chacun ||| , and each ||| 1 0.282013 1 0.386655 2.718 ||| ||| 1 1
, et de manière inadmissible dans votre ||| , inappropriately in your ||| 1 0.000490834 1 0.108159 2.718 ||| ||| 1 1
, et de manière inadmissible dans ||| , inappropriately in ||| 1 0.000872593 1 0.168248 2.718 ||| ||| 1 1
, et de manière inadmissible ||| , inappropriately ||| 1 0.00274244 1 0.238637 2.718 ||| ||| 1 1
, et donc ||| , ||| 0.00144509 1.51628e-05 1 0.673973 2.718 ||| ||| 692 1
, et détruire ce faisant des ||| , and thereby have ||| 0.5 0.000279137 1 0.0608709 2.718 ||| ||| 2 1
, et détruire ce faisant ||| , and thereby have ||| 0.5 0.010797 1 0.0608709 2.718 ||| ||| 2 1
, et il ||| , and more and ||| 1 0.0148428 1 0.00499101 2.718 ||| ||| 1 1
, et la chose se reproduit invariablement ||| , but then it happens again ||| 1 9.60634e-10 0.5 0.000440802 2.718 ||| ||| 1 2
, et la chose se reproduit invariablement ||| time , but then it happens again ||| 1 9.60634e-10 0.5 5.51707e-07 2.718 ||| ||| 1 2
, et la chose ||| , ||| 0.00144509 8.78161e-08 0.333333 0.673973 2.718 ||| ||| 692 3
, et la chose ||| last time , ||| 0.125 8.78161e-08 0.333333 5.2789e-07 2.718 ||| ||| 8 3
, et la chose ||| time , ||| 0.0769231 8.78161e-08 0.333333 0.000843544 2.718 ||| ||| 13 3
, et la ||| , ||| 0.00144509 0.000169824 0.333333 0.673973 2.718 ||| ||| 692 3
, et la ||| last time , ||| 0.125 0.000169824 0.333333 5.2789e-07 2.718 ||| ||| 8 3
