
\data\
ngram 1=2323
ngram 2=8508
ngram 3=1098

\1-grams:
-3.388979	"	-0.09096649
-3.536402	%	-0.1488857
-2.490903	'	-0.7143539
-3.536402	's	-0.0909665
-3.536402	(	-0.0909665
-3.001731	)	-0.4127531
-1.346091	,	-0.5212626
-3.536402	-	-0.0909665
-3.812523	-40ºc	-0.0909665
-1.289869	.	-1.737384
-3.812523	....	-0.0909665
-3.388979	/	-0.1336658
-3.812523	000	-0.09096649
-3.279117	1	-0.09096649
-3.812523	10	-0.0909665
-3.812523	11	-0.0909665
-3.812523	12	-0.09096649
-3.812523	143	-0.0909665
-3.812523	15	-0.09096649
-3.812523	158	-0.0909665
-3.812523	164	-0.09096649
-3.812523	166	-0.09096649
-3.812523	17	-0.09096649
-3.812523	18	-0.09096651
-3.812523	1989	-0.0909665
-3.812523	1993	-0.0909665
-3.812523	1994	-0.09096649
-3.812523	1996	-0.0909665
-3.812523	1997	-0.0909665
-3.388979	1998	-0.1189613
-3.388979	1999	-0.1247835
-3.536402	2	-0.0909665
-3.812523	20	-0.09096649
-3.694586	2003	-0.09096649
-3.812523	27	-0.0909665
-3.812523	299	-0.09096649
-3.812523	35	-0.09096649
-3.812523	37	-0.09096649
-3.812523	40	-0.09096649
-3.812523	5.5	-0.09096649
-3.694586	50	-0.09096651
-3.812523	540	-0.09096649
-3.812523	55	-0.09096649
-3.812523	60	-0.0909665
-3.812523	7	-0.09096649
-3.812523	8.25	-0.09096649
-3.812523	80	-0.09096649
-3.812523	87	-0.09096649
-3.812523	88	-0.0909665
-3.812523	9002	-0.0909665
-3.812523	94	-0.09096649
-3.812523	95	-0.09096649
-2.953287	:	-0.1247835
-3.279117	;	-0.0909665
-2.800326	</s>
-99	<s>	-0.6676417
-3.962188	<unk>
-2.640369	?	-0.9663732
-2.075679	a	-0.1517861
-3.812523	abc	-0.09096649
-3.536402	able	-0.3467918
-2.870107	about	-0.2001899
-3.812523	above	-0.0909665
-3.812523	abreast	-0.09096649
-3.812523	abroad	-0.0909665
-3.812523	absent	-0.0909665
-3.812523	absolute	-0.09096649
-3.536402	absolutely	-0.09096649
-3.694586	abstentions	-0.0909665
-3.694586	abuses	-0.0909665
-3.279117	accept	-0.1488857
-3.812523	acceptable	-0.0909665
-3.812523	acceptance	-0.0909665
-3.812523	accepts	-0.0909665
-3.812523	access	-0.0909665
-3.812523	accessible	-0.0909665
-3.812523	accident	-0.09096649
-3.812523	accidents	-0.0909665
-3.812523	accommodated	-0.09096649
-3.812523	accompanying	-0.09096649
-3.812523	accomplished	-0.09096649
-3.812523	accord	-0.0909665
-3.694586	accordance	-0.1810256
-3.812523	accorded	-0.09096649
-3.694586	according	-0.1810256
-3.694586	account	-0.09096649
-3.812523	accumulation	-0.09096649
-3.812523	accurate	-0.09096649
-3.812523	accuse	-0.0909665
-3.812523	accused	-0.09096649
-3.694586	achieve	-0.0909665
-3.694586	achieved	-0.09096649
-3.694586	achieving	-0.09096649
-3.812523	acquitted	-0.09096649
-3.812523	act	-0.09096651
-3.536402	action	-0.09096651
-3.694586	activities	-0.09096649
-3.812523	activity	-0.0909665
-3.812523	actual	-0.09096649
-3.191511	actually	-0.0909665
-3.694586	adapted	-0.09096649
-3.694586	add	-0.09096649
-3.812523	added	-0.0909665
-3.812523	addition	-0.0909665
-3.536402	additional	-0.0909665
-3.694586	additionality	-0.1810256
-3.812523	address	-0.09096649
-3.812523	adequate	-0.0909665
-3.812523	adequately	-0.09096649
-3.694586	adhere	-0.1810256
-3.812523	adjacent	-0.0909665
-3.812523	adjourned	-0.0909665
-3.694586	administration	-0.09096651
-3.694586	administrative	-0.0909665
-3.812523	admiration	-0.09096649
-3.812523	admit	-0.09096649
-3.536402	adopt	-0.3467918
-3.118645	adopted	-0.09096649
-3.812523	adopting	-0.0909665
-3.812523	adoption	-0.09096649
-3.694586	advance	-0.09096651
-3.812523	advertising	-0.0909665
-3.812523	advice	-0.09096649
-3.812523	advise	-0.09096649
-3.812523	advisers	-0.09096649
-3.812523	advisors	-0.0909665
-3.812523	advocates	-0.09096649
-3.694586	affairs	-0.0909665
-3.694586	affect	-0.0909665
-3.388979	affected	-0.2674032
-3.812523	afford	-0.0909665
-3.812523	afresh	-0.09096651
-3.536402	after	-0.09096649
-3.812523	afternoon	-0.0909665
-3.191511	again	-0.1117916
-3.191511	against	-0.1189613
-3.536402	agenda	-0.1189613
-3.812523	aggravates	-0.09096649
-3.536402	ago	-0.1488857
-3.536402	agree	-0.1336658
-3.812523	agreed	-0.09096649
-3.812523	agreement	-0.09096649
-3.812523	agreements	-0.09096649
-3.812523	agrees	-0.0909665
-3.694586	agricultural	-0.0909665
-3.694586	agriculture	-0.09096649
-3.812523	ahern	-0.0909665
-2.909709	aid	-0.1822171
-3.812523	aided	-0.0909665
-3.694586	aims	-0.0909665
-3.812523	air	-0.09096649
-3.812523	alert	-0.0909665
-3.812523	alexander	-0.0909665
-3.812523	aligned	-0.09096649
-3.536402	alike	-0.3467918
-2.475377	all	-0.2434014
-3.812523	alleviate	-0.09096649
-3.812523	allocations	-0.0909665
-3.812523	allow	-0.0909665
-3.812523	allowed	-0.0909665
-3.812523	allowing	-0.0909665
-3.812523	almost	-0.09096649
-3.694586	alone	-0.0909665
-3.812523	along	-0.09096649
-3.279117	already	-0.1094278
-2.490903	also	-0.1331906
-3.812523	although	-0.09096649
-3.191511	always	-0.0909665
-3.694586	am	-0.09096649
-3.694586	ambition	-0.0909665
-3.812523	amend	-0.09096649
-3.694586	amended	-0.0909665
-3.118645	amendment	-0.1924922
-2.769234	amendments	-0.1701588
-3.812523	american	-0.0909665
-3.694586	among	-0.09096649
-3.812523	amount	-0.09096649
-3.812523	amsterdam	-0.0909665
-2.445896	an	-0.1287939
-3.694586	analyse	-0.09096649
-3.812523	analysed	-0.0909665
-3.812523	analyses	-0.0909665
-3.279117	analysis	-0.1614577
-3.812523	anchored	-0.09096651
-1.610775	and	-0.2027346
-3.812523	annexes	-0.09096649
-3.694586	annual	-0.09096649
-3.191511	another	-0.09096649
-3.812523	answer	-0.0909665
-3.536402	answered	-0.09096649
-3.812523	ante	-0.0909665
-3.812523	anti	-0.0909665
-2.833817	any	-0.0909665
-3.812523	anyone	-0.0909665
-3.812523	anything	-0.0909665
-3.812523	anyway	-0.0909665
-3.812523	aparicio	-0.0909665
-3.812523	apart	-0.0909665
-3.812523	apparently	-0.0909665
-3.812523	appeal	-0.0909665
-3.812523	appealing	-0.0909665
-3.812523	appeared	-0.09096651
-3.812523	appears	-0.0909665
-3.812523	applause	-0.0909665
-3.812523	applicable	-0.0909665
-3.388979	applied	-0.09096649
-3.694586	applies	-0.1810256
-3.694586	apply	-0.09096649
-3.812523	appraisal	-0.09096649
-3.694586	appreciate	-0.09096649
-3.694586	appreciation	-0.0909665
-3.812523	approach	-0.0909665
-3.536402	appropriate	-0.09096649
-3.812523	appropriation	-0.0909665
-3.812523	approved	-0.09096649
-3.694586	approving	-0.09096649
-2.226758	are	-0.1815228
-3.191511	area	-0.1427336
-2.800326	areas	-0.231864
-3.812523	argues	-0.09096649
-3.812523	ari	-0.09096649
-3.812523	arms	-0.0909665
-3.812523	army	-0.0909665
-3.812523	around	-0.09096649
-3.812523	arrangement	-0.09096649
-3.812523	arrived	-0.0909665
-3.279117	article	-0.0909665
-2.344658	as	-0.1995186
-3.812523	asia	-0.09096649
-3.118645	ask	-0.1643441
-3.812523	asked	-0.09096649
-3.694586	asking	-0.09096649
-3.694586	aspects	-0.09096651
-3.812523	assassinated	-0.09096649
-3.812523	assessed	-0.09096649
-3.694586	assessing	-0.0909665
-3.812523	assessment	-0.09096649
-3.812523	assessments	-0.0909665
-3.812523	assimilated	-0.09096651
-3.812523	assume	-0.09096649
-3.812523	assure	-0.09096649
-2.431874	at	-0.4205518
-3.694586	attach	-0.09096649
-3.812523	attaches	-0.0909665
-3.812523	attempted	-0.0909665
-3.812523	attend	-0.09096649
-3.191511	attention	-0.2672551
-3.812523	attentive	-0.0909665
-3.812523	attitude	-0.0909665
-3.812523	attracting	-0.0909665
-3.812523	attribute	-0.09096649
-3.812523	austere	-0.0909665
-3.694586	austria	-0.09096651
-3.279117	authorities	-0.09096649
-3.536402	available	-0.09096649
-3.812523	average	-0.0909665
-3.694586	avoid	-0.0909665
-3.812523	awaited	-0.0909665
-3.694586	aware	-0.0909665
-3.812523	away	-0.0909665
-3.812523	azores	-0.09096649
-3.536402	back	-0.0909665
-3.812523	background	-0.09096649
-3.812523	bad	-0.0909665
-3.812523	badly	-0.09096649
-3.536402	balance	-0.2259163
-3.694586	ban	-0.1810256
-3.812523	bank	-0.09096649
-3.694586	banks	-0.09096649
-3.812523	barely	-0.0909665
-3.694586	barriers	-0.1810256
-3.812523	barón	-0.0909665
-3.812523	base	-0.0909665
-3.694586	based	-0.1810256
-3.536402	basic	-0.09096649
-3.191511	basis	-0.3720443
-2.507005	be	-0.1463562
-3.694586	bear	-0.1810256
-2.909709	because	-0.130228
-3.694586	become	-0.0909665
-3.812523	becomes	-0.0909665
-3.812523	becoming	-0.0909665
-2.833817	been	-0.1322276
-3.812523	before	-0.09096649
-3.812523	begin	-0.0909665
-3.812523	behalf	-0.09096649
-3.536402	behind	-0.0909665
-2.833817	being	-0.0909665
-3.812523	belatedly	-0.09096649
-3.812523	belgium	-0.0909665
-3.694586	believe	-0.09096649
-3.812523	belong	-0.09096649
-3.812523	below	-0.0909665
-3.536402	benefit	-0.09096649
-3.812523	benefits	-0.09096651
-3.812523	berend	-0.09096649
-3.812523	berenguer	-0.0909665
-3.812523	berlin	-0.09096649
-3.812523	bernié	-0.09096649
-3.694586	better	-0.09096651
-2.618622	between	-0.2797025
-3.812523	beyond	-0.0909665
-3.812523	bitter	-0.0909665
-3.812523	blame	-0.09096649
-3.812523	bomb	-0.0909665
-3.812523	boost	-0.09096649
-3.812523	boosting	-0.09096649
-3.812523	borders	-0.0909665
-3.812523	born	-0.09096649
-3.191511	both	-0.0909665
-3.812523	bound	-0.0909665
-3.812523	bourlanges	-0.09096649
-3.812523	brake	-0.0909665
-3.812523	brazil	-0.0909665
-3.388979	briefly	-0.1336658
-3.536402	bring	-0.1336658
-3.812523	british	-0.09096649
-3.812523	broadly	-0.09096649
-3.812523	broke	-0.0909665
-3.694586	brought	-0.0909665
-3.812523	brussels	-0.09096649
-3.812523	budgetary	-0.09096649
-3.812523	budgets	-0.09096649
-3.812523	build	-0.0909665
-3.694586	building	-0.0909665
-3.812523	buildings	-0.09096651
-3.694586	bureaucracy	-0.09096651
-3.812523	bureaucratic	-0.0909665
-3.388979	business	-0.09096648
-3.812523	businesses	-0.09096649
-3.056266	but	-0.1287786
-2.333515	by	-0.216848
-3.388979	call	-0.1336658
-3.812523	called	-0.09096649
-2.713024	can	-0.1679372
-3.056266	cannot	-0.1607226
-3.812523	capable	-0.09096649
-3.812523	capacities	-0.0909665
-3.812523	capacity	-0.09096649
-3.812523	capita	-0.09096649
-3.279117	capital	-0.2259163
-3.812523	card	-0.0909665
-3.812523	care	-0.09096649
-3.812523	careful	-0.09096649
-3.812523	carefully	-0.0909665
-3.536402	cargo	-0.09096649
-3.694586	carried	-0.1810256
-3.812523	carrying	-0.0909665
-3.118645	case	-0.2282398
-3.191511	cases	-0.2003083
-3.812523	catalogue	-0.09096649
-3.812523	catastrophic	-0.0909665
-3.694586	cause	-0.09096651
-3.812523	caused	-0.0909665
-3.694586	causes	-0.09096649
-3.812523	cen	-0.0909665
-3.388979	central	-0.1336658
-3.812523	centres	-0.09096649
-3.812523	cern	-0.09096651
-3.191511	certain	-0.1189613
-3.388979	certainly	-0.0909665
-3.812523	certificates	-0.0909665
-3.812523	chairmanship	-0.0909665
-3.812523	challenge	-0.09096649
-3.694586	challenges	-0.0909665
-3.812523	championed	-0.09096649
-3.694586	chance	-0.09096649
-3.536402	change	-0.09096649
-3.812523	changeover	-0.09096649
-3.536402	changes	-0.1488857
-3.812523	channel	-0.09096649
-3.812523	chapeau	-0.09096649
-3.812523	characterised	-0.0909665
-3.812523	check	-0.09096649
-3.812523	children	-0.0909665
-3.812523	chipped	-0.0909665
-3.812523	chosen	-0.0909665
-3.812523	cite	-0.0909665
-3.694586	cities	-0.0909665
-3.279117	citizens	-0.1117916
-3.812523	city	-0.0909665
-3.812523	civil	-0.0909665
-3.694586	claim	-0.0909665
-3.694586	clarity	-0.09096649
-3.191511	clear	-0.1148498
-3.279117	clearly	-0.0909665
-3.694586	climate	-0.09096649
-3.812523	climates	-0.09096649
-3.694586	close	-0.0909665
-3.694586	closed	-0.09096651
-3.812523	closely	-0.0909665
-3.536402	code	-0.1148498
-3.694586	codecision	-0.09096649
-3.812523	coherence	-0.09096651
-3.001731	cohesion	-0.153334
-3.388979	cold	-0.09096649
-3.812523	collate	-0.09096649
-3.812523	colleague	-0.0909665
-3.694586	colleagues	-0.0909665
-3.812523	college	-0.09096649
-3.001731	come	-0.2282398
-3.812523	comes	-0.0909665
-3.694586	coming	-0.0909665
-3.694586	comitology	-0.1810256
-3.812523	commandment	-0.09096649
-3.812523	commend	-0.09096649
-3.812523	commendable	-0.0909665
-3.536402	comment	-0.1488857
-3.812523	commented	-0.0909665
-3.812523	commenting	-0.0909665
-3.279117	comments	-0.0909665
-3.191511	commission	-0.1089183
-3.388979	commissioner	-0.1094278
-3.812523	commitment	-0.0909665
-3.191511	committee	-0.1366674
-3.191511	common	-0.0909665
-3.694586	communication	-0.0909665
-3.388979	community	-0.1247835
-3.191511	companies	-0.09096649
-3.694586	company	-0.0909665
-3.812523	comparison	-0.09096649
-3.812523	compensate	-0.09096649
-3.812523	compete	-0.09096649
-3.812523	competence	-0.09096649
-3.812523	competences	-0.09096649
-3.812523	competent	-0.09096649
-3.812523	competently	-0.09096649
-2.618622	competition	-0.3281355
-3.812523	competition-friendly	-0.09096649
-3.536402	competitive	-0.0909665
-3.388979	competitiveness	-0.1336658
-3.812523	complete	-0.0909665
-3.812523	completed	-0.09096649
-3.812523	completely	-0.0909665
-3.812523	complicated	-0.09096649
-3.812523	compliments	-0.0909665
-3.694586	comply	-0.1810256
-3.812523	comprehensible	-0.0909665
-3.812523	comprehensive	-0.09096649
-3.812523	compromising	-0.09096649
-3.812523	compulsory	-0.0909665
-3.812523	conceded	-0.09096649
-3.812523	concentrating	-0.0909665
-3.536402	concern	-0.09096649
-3.279117	concerned	-0.1643441
-3.191511	concerning	-0.21261
-3.536402	concerns	-0.1488857
-3.812523	conclude	-0.09096649
-3.812523	conclusion	-0.09096649
-3.694586	conclusions	-0.09096649
-3.812523	condemned	-0.0909665
-3.694586	condition	-0.0909665
-3.191511	conditions	-0.1702859
-3.812523	conduct	-0.09096649
-3.694586	conference	-0.0909665
-3.812523	conferred	-0.0909665
-3.812523	confidence	-0.0909665
-3.812523	confirm	-0.09096649
-3.812523	confused	-0.0909665
-3.536402	congratulate	-0.1189613
-3.694586	connection	-0.0909665
-3.694586	consequences	-0.09096649
-3.694586	consequently	-0.09096649
-3.812523	conservative	-0.09096649
-3.812523	consider	-0.0909665
-3.536402	considerable	-0.0909665
-3.812523	considerably	-0.0909665
-3.536402	consideration	-0.1247835
-3.812523	considered	-0.0909665
-3.694586	considering	-0.0909665
-3.812523	considers	-0.09096649
-3.812523	consistently	-0.09096649
-3.812523	consolidation	-0.09096651
-3.812523	constitutional	-0.09096649
-3.812523	constraint	-0.09096649
-3.694586	constructive	-0.0909665
-3.812523	constructively	-0.0909665
-3.812523	consultation	-0.09096649
-3.536402	consumer	-0.1488857
-3.694586	consumers	-0.1810256
-3.536402	contained	-0.1488857
-3.812523	containers	-0.09096649
-3.812523	containing	-0.0909665
-3.812523	contains	-0.09096649
-3.812523	content	-0.0909665
-3.812523	context	-0.09096649
-3.812523	continuation	-0.09096649
-3.191511	continue	-0.3519237
-3.812523	continuing	-0.09096651
-3.812523	contrary	-0.0909665
-3.536402	contribution	-0.3467918
-3.812523	contributions	-0.09096649
-3.812523	controversy	-0.0909665
-3.694586	convergence	-0.09096649
-3.388979	cooperation	-0.1336658
-3.388979	coordination	-0.1336658
-3.812523	cornerstones	-0.09096649
-3.812523	correct	-0.0909665
-3.388979	correctly	-0.0909665
-3.812523	cost-intensive	-0.0909665
-3.812523	costly	-0.09096649
-3.812523	costs	-0.0909665
-3.536402	could	-0.1488857
-3.694586	council	-0.0909665
-3.812523	counted	-0.09096649
-2.687431	countries	-0.2041034
-3.388979	country	-0.1336658
-3.812523	country-specific	-0.09096649
-3.694586	coup	-0.09096649
-3.694586	course	-0.09096649
-3.812523	courts	-0.09096649
-3.812523	covered	-0.0909665
-3.812523	cox	-0.09096649
-3.694586	create	-0.09096649
-3.694586	created	-0.09096649
-3.812523	creates	-0.0909665
-3.694586	creating	-0.0909665
-3.694586	creation	-0.09096651
-3.812523	credibility	-0.0909665
-3.812523	crespo	-0.0909665
-3.694586	criteria	-0.0909665
-3.812523	criticised	-0.09096649
-3.812523	criticising	-0.09096649
-3.812523	cross-border	-0.09096649
-3.812523	crust	-0.0909665
-3.812523	culture	-0.09096649
-3.694586	current	-0.0909665
-3.812523	currently	-0.09096651
-3.694586	customers	-0.1810256
-3.812523	cut	-0.09096649
-3.812523	damage	-0.0909665
-3.812523	damaged	-0.0909665
-3.191511	dangerous	-0.1189613
-3.812523	danish	-0.0909665
-3.812523	daring	-0.09096649
-3.812523	data	-0.0909665
-3.812523	date	-0.0909665
-3.812523	dates	-0.0909665
-3.812523	dawn	-0.09096649
-3.536402	day	-0.0909665
-3.694586	days	-0.1810256
-3.536402	de	-0.0909665
-3.388979	deal	-0.1614577
-3.812523	dealt	-0.09096649
-3.812523	dear	-0.0909665
-2.953287	debate	-0.1761266
-3.536402	debated	-0.09096649
-3.812523	debates	-0.0909665
-3.812523	decade	-0.09096649
-3.536402	december	-0.1488857
-3.694586	decide	-0.0909665
-3.388979	decision	-0.09096649
-3.536402	decisions	-0.09096649
-3.812523	decisive	-0.09096649
-3.812523	decisively	-0.09096649
-3.812523	declare	-0.0909665
-3.536402	declared	-0.0909665
-3.812523	decreased	-0.0909665
-3.812523	deep	-0.09096649
-3.812523	defending	-0.0909665
-3.812523	deficiencies	-0.09096651
-3.812523	define	-0.09096649
-3.812523	defined	-0.0909665
-3.694586	degree	-0.09096651
-3.694586	degrees	-0.1810256
-3.694586	delay	-0.09096649
-3.812523	delayed	-0.09096649
-3.812523	delays	-0.09096651
-3.812523	delegating	-0.09096649
-3.812523	deliberations	-0.0909665
-3.812523	delivered	-0.09096649
-3.694586	demand	-0.0909665
-3.694586	demand-orientated	-0.1810256
-3.812523	democrat	-0.09096649
-3.694586	demonstrate	-0.09096649
-3.812523	denominator	-0.0909665
-3.812523	departments	-0.0909665
-3.812523	depend	-0.0909665
-3.812523	deserves	-0.0909665
-3.812523	desired	-0.0909665
-3.812523	desk	-0.0909665
-3.812523	desperately	-0.09096649
-3.536402	despite	-0.1488857
-3.812523	destroyed	-0.0909665
-3.812523	destructive	-0.09096649
-3.279117	details	-0.1247835
-3.812523	determined	-0.0909665
-3.812523	detriment	-0.09096649
-3.694586	develop	-0.09096649
-3.694586	developed	-0.0909665
-3.694586	developing	-0.0909665
-2.800326	development	-0.2353315
-3.694586	developments	-0.09096649
-3.812523	deviate	-0.0909665
-3.191511	did	-0.4434944
-3.812523	differ	-0.0909665
-3.812523	difference	-0.0909665
-3.388979	differences	-0.1336658
-3.812523	differentiating	-0.09096649
-3.812523	differently	-0.09096649
-3.812523	difficult	-0.0909665
-3.812523	difficulties	-0.09096649
-3.694586	dimension	-0.09096649
-3.812523	direct	-0.0909665
-3.536402	direction	-0.3467919
-3.279117	directive	-0.1336658
-3.694586	directives	-0.09096649
-3.694586	directly	-0.0909665
-3.694586	directorate	-0.0909665
-3.812523	disabled	-0.0909665
-3.812523	disadvantage	-0.09096649
-3.694586	disagreed	-0.0909665
-3.812523	disappearing	-0.0909665
-3.812523	disaster	-0.0909665
-3.812523	disasters	-0.0909665
-3.812523	disbursed	-0.0909665
-3.812523	discover	-0.0909665
-3.812523	discredited	-0.0909665
-3.812523	discuss	-0.09096649
-3.536402	discussed	-0.09096649
-3.694586	discussing	-0.09096649
-3.388979	discussion	-0.09096649
-3.812523	disgraceful	-0.09096649
-3.812523	dismantled	-0.0909665
-3.536402	disparities	-0.1247835
-3.812523	dispose	-0.09096649
-3.812523	disregards	-0.09096649
-3.812523	dissatisfaction	-0.0909665
-3.812523	dissatisfied	-0.09096649
-3.812523	distances	-0.0909665
-3.812523	distinguished	-0.0909665
-3.812523	distort	-0.0909665
-3.812523	distortion	-0.09096649
-3.536402	distributed	-0.0909665
-3.694586	distribution	-0.1810256
-3.812523	disturbing	-0.09096649
-3.812523	diversification	-0.09096649
-3.536402	diversity	-0.1488857
-3.812523	diverted	-0.09096649
-2.769234	do	-0.2508761
-3.812523	document	-0.0909665
-2.833817	does	-0.6730743
-3.694586	doing	-0.09096649
-3.812523	dollar	-0.0909665
-3.812523	domestic	-0.09096649
-3.191511	done	-0.1148498
-3.812523	doubt	-0.0909665
-3.812523	doubtful	-0.0909665
-3.118645	down	-0.1117916
-3.812523	draft	-0.09096649
-3.812523	drafting	-0.0909665
-3.812523	drag	-0.09096649
-3.812523	dragged	-0.09096649
-3.812523	dramatic	-0.09096649
-3.812523	dramatised	-0.0909665
-3.694586	draw	-0.09096649
-3.812523	drawing	-0.0909665
-3.694586	drawn	-0.1810256
-3.812523	drew	-0.0909665
-3.812523	drill	-0.0909665
-3.694586	dropping	-0.1810256
-3.812523	drove	-0.09096649
-3.536402	due	-0.1488857
-3.694586	duisenberg	-0.0909665
-3.694586	during	-0.09096649
-3.812523	dutch	-0.0909665
-3.812523	dwellers	-0.0909665
-3.812523	díez	-0.0909665
-3.388979	each	-0.0909665
-3.812523	earn	-0.0909665
-3.812523	earner	-0.0909665
-3.812523	ease	-0.09096649
-3.812523	easier	-0.09096649
-3.694586	eastern	-0.1488857
-3.694586	ec	-0.09096649
-2.769234	economic	-0.268472
-3.812523	economies	-0.0909665
-3.388979	economy	-0.1117916
-3.812523	ecsc	-0.09096649
-3.812523	edge	-0.09096649
-3.812523	educating	-0.0909665
-3.694586	education	-0.09096649
-3.388979	effect	-0.1247835
-3.279117	effective	-0.1614577
-3.812523	effectiveness	-0.09096649
-3.812523	effects	-0.09096649
-3.694586	efficiency	-0.09096651
-3.812523	efficiently	-0.09096649
-3.812523	effort	-0.0909665
-3.388979	efforts	-0.09096649
-3.536402	either	-0.09096649
-3.812523	elected	-0.09096649
-3.812523	electronically	-0.0909665
-3.694586	elements	-0.09096649
-3.812523	eliminate	-0.0909665
-3.812523	eliminating	-0.0909665
-3.812523	else	-0.0909665
-3.812523	embargo	-0.09096649
-3.812523	emphasis	-0.09096649
-3.812523	emphasises	-0.09096649
-3.812523	employ	-0.0909665
-3.812523	employed	-0.0909665
-3.812523	employees	-0.09096649
-3.812523	employers	-0.09096649
-3.118645	employment	-0.2350704
-3.536402	enable	-0.09096651
-3.812523	enabled	-0.09096649
-3.812523	enacting	-0.09096649
-3.694586	encourage	-0.09096649
-3.812523	encouraging	-0.09096649
-3.388979	end	-0.2003084
-3.812523	endeavour	-0.0909665
-3.812523	endeavouring	-0.0909665
-3.812523	endlessly	-0.0909665
-3.812523	endorse	-0.0909665
-3.812523	endorsed	-0.0909665
-3.812523	energy	-0.09096649
-3.812523	enforce	-0.09096649
-3.812523	enforced	-0.09096649
-3.536402	enforcement	-0.1488857
-3.812523	enforcing	-0.0909665
-3.812523	engaged	-0.09096651
-3.812523	enjoyed	-0.0909665
-3.694586	enlargement	-0.09096649
-3.812523	enlighten	-0.0909665
-3.812523	enormous	-0.09096649
-3.388979	enough	-0.09096649
-3.694586	ensure	-0.1148498
-3.812523	ensures	-0.09096649
-3.812523	ensuring	-0.09096649
-3.812523	entail	-0.09096649
-3.694586	entails	-0.0909665
-3.812523	entered	-0.09096651
-3.812523	enterprises	-0.09096649
-3.694586	entirely	-0.09096651
-3.812523	entrenchment	-0.09096649
-3.694586	entrepreneurial	-0.0909665
-3.694586	entrepreneurship	-0.09096649
-3.694586	environment	-0.0909665
-3.694586	environmental	-0.09096649
-3.694586	envisaged	-0.09096649
-3.812523	envisages	-0.09096649
-3.812523	equal	-0.09096649
-3.694586	equally	-0.0909665
-3.694586	equation	-0.1810256
-3.812523	equitably	-0.09096649
-3.536402	especially	-0.09096649
-3.694586	essential	-0.09096649
-3.812523	essentially	-0.0909665
-3.694586	establish	-0.09096649
-3.694586	established	-0.09096649
-3.694586	establishing	-0.0909665
-3.812523	establishment	-0.09096649
-3.191511	eu	-0.09096651
-3.694586	eur	-0.0909665
-3.812523	euro	-0.09096651
-2.870107	europe	-0.1839778
-2.870107	european	-0.1148498
-3.812523	evaluation	-0.09096649
-3.812523	evans	-0.09096649
-3.056266	even	-0.1471777
-3.812523	event	-0.0909665
-3.812523	events	-0.09096649
-3.812523	eventually	-0.09096649
-3.812523	ever	-0.09096649
-3.388979	every	-0.09096651
-3.812523	everyday	-0.09096649
-3.812523	everyone	-0.09096649
-3.694586	everything	-0.09096649
-3.812523	evolving	-0.0909665
-3.812523	ex	-0.0909665
-3.812523	exacerbates	-0.09096649
-3.694586	examination	-0.1810256
-3.812523	examine	-0.09096649
-3.812523	examined	-0.09096651
-3.536402	example	-0.1336658
-3.279117	excellent	-0.1247835
-3.812523	exceptional	-0.09096649
-3.812523	exceptionally	-0.0909665
-3.812523	exceptions	-0.0909665
-3.812523	exciting	-0.0909665
-3.694586	exclusion	-0.09096649
-3.812523	excuse	-0.0909665
-3.812523	executed	-0.09096649
-3.812523	exemptions	-0.09096649
-3.812523	exercise	-0.09096649
-3.812523	exercised	-0.0909665
-3.812523	existing	-0.0909665
-3.812523	exodus	-0.0909665
-3.812523	expansion	-0.09096649
-3.694586	expect	-0.1810256
-3.812523	expectations	-0.0909665
-3.812523	expected	-0.0909665
-3.812523	expeditiously	-0.0909665
-3.812523	expense	-0.09096649
-3.812523	experience	-0.09096651
-3.694586	experiencing	-0.0909665
-3.812523	experts	-0.09096649
-3.812523	expire	-0.0909665
-3.812523	expired	-0.0909665
-3.812523	expires	-0.0909665
-3.694586	explain	-0.09096649
-3.812523	explained	-0.09096649
-3.812523	explanation	-0.09096651
-3.694586	explanations	-0.09096651
-3.812523	exploit	-0.09096649
-3.812523	explosions	-0.09096649
-3.694586	express	-0.09096649
-3.694586	expressed	-0.09096649
-3.812523	expressing	-0.09096649
-3.812523	extending	-0.09096649
-3.812523	extensive	-0.09096649
-3.694586	extent	-0.0909665
-3.812523	extraordinarily	-0.0909665
-3.279117	extremely	-0.09096649
-3.694586	face	-0.09096651
-3.388979	fact	-0.09096651
-3.812523	factor	-0.09096651
-3.694586	facts	-0.09096649
-3.812523	failed	-0.0909665
-3.812523	failing	-0.09096651
-3.812523	failure	-0.0909665
-3.812523	failures	-0.0909665
-3.812523	fair	-0.09096649
-3.694586	fall	-0.09096649
-3.694586	familiar	-0.1810256
-3.388979	far	-0.09096649
-3.812523	far-reaching	-0.09096649
-3.812523	farm	-0.09096649
-3.812523	farmers	-0.0909665
-3.812523	fashion	-0.0909665
-3.812523	faster	-0.09096649
-3.812523	fault	-0.09096649
-3.812523	favour	-0.09096649
-3.812523	favours	-0.09096649
-3.694586	feasible	-0.0909665
-3.812523	february	-0.0909665
-3.536402	feel	-0.2259163
-3.694586	feet	-0.0909665
-3.812523	fell	-0.0909665
-3.812523	fellow	-0.0909665
-3.812523	festive	-0.0909665
-3.536402	few	-0.0909665
-3.694586	field	-0.09096651
-3.694586	fields	-0.09096651
-3.812523	fifthly	-0.0909665
-3.812523	fifths	-0.09096649
-3.694586	figures	-0.09096649
-3.812523	fill	-0.0909665
-3.812523	final	-0.09096649
-3.694586	finally	-0.1810256
-3.812523	financed	-0.0909665
-3.388979	financial	-0.1247835
-3.812523	financing	-0.0909665
-3.536402	find	-0.09096649
-3.694586	finding	-0.09096649
-3.812523	finer	-0.09096649
-3.812523	finland	-0.0909665
-3.812523	fire	-0.09096651
-3.536402	first	-0.09096649
-3.191511	firstly	-0.2003084
-3.812523	fischler	-0.0909665
-3.536402	fisheries	-0.09096649
-3.812523	fit	-0.09096651
-3.694586	five	-0.09096651
-3.812523	flautre	-0.09096649
-3.694586	flexibility	-0.09096649
-3.812523	flexible	-0.0909665
-3.812523	flexibly	-0.09096649
-3.694586	floor	-0.1810256
-3.694586	focus	-0.1247835
-3.694586	follow	-0.0909665
-3.812523	follow-up	-0.09096649
-3.694586	following	-0.0909665
-3.812523	follows	-0.0909665
-1.949942	for	-0.3148156
-3.694586	force	-0.0909665
-3.812523	forcefully	-0.0909665
-3.812523	forces	-0.09096649
-3.812523	fore	-0.0909665
-3.812523	forefront	-0.0909665
-3.812523	forget	-0.09096649
-3.536402	form	-0.09096649
-3.812523	formally	-0.0909665
-3.694586	forms	-0.1810256
-3.812523	forum	-0.09096649
-3.388979	forward	-0.09096649
-3.812523	foundation	-0.09096649
-3.388979	four	-0.09096649
-3.812523	fourthly	-0.0909665
-3.812523	fracture	-0.09096651
-3.694586	framework	-0.1810256
-3.812523	france	-0.0909665
-3.812523	free	-0.0909665
-3.388979	french	-0.0909665
-3.694586	friday	-0.09096651
-3.812523	friend	-0.0909665
-2.54112	from	-0.3624434
-3.812523	front	-0.09096649
-3.812523	frost	-0.0909665
-3.812523	frost-resistance	-0.0909665
-3.812523	fruits	-0.09096649
-3.812523	fruteau	-0.09096651
-3.536402	full	-0.09096649
-3.812523	fully	-0.0909665
-3.812523	function	-0.0909665
-3.388979	fund	-0.1401234
-3.388979	fundamental	-0.09096649
-3.536402	funding	-0.09096649
-3.279117	funds	-0.1885165
-3.388979	further	-0.09096651
-3.694586	furthermore	-0.09096649
-3.812523	fuster	-0.0909665
-3.388979	future	-0.1247835
-3.812523	gap	-0.09096649
-3.694586	gdp	-0.1488857
-3.536402	general	-0.09096651
-3.694586	generally	-0.09096649
-3.812523	geneva	-0.0909665
-3.812523	gentlemen	-0.0909665
-3.694586	genuine	-0.0909665
-3.812523	geographical	-0.09096649
-3.694586	german	-0.0909665
-3.812523	germany	-0.0909665
-3.812523	gesture	-0.0909665
-3.279117	get	-0.0909665
-3.694586	getting	-0.0909665
-3.388979	give	-0.1094278
-3.056266	given	-0.270602
-3.694586	gives	-0.09096649
-3.812523	gladly	-0.0909665
-3.812523	global	-0.0909665
-3.694586	go	-0.0909665
-3.694586	goal	-0.09096651
-3.812523	goals	-0.09096651
-3.812523	goebbels	-0.0909665
-3.694586	goes	-0.09096651
-3.388979	going	-0.2674032
-3.812523	gonzález	-0.09096649
-3.388979	good	-0.09096649
-3.536402	goods	-0.09096649
-3.812523	gorsel	-0.0909665
-3.812523	governing	-0.0909665
-3.694586	government	-0.09096649
-3.536402	governments	-0.09096651
-3.694586	granted	-0.09096649
-3.812523	grass-roots	-0.0909665
-3.812523	grateful	-0.0909665
-3.388979	great	-0.09096649
-3.118645	greater	-0.0909665
-3.812523	greatest	-0.0909665
-3.812523	greatly	-0.0909665
-3.694586	greece	-0.0909665
-3.812523	grew	-0.09096649
-3.812523	gross	-0.0909665
-3.694586	ground	-0.09096649
-3.812523	grounds	-0.09096649
-3.056266	group	-0.1206656
-3.812523	groups	-0.09096649
-3.812523	grow	-0.0909665
-3.536402	growing	-0.09096649
-3.279117	growth	-0.09096649
-3.812523	guaranteeing	-0.09096649
-3.812523	guarantees	-0.09096651
-3.812523	guidance	-0.0909665
-3.056266	guidelines	-0.155949
-3.812523	gütesiegel	-0.0909665
-3.056266	had	-0.0909665
-3.812523	half	-0.09096649
-3.388979	hand	-0.09096649
-3.812523	happen	-0.0909665
-3.812523	happening	-0.0909665
-3.812523	happens	-0.0909665
-3.812523	happy	-0.09096649
-3.812523	hard	-0.0909665
-3.388979	harmonisation	-0.1336658
-3.812523	harmonising	-0.09096649
-2.31205	has	-0.2427822
-3.812523	hat	-0.09096649
-2.379915	have	-0.250421
-3.536402	having	-0.1488857
-3.536402	he	-0.0909665
-3.812523	heading	-0.09096651
-3.536402	health	-0.1488857
-3.536402	hear	-0.1488857
-3.812523	heard	-0.09096651
-3.812523	hearing	-0.09096649
-3.812523	hears	-0.0909665
-3.694586	heart	-0.09096649
-3.812523	hedge	-0.09096649
-3.812523	hedkvist	-0.0909665
-3.812523	hell	-0.0909665
-3.536402	help	-0.09096649
-3.694586	helped	-0.1810256
-3.812523	hence	-0.09096649
-3.056266	her	-0.1377641
-3.118645	here	-0.1117916
-3.812523	hereby	-0.09096649
-3.812523	hesitant	-0.0909665
-3.812523	hi-tech	-0.09096649
-3.812523	hidden	-0.09096649
-3.694586	high	-0.09096651
-3.812523	higher	-0.09096649
-3.812523	highest	-0.0909665
-3.812523	highlight	-0.09096649
-3.694586	highlighted	-0.0909665
-3.812523	highly	-0.0909665
-3.536402	him	-0.09096649
-3.812523	hinders	-0.09096649
-3.388979	his	-0.1117916
-3.812523	hit	-0.0909665
-3.812523	hold	-0.09096649
-3.812523	holds	-0.09096649
-3.812523	holzmann	-0.09096649
-3.812523	home	-0.09096649
-3.279117	hope	-0.2672551
-3.812523	hopefully	-0.0909665
-3.812523	hospitals	-0.0909665
-3.812523	hot	-0.0909665
-3.812523	hours	-0.0909665
-3.536402	house	-0.1336658
-3.056266	how	-0.1075459
-3.694586	however	-0.1247835
-3.388979	human	-0.0909665
-3.812523	hänsch	-0.09096649
-2.523728	i	-0.3015941
-3.812523	i.e.	-0.0909665
-3.536402	idea	-0.1488857
-3.812523	ideal	-0.09096649
-3.812523	identify	-0.09096649
-3.812523	ideologue	-0.0909665
-2.909709	if	-0.2590389
-3.812523	illegal	-0.09096649
-3.812523	immediate	-0.0909665
-3.694586	impact	-0.0909665
-3.812523	impeding	-0.09096649
-3.812523	imperative	-0.09096649
-3.812523	implement	-0.09096649
-3.388979	implementation	-0.1247835
-3.536402	implemented	-0.0909665
-3.388979	implementing	-0.1247835
-3.118645	importance	-0.1287088
-3.001731	important	-0.1226176
-3.812523	impression	-0.09096649
-3.694586	improve	-0.09096649
-3.536402	improved	-0.09096651
-3.812523	improvement	-0.09096651
-3.388979	improving	-0.1336658
-1.612864	in	-0.400321
-3.694586	in-depth	-0.09096649
-3.812523	inadequate	-0.09096649
-3.812523	inadmissibility	-0.0909665
-3.812523	inadmissible	-0.0909665
-3.812523	inappropriately	-0.09096651
-3.812523	inasmuch	-0.09096649
-3.812523	incentives	-0.09096649
-3.536402	include	-0.09096649
-3.536402	included	-0.09096649
-3.812523	including	-0.0909665
-3.694586	incomes	-0.1810256
-3.812523	inconvenience	-0.09096649
-3.812523	incorporate	-0.0909665
-3.279117	increase	-0.2259163
-3.536402	increased	-0.09096649
-3.536402	increasing	-0.0909665
-3.812523	incumbent	-0.09096649
-3.694586	indeed	-0.1247835
-3.812523	indicated	-0.0909665
-3.812523	indication	-0.09096649
-3.812523	indicator	-0.0909665
-3.694586	indicators	-0.0909665
-3.812523	indispensable	-0.0909665
-3.694586	individual	-0.09096649
-3.812523	individually	-0.0909665
-3.812523	industrial	-0.09096649
-3.812523	industries	-0.09096649
-3.812523	industry	-0.0909665
-3.812523	inequalities	-0.09096649
-3.812523	inequitably	-0.0909665
-3.812523	influence	-0.0909665
-3.694586	inform	-0.09096649
-3.536402	information	-0.09096649
-3.388979	infrastructure	-0.09096649
-3.812523	infrastructures	-0.09096649
-3.812523	inhabitant	-0.09096649
-3.812523	inhabitants	-0.09096649
-3.812523	initial	-0.09096649
-3.536402	initiative	-0.1488857
-3.812523	initiatives	-0.0909665
-3.812523	inject	-0.0909665
-3.812523	inland	-0.0909665
-3.812523	innocent	-0.09096649
-3.812523	inspire	-0.09096649
-3.812523	inspired	-0.0909665
-3.812523	institution	-0.0909665
-3.812523	institutional	-0.09096649
-3.812523	institutions	-0.0909665
-3.812523	instructions	-0.09096649
-3.812523	instructive	-0.09096651
-3.694586	instrument	-0.09096649
-3.694586	instruments	-0.09096649
-3.694586	insufficient	-0.0909665
-3.812523	insularity	-0.0909665
-3.694586	integrated	-0.09096649
-3.694586	intended	-0.09096649
-3.812523	intensifying	-0.09096649
-3.812523	intentions	-0.0909665
-3.812523	inter-company	-0.0909665
-3.812523	interchange	-0.0909665
-3.812523	interest	-0.0909665
-3.536402	interesting	-0.1488857
-3.812523	interfaces	-0.09096649
-3.812523	interfere	-0.09096649
-3.812523	intergovernmental	-0.09096649
-3.812523	interim	-0.0909665
-3.694586	internal	-0.09096649
-3.812523	international	-0.0909665
-3.812523	internet	-0.09096649
-3.812523	interpret	-0.0909665
-3.812523	interpretation	-0.09096649
-3.812523	interregional	-0.09096649
-3.388979	intervention	-0.0909665
-3.812523	interventionism	-0.0909665
-3.812523	interventions	-0.09096649
-2.800326	into	-0.1117916
-3.812523	intrinsically	-0.09096649
-3.694586	introduce	-0.09096649
-3.812523	invest	-0.09096651
-3.812523	investment	-0.0909665
-3.812523	investments	-0.0909665
-3.812523	investor	-0.0909665
-3.812523	invitation	-0.09096649
-3.812523	invite	-0.09096649
-3.812523	involve	-0.09096649
-3.694586	involved	-0.1810256
-3.694586	involvement	-0.09096649
-3.812523	involves	-0.09096649
-3.812523	iron	-0.09096649
-3.812523	irreconcilable	-0.09096649
-3.812523	irreparably	-0.0909665
-3.812523	irresponsible	-0.09096649
-2.035101	is	-0.295338
-3.812523	island	-0.0909665
-3.812523	islander	-0.0909665
-3.694586	islands	-0.09096649
-3.812523	iso	-0.0909665
-3.812523	isolation	-0.0909665
-3.118645	issue	-0.1148498
-3.279117	issues	-0.1148498
-2.31205	it	-0.2815626
-3.812523	italy	-0.09096649
-3.388979	item	-0.1247835
-2.769234	its	-0.1663836
-3.536402	itself	-0.1247835
-3.694586	january	-0.0909665
-3.812523	japan	-0.09096649
-3.536402	job	-0.1488857
-3.388979	jobs	-0.1247835
-3.812523	join	-0.0909665
-3.694586	joint	-0.1810256
-3.694586	jonckheer	-0.09096649
-3.812523	judge	-0.0909665
-3.812523	june	-0.09096649
-2.800326	just	-0.2055351
-3.812523	keen	-0.0909665
-3.694586	keep	-0.09096649
-3.694586	keeping	-0.0909665
-3.812523	kept	-0.0909665
-3.388979	key	-0.0909665
-3.812523	killings	-0.09096651
-3.812523	kilos	-0.09096649
-3.694586	kind	-0.09096649
-3.812523	kinds	-0.09096649
-3.388979	know	-0.09096651
-3.694586	know-how	-0.1810256
-3.812523	knowledge	-0.09096649
-3.812523	known	-0.09096649
-3.812523	koch	-0.09096651
-3.812523	kumar	-0.0909665
-3.812523	labour	-0.0909665
-3.536402	lack	-0.3467918
-3.694586	lacking	-0.09096649
-3.694586	lacks	-0.09096651
-3.812523	ladies	-0.09096649
-3.694586	laid	-0.1810256
-3.812523	lament	-0.09096649
-3.812523	langen	-0.0909665
-3.812523	lanka	-0.09096649
-3.812523	lapland	-0.09096649
-3.388979	large	-0.09096649
-3.812523	largest	-0.09096649
-3.388979	last	-0.09096649
-3.812523	lasted	-0.09096649
-3.812523	lasting	-0.09096649
-3.536402	late	-0.09096649
-3.812523	later	-0.0909665
-3.812523	latest	-0.0909665
-3.694586	latter	-0.09096649
-3.191511	law	-0.1148498
-3.812523	layers	-0.09096649
-3.388979	lead	-0.4717306
-3.812523	learn	-0.0909665
-3.694586	least	-0.09096649
-3.812523	leave	-0.09096649
-3.812523	led	-0.0909665
-3.812523	left	-0.0909665
-3.694586	legal	-0.0909665
-3.812523	legally	-0.0909665
-3.279117	legislation	-0.09096649
-3.536402	legislative	-0.09096649
-3.694586	legitimate	-0.0909665
-3.388979	less	-0.1336658
-3.812523	lesser	-0.09096649
-3.812523	lesson	-0.09096649
-3.388979	let	-0.1336658
-3.812523	letter	-0.0909665
-3.191511	level	-0.2672551
-3.279117	levels	-0.1247835
-3.812523	liberal	-0.0909665
-3.812523	liberals	-0.09096649
-3.812523	lies	-0.09096651
-3.388979	life	-0.09096649
-3.694586	light	-0.09096651
-3.001731	like	-0.2970656
-3.812523	limit	-0.0909665
-3.812523	limited	-0.0909665
-3.812523	line	-0.09096649
-3.812523	lines	-0.0909665
-3.694586	link	-0.0909665
-3.812523	lion	-0.09096649
-3.812523	list	-0.0909665
-3.812523	little	-0.0909665
-3.694586	live	-0.0909665
-3.812523	livelihood	-0.0909665
-3.694586	lives	-0.09096649
-3.694586	living	-0.1336658
-3.536402	local	-0.0909665
-3.812523	logic	-0.0909665
-3.812523	logical	-0.09096649
-3.388979	long	-0.09096651
-3.812523	longstanding	-0.09096649
-3.279117	look	-0.1488857
-3.812523	looked	-0.0909665
-3.694586	looking	-0.0909665
-3.812523	looks	-0.0909665
-3.812523	loose	-0.09096651
-3.812523	losing	-0.09096649
-3.812523	losses	-0.09096651
-3.812523	lot	-0.0909665
-3.812523	loud	-0.09096649
-3.812523	low	-0.0909665
-3.812523	lower	-0.0909665
-3.812523	lowered	-0.0909665
-3.812523	ltcm	-0.0909665
-3.812523	luxembourg	-0.09096649
-3.812523	lynne	-0.0909665
-3.694586	madam	-0.1810256
-2.909709	made	-0.1609849
-3.812523	madeira	-0.0909665
-3.812523	magnificently	-0.0909665
-3.694586	maiden	-0.1810256
-3.694586	main	-0.09096649
-3.812523	mainly	-0.09096649
-3.279117	major	-0.1247835
-3.536402	majority	-0.0909665
-3.191511	make	-0.1167426
-3.536402	makes	-0.0909665
-3.536402	making	-0.0909665
-3.812523	manage	-0.0909665
-3.812523	managed	-0.09096651
-3.694586	manner	-0.0909665
-3.191511	many	-0.1094278
-3.812523	margarine	-0.09096649
-3.812523	margins	-0.09096649
-3.694586	marked	-0.0909665
-3.812523	marker	-0.09096649
-2.953287	market	-0.2127823
-3.812523	marketing	-0.09096649
-3.388979	markets	-0.1336658
-3.812523	marks	-0.0909665
-3.812523	mass	-0.0909665
-3.812523	matched	-0.09096649
-3.812523	materials	-0.09096649
-3.279117	matter	-0.1522164
-3.694586	matters	-0.09096649
-3.812523	maximum	-0.09096649
-2.953287	may	-0.1060123
-3.191511	me	-0.1094278
-3.694586	mean	-0.09096649
-3.812523	meaningful	-0.0909665
-3.388979	means	-0.1614577
-3.812523	measured	-0.09096651
-3.118645	measures	-0.09096649
-3.812523	media	-0.09096649
-3.812523	medium-sized	-0.09096651
-3.812523	meet	-0.0909665
-3.536402	meeting	-0.09096649
-2.800326	member	-0.3386203
-3.279117	members	-0.1247835
-3.694586	memorandums	-0.0909665
-3.694586	mention	-0.09096649
-3.118645	mentioned	-0.1607226
-3.812523	meps	-0.0909665
-3.812523	merely	-0.0909665
-3.812523	mergers	-0.0909665
-3.812523	message	-0.0909665
-3.812523	met	-0.0909665
-3.812523	meteoric	-0.0909665
-3.812523	method	-0.0909665
-3.812523	meticulous	-0.09096649
-3.812523	mexico	-0.0909665
-3.812523	mid-term	-0.09096651
-3.812523	mid-way	-0.09096649
-3.694586	might	-0.1810256
-3.812523	migration	-0.09096649
-3.812523	military	-0.09096649
-3.812523	millennium	-0.0909665
-3.694586	million	-0.0909665
-3.812523	mind	-0.09096649
-3.812523	minds	-0.0909665
-3.812523	minimal	-0.09096649
-3.812523	minimis	-0.09096649
-3.279117	minimum	-0.1247835
-3.812523	ministers	-0.09096649
-3.694586	minute	-0.1488857
-3.812523	minutes	-0.0909665
-3.812523	mistake	-0.0909665
-3.694586	mistaken	-0.09096649
-3.812523	misunderstandings	-0.0909665
-3.812523	mix	-0.09096649
-3.812523	model	-0.0909665
-3.694586	modernisation	-0.09096649
-3.812523	modernised	-0.0909665
-3.812523	modest	-0.0909665
-3.812523	moment	-0.09096649
-3.812523	monday	-0.09096649
-3.694586	monetary	-0.09096649
-3.812523	money	-0.09096649
-3.694586	monies	-0.1810256
-3.812523	monitor	-0.09096649
-3.279117	monopolies	-0.1148498
-3.812523	month	-0.09096651
-3.694586	months	-0.0909665
-3.694586	monti	-0.1810256
-3.812523	moor	-0.0909665
-3.812523	moral	-0.09096649
-2.475377	more	-0.1060123
-3.812523	moreover	-0.0909665
-3.279117	most	-0.09096649
-3.812523	motion	-0.0909665
-3.812523	moves	-0.09096649
-2.663263	mr	-0.2036301
-3.191511	mrs	-0.157733
-3.191511	much	-0.09096651
-3.812523	municipalities	-0.09096651
-2.597912	must	-0.3275562
-3.812523	mutual	-0.0909665
-2.559238	my	-0.1518636
-3.694586	myself	-0.1810256
-3.812523	namely	-0.0909665
-3.056266	national	-0.1247835
-3.812523	nationalisation	-0.0909665
-3.812523	nations	-0.09096649
-3.812523	natural	-0.0909665
-3.812523	nature	-0.0909665
-3.812523	naïve	-0.09096649
-3.694586	necessarily	-0.09096649
-3.056266	necessary	-0.2465593
-3.118645	need	-0.4300362
-3.694586	needed	-0.09096649
-3.812523	needing	-0.09096649
-3.191511	needs	-0.2003083
-3.812523	negative	-0.0909665
-3.694586	negotiations	-0.09096649
-3.812523	neither	-0.09096649
-3.694586	networks	-0.09096651
-3.536402	never	-0.09096649
-3.812523	nevertheless	-0.0909665
-3.056266	new	-0.09096649
-3.812523	newly	-0.09096649
-3.812523	news	-0.09096649
-3.694586	newspaper	-0.0909665
-3.694586	next	-0.0909665
-3.812523	night	-0.09096649
-3.812523	nikitin	-0.0909665
-2.953287	no	-0.100099
-3.812523	no-smoking	-0.0909665
-3.812523	none	-0.09096649
-3.812523	nonetheless	-0.0909665
-3.812523	north	-0.09096649
-3.536402	northern	-0.1336658
-2.475377	not	-0.1627577
-3.812523	note	-0.09096649
-3.694586	nothing	-0.09096649
-3.812523	notice	-0.09096649
-3.812523	notify	-0.09096651
-3.812523	november	-0.0909665
-2.800326	now	-0.1618319
-3.812523	nowadays	-0.0909665
-3.812523	nuisance	-0.0909665
-3.694586	number	-0.1810256
-3.812523	numerous	-0.0909665
-3.812523	object	-0.0909665
-3.812523	objection	-0.09096649
-2.909709	objective	-0.2925403
-3.056266	objectives	-0.0909665
-3.694586	obligation	-0.09096649
-3.694586	obliged	-0.1810256
-3.812523	observation	-0.09096649
-3.812523	observations	-0.0909665
-3.694586	observed	-0.09096649
-3.812523	obstacle	-0.0909665
-3.812523	obtain	-0.0909665
-3.812523	obtaining	-0.0909665
-3.812523	obvious	-0.09096649
-3.812523	obviously	-0.09096649
-3.694586	occasion	-0.0909665
-3.812523	occasions	-0.09096651
-3.812523	occurred	-0.09096649
-1.502546	of	-0.3493223
-3.536402	off	-0.09096649
-3.694586	offer	-0.09096649
-3.812523	offered	-0.0909665
-3.812523	officer	-0.0909665
-3.694586	officials	-0.09096649
-3.812523	offset	-0.0909665
-3.388979	often	-0.09096649
-3.812523	old	-0.09096649
-2.024171	on	-0.3663813
-3.001731	once	-0.1488857
-2.640369	one	-0.1482347
-2.769234	only	-0.1006423
-3.812523	onto	-0.09096649
-3.812523	onus	-0.09096649
-3.812523	open	-0.0909665
-3.812523	opened	-0.09096649
-3.812523	openness	-0.09096649
-3.812523	operability	-0.0909665
-3.694586	operation	-0.1810256
-3.694586	operations	-0.1810256
-3.812523	operators	-0.0909665
-3.388979	opinion	-0.1336658
-3.812523	opinions	-0.09096649
-3.536402	opportunities	-0.0909665
-3.536402	opportunity	-0.1567005
-3.812523	opposite	-0.09096649
-3.694586	optimism	-0.0909665
-3.388979	optimum	-0.09096649
-2.597912	or	-0.1137353
-3.812523	oral	-0.0909665
-3.536402	order	-0.09096649
-3.694586	organisation	-0.0909665
-3.812523	organisations	-0.09096649
-3.191511	other	-0.09096649
-3.694586	others	-0.0909665
-3.694586	ought	-0.09096649
-2.687431	our	-0.1597565
-3.812523	ours	-0.0909665
-3.191511	ourselves	-0.0909665
-3.001731	out	-0.1047383
-3.812523	outcome	-0.09096649
-3.812523	outcomes	-0.0909665
-3.812523	outermost	-0.09096649
-3.812523	outside	-0.09096649
-3.388979	over	-0.0909665
-3.812523	overall	-0.0909665
-3.812523	overriding	-0.09096649
-3.812523	oversight	-0.0909665
-3.191511	own	-0.0909665
-3.694586	ownership	-0.0909665
-3.694586	p.m.	-0.09096649
-3.812523	packaging	-0.09096649
-3.812523	paid	-0.09096649
-3.812523	paint	-0.0909665
-3.812523	palacio	-0.09096651
-3.812523	paper	-0.0909665
-3.694586	paragraph	-0.0909665
-2.663263	parliament	-0.1687509
-3.536402	parliamentary	-0.1336658
-3.812523	parliamentary-speak	-0.0909665
-3.191511	part	-0.2003083
-3.694586	part-session	-0.1810256
-3.812523	part-time	-0.09096649
-3.812523	partially	-0.0909665
-3.812523	participate	-0.09096651
-3.279117	particular	-0.09096649
-3.279117	particularly	-0.2366619
-3.812523	parties	-0.0909665
-3.694586	partnership	-0.09096649
-3.694586	parts	-0.1810256
-3.388979	party	-0.2259163
-3.694586	pass	-0.0909665
-3.812523	passes	-0.09096649
-3.812523	passing	-0.09096649
-3.694586	past	-0.09096651
-3.536402	path	-0.0909665
-3.812523	patience	-0.09096649
-3.694586	pay	-0.1810256
-3.812523	paying	-0.0909665
-2.769234	people	-0.1370083
-3.536402	per	-0.0909665
-3.812523	perceive	-0.0909665
-3.812523	percentage	-0.09096649
-3.536402	perfect	-0.09096649
-3.812523	perfectly	-0.0909665
-3.812523	perhaps	-0.09096649
-3.191511	period	-0.3050975
-3.694586	periodic	-0.1810256
-3.812523	periodical	-0.09096649
-3.812523	peripheral	-0.0909665
-3.812523	permissible	-0.09096649
-3.812523	permission	-0.09096649
-3.812523	permit	-0.09096649
-3.812523	permitted	-0.09096651
-3.536402	personal	-0.0909665
-3.812523	personality	-0.0909665
-3.812523	personally	-0.0909665
-3.812523	perspective	-0.09096649
-3.812523	persuades	-0.0909665
-3.812523	pertaining	-0.0909665
-3.812523	pertains	-0.09096649
-3.812523	petersen	-0.09096649
-3.812523	petition	-0.09096649
-3.694586	phase	-0.09096651
-3.812523	phased	-0.09096649
-3.812523	phasing	-0.09096649
-3.694586	piece	-0.1810256
-3.812523	pillars	-0.09096649
-3.812523	pity	-0.0909665
-3.388979	place	-0.09096651
-3.694586	placed	-0.1810256
-3.812523	planned	-0.09096649
-3.694586	planning	-0.0909665
-3.694586	plans	-0.1810256
-3.812523	played	-0.0909665
-3.812523	players	-0.09096651
-3.812523	plays	-0.0909665
-3.812523	pleasant	-0.0909665
-3.694586	please	-0.0909665
-3.388979	pleased	-0.1336658
-3.694586	plenary	-0.1810256
-3.812523	plooij-van	-0.0909665
-3.812523	poettering	-0.09096649
-2.909709	point	-0.1701588
-3.694586	pointed	-0.1810256
-3.812523	pointing	-0.09096649
-3.001731	points	-0.1924922
-3.191511	policies	-0.09096649
-2.663263	policy	-0.2082356
-3.388979	political	-0.0909665
-3.812523	ponnambalam	-0.0909665
-3.536402	poor	-0.0909665
-3.694586	population	-0.09096649
-3.812523	populations	-0.09096649
-3.812523	ports	-0.09096651
-3.812523	portugal	-0.09096649
-3.388979	position	-0.09096649
-3.812523	positions	-0.0909665
-3.191511	positive	-0.09096651
-3.191511	possible	-0.1488857
-3.812523	possibly	-0.09096649
-3.536402	potential	-0.09096649
-3.694586	poverty	-0.0909665
-3.694586	power	-0.09096649
-3.812523	powerful	-0.09096649
-3.694586	powers	-0.09096651
-3.812523	ppe-de	-0.09096649
-3.536402	practical	-0.0909665
-3.694586	practice	-0.09096649
-3.812523	pre-accession	-0.0909665
-3.536402	precisely	-0.09096649
-3.812523	predecessor	-0.0909665
-3.812523	prepare	-0.09096649
-3.694586	prepared	-0.0909665
-3.812523	prerequisites	-0.0909665
-3.388979	present	-0.0909665
-3.536402	presentation	-0.1488857
-3.536402	presented	-0.09096649
-3.812523	presently	-0.09096649
-3.812523	presents	-0.09096649
-3.812523	presidency	-0.09096649
-3.191511	president	-0.1828994
-3.812523	press	-0.0909665
-3.812523	preussag	-0.09096651
-3.812523	prevails	-0.09096651
-3.812523	prevent	-0.09096649
-3.812523	preventing	-0.09096649
-3.388979	previous	-0.1148498
-3.694586	previously	-0.09096649
-3.812523	price	-0.09096649
-3.812523	prices	-0.09096649
-3.279117	principle	-0.1189613
-3.536402	principles	-0.0909665
-3.812523	prior	-0.0909665
-3.536402	priorities	-0.09096649
-3.388979	priority	-0.1247835
-3.536402	private	-0.1488857
-3.812523	pro-active	-0.09096651
-3.812523	probable	-0.0909665
-3.812523	probably	-0.09096649
-3.191511	problem	-0.1488857
-3.279117	problems	-0.1488857
-3.388979	procedure	-0.1247835
-3.694586	procedures	-0.0909665
-3.694586	proceed	-0.1810256
-3.694586	proceeding	-0.0909665
-3.191511	process	-0.21261
-3.812523	processes	-0.0909665
-3.694586	produce	-0.09096651
-3.694586	produced	-0.09096649
-3.812523	producers	-0.0909665
-3.812523	producing	-0.09096649
-3.694586	product	-0.0909665
-3.812523	productive	-0.0909665
-3.694586	products	-0.09096649
-3.812523	profit	-0.0909665
-3.812523	profits	-0.0909665
-3.388979	programme	-0.1247835
-3.118645	programmes	-0.3378014
-3.694586	programming	-0.09096651
-3.536402	project	-0.09096649
-3.388979	projects	-0.1189613
-3.812523	proliferation	-0.09096649
-3.812523	promise	-0.09096649
-3.812523	promoting	-0.09096649
-3.812523	promotion	-0.09096649
-3.812523	pronounced	-0.09096649
-3.694586	proper	-0.09096649
-3.279117	properly	-0.1247835
-3.812523	proportion	-0.09096649
-3.118645	proposal	-0.2138054
-3.536402	proposals	-0.09096649
-3.536402	propose	-0.0909665
-3.279117	proposed	-0.1189613
-3.812523	proposing	-0.09096649
-3.812523	prosecutor	-0.09096649
-3.812523	protection	-0.0909665
-3.694586	proved	-0.0909665
-3.388979	provide	-0.0909665
-3.388979	provided	-0.0909665
-3.812523	provider	-0.09096649
-3.694586	provides	-0.0909665
-3.812523	province	-0.0909665
-3.694586	provision	-0.09096649
-3.812523	provisions	-0.0909665
-3.812523	pse	-0.09096649
-3.118645	public	-0.1060123
-3.812523	publicly	-0.0909665
-3.812523	pure	-0.09096649
-3.812523	purely	-0.09096649
-3.388979	purpose	-0.09096649
-3.812523	purposes	-0.0909665
-3.812523	pursue	-0.0909665
-3.812523	pursuing	-0.0909665
-3.812523	pushes	-0.0909665
-3.536402	put	-0.1336658
-3.812523	putting	-0.09096649
-3.694586	quaestors	-0.1488857
-3.388979	quality	-0.1247835
-3.812523	quantities	-0.09096649
-3.694586	quarters	-0.09096651
-3.191511	question	-0.09096649
-3.388979	questions	-0.0909665
-3.812523	quick	-0.0909665
-3.694586	quickly	-0.0909665
-3.056266	quite	-0.1075459
-3.812523	quo	-0.0909665
-3.812523	quotation	-0.0909665
-3.812523	quoted	-0.09096649
-3.812523	rack	-0.0909665
-3.812523	radical	-0.09096649
-3.812523	radwan	-0.0909665
-3.812523	rail	-0.09096649
-3.812523	railways	-0.09096649
-3.388979	raise	-0.09096649
-3.694586	raised	-0.09096649
-3.694586	raises	-0.0909665
-3.812523	raising	-0.09096649
-3.812523	rapid	-0.09096649
-3.812523	rapidly	-0.0909665
-3.812523	rapkay	-0.09096649
-3.536402	rapporteur	-0.1148498
-3.812523	rapporteurs	-0.09096649
-3.536402	rate	-0.1488857
-3.812523	rates	-0.0909665
-3.279117	rather	-0.1614577
-3.812523	rating	-0.09096649
-3.812523	ratings	-0.09096649
-3.812523	rationalisation	-0.0909665
-3.812523	re-establishes	-0.09096649
-3.694586	reached	-0.09096649
-3.812523	react	-0.0909665
-3.812523	read	-0.09096649
-3.812523	reading	-0.09096649
-3.812523	reads	-0.09096649
-3.812523	ready	-0.09096651
-3.694586	real	-0.09096651
-3.812523	realise	-0.09096649
-3.812523	reality	-0.09096649
-3.812523	really	-0.0909665
-3.536402	reason	-0.1247835
-3.694586	reasonable	-0.09096649
-3.536402	reasons	-0.09096649
-3.812523	reassure	-0.0909665
-3.694586	received	-0.09096649
-3.694586	recent	-0.0909665
-3.536402	recently	-0.09096648
-3.812523	recession	-0.0909665
-3.812523	recognise	-0.09096649
-3.812523	recognition	-0.09096649
-3.694586	recommendations	-0.0909665
-3.812523	recommended	-0.09096649
-3.812523	reconsider	-0.0909665
-3.812523	record	-0.09096649
-3.812523	records	-0.09096649
-3.694586	red	-0.1810256
-3.812523	redistribute	-0.0909665
-3.812523	redistribution	-0.09096649
-3.812523	reduce	-0.09096649
-3.694586	reduction	-0.09096649
-3.388979	refer	-0.2674032
-3.812523	reference	-0.0909665
-3.388979	referred	-0.4717306
-3.812523	referring	-0.0909665
-3.812523	reflect	-0.09096649
-3.279117	reform	-0.1247835
-3.812523	reforms	-0.09096649
-3.812523	refuse	-0.0909665
-3.694586	regard	-0.09096651
-3.118645	regarding	-0.3720443
-3.812523	regardless	-0.09096649
-3.812523	regards	-0.09096649
-3.812523	region	-0.09096649
-2.740221	regional	-0.2601277
-2.740221	regions	-0.2554926
-3.694586	register	-0.0909665
-3.812523	regret	-0.0909665
-3.812523	regular	-0.0909665
-3.812523	regulate	-0.09096649
-3.536402	regulation	-0.1488857
-3.118645	regulations	-0.09096649
-3.812523	regulatory	-0.09096649
-3.812523	reinforces	-0.09096649
-3.812523	reinstated	-0.0909665
-3.812523	reiterate	-0.09096649
-3.812523	reiterated	-0.0909665
-3.812523	reject	-0.09096649
-3.812523	rejected	-0.09096649
-3.812523	rejection	-0.09096649
-3.812523	relate	-0.09096649
-3.536402	related	-0.09096649
-3.536402	relates	-0.3467918
-3.279117	relating	-0.5686406
-3.812523	relation	-0.0909665
-3.812523	relations	-0.09096649
-3.694586	relationships	-0.09096649
-3.694586	relative	-0.0909665
-3.812523	relevant	-0.0909665
-3.812523	reliable	-0.09096649
-3.694586	reluctantly	-0.09096649
-3.812523	remain	-0.0909665
-3.694586	remains	-0.09096649
-3.536402	remember	-0.09096649
-3.694586	remind	-0.1488857
-3.812523	reminiscent	-0.0909665
-3.812523	remit	-0.0909665
-3.694586	remote	-0.0909665
-3.812523	remoteness	-0.0909665
-3.812523	removing	-0.09096649
-3.812523	renew	-0.09096649
-3.812523	renewal	-0.09096651
-3.812523	renovation	-0.09096649
-3.812523	reopen	-0.09096649
-3.812523	repair	-0.09096649
-3.812523	repayment	-0.0909665
-3.812523	repeat	-0.09096649
-3.812523	replaced	-0.0909665
-2.578144	report	-0.273731
-3.056266	reports	-0.0909665
-3.812523	represent	-0.0909665
-3.812523	representatives	-0.09096649
-3.279117	request	-0.1148498
-3.694586	requested	-0.09096649
-3.812523	requesting	-0.09096649
-3.694586	requests	-0.09096649
-3.536402	require	-0.09096651
-3.812523	required	-0.0909665
-3.279117	requirements	-0.1189613
-3.812523	requires	-0.09096649
-3.279117	research	-0.1488857
-3.812523	reservation	-0.09096649
-3.812523	reservations	-0.0909665
-3.812523	resolution	-0.09096649
-3.279117	resources	-0.1247835
-3.536402	respect	-0.0909665
-3.812523	respectfully	-0.09096649
-3.812523	respecting	-0.09096649
-3.812523	respects	-0.09096649
-3.388979	respond	-0.1336658
-3.812523	response	-0.0909665
-3.812523	responsibilities	-0.09096649
-3.536402	responsibility	-0.0909665
-3.388979	responsible	-0.2674032
-3.812523	restrictions	-0.09096651
-3.812523	restructuring	-0.0909665
-3.536402	result	-0.1336658
-3.694586	results	-0.09096649
-3.812523	resumed	-0.09096649
-3.812523	resumption	-0.09096649
-3.812523	retabled	-0.09096649
-3.694586	retrodisplacement	-0.1810256
-3.694586	return	-0.0909665
-3.812523	reunion	-0.0909665
-3.812523	review	-0.09096651
-3.812523	revitalising	-0.0909665
-3.812523	rich	-0.09096649
-3.279117	right	-0.09096649
-3.812523	right-wing	-0.09096649
-3.694586	rightly	-0.09096651
-3.694586	rise	-0.0909665
-3.812523	risk	-0.09096649
-3.388979	risks	-0.1336658
-3.694586	road	-0.09096649
-3.694586	roads	-0.09096649
-3.812523	robert	-0.0909665
-3.279117	role	-0.2259163
-3.812523	room	-0.09096649
-3.694586	rose	-0.0909665
-3.812523	round	-0.09096649
-3.812523	route	-0.09096649
-3.536402	rule	-0.0909665
-3.118645	rules	-0.1287088
-3.812523	ruling	-0.09096649
-3.118645	rural	-0.3217545
-3.812523	russia	-0.0909665
-3.812523	s	-0.0909665
-2.800326	safety	-0.1547638
-3.536402	said	-0.09096649
-3.812523	same	-0.09096649
-3.812523	satisfactorily	-0.0909665
-3.812523	satisfied	-0.0909665
-3.812523	satisfy	-0.09096649
-3.694586	save	-0.0909665
-3.812523	saving	-0.09096649
-3.694586	savings	-0.0909665
-3.279117	say	-0.1117916
-3.694586	saying	-0.0909665
-3.812523	says	-0.09096649
-3.812523	scenario	-0.09096649
-3.812523	scheduled	-0.09096649
-3.812523	schemes	-0.0909665
-3.812523	schools	-0.0909665
-3.812523	schroedter	-0.09096649
-3.812523	scope	-0.09096649
-3.694586	scoreboard	-0.09096651
-3.812523	sea	-0.0909665
-3.812523	seasonal	-0.09096649
-3.694586	second	-0.1247835
-3.694586	secondly	-0.1810256
-3.694586	section	-0.1810256
-3.118645	sector	-0.1954068
-3.812523	sectoral	-0.09096649
-3.812523	sectors	-0.0909665
-3.191511	see	-0.1247835
-3.812523	seeking	-0.09096649
-3.388979	seem	-0.2259163
-3.388979	seems	-0.1336658
-3.536402	seen	-0.09096649
-3.812523	segni	-0.0909665
-3.812523	self-restraint	-0.09096651
-3.812523	self-supporting	-0.0909665
-3.812523	send	-0.0909665
-3.694586	sense	-0.1488857
-3.812523	sensible	-0.09096649
-3.812523	seppänen	-0.0909665
-3.694586	september	-0.09096651
-3.694586	serious	-0.0909665
-3.694586	seriously	-0.09096651
-3.812523	serves	-0.0909665
-3.812523	service	-0.0909665
-3.279117	services	-0.09096651
-3.812523	session	-0.0909665
-3.694586	set	-0.0909665
-3.812523	set-piece	-0.0909665
-3.812523	seven	-0.09096649
-3.812523	seventh	-0.09096649
-3.536402	several	-0.0909665
-3.812523	severely	-0.0909665
-3.388979	shall	-0.1075459
-3.694586	shape	-0.0909665
-3.694586	share	-0.0909665
-3.812523	she	-0.09096649
-3.812523	shifting	-0.09096649
-3.812523	shipment	-0.0909665
-3.694586	ships	-0.09096649
-3.694586	short	-0.0909665
-3.812523	shortage	-0.09096649
-3.812523	shortly	-0.0909665
-2.640369	should	-0.2746433
-3.812523	showing	-0.0909665
-3.536402	shown	-0.0909665
-3.694586	shows	-0.1810256
-3.694586	signed	-0.09096649
-3.812523	significance	-0.0909665
-3.536402	significant	-0.09096649
-3.812523	signs	-0.09096649
-3.812523	silence	-0.0909665
-3.694586	simple	-0.09096649
-3.694586	simply	-0.09096649
-3.812523	simpson	-0.09096649
-3.812523	sin	-0.0909665
-3.191511	since	-0.1060123
-3.812523	single	-0.0909665
-3.388979	sitting	-0.0909665
-3.191511	situation	-0.1247835
-3.812523	situations	-0.09096649
-3.536402	sixth	-0.1336658
-3.812523	skills	-0.09096649
-3.812523	slim	-0.0909665
-3.812523	slow	-0.09096649
-3.812523	slowly	-0.09096651
-3.191511	small	-0.3050976
-3.694586	smaller	-0.1810256
-3.694586	smes	-0.09096651
-2.713024	so	-0.1553588
-2.909709	social	-0.09961357
-3.812523	socialist	-0.09096649
-3.694586	socialists	-0.09096649
-3.812523	socially	-0.09096649
-3.812523	societies	-0.09096649
-3.388979	society	-0.09096649
-3.812523	sole	-0.0909665
-3.536402	solution	-0.09096649
-3.694586	solutions	-0.09096649
-3.056266	some	-0.2021327
-3.694586	someone	-0.09096649
-3.279117	something	-0.1148498
-3.812523	sometimes	-0.09096649
-3.812523	somewhat	-0.0909665
-3.694586	soon	-0.09096651
-3.812523	sorely	-0.09096649
-3.812523	sorry	-0.0909665
-3.694586	sound	-0.09096649
-3.694586	south	-0.09096651
-3.812523	southern	-0.09096649
-3.812523	spanish	-0.09096649
-3.812523	sparse	-0.0909665
-3.388979	speak	-0.1189613
-3.812523	speaker	-0.09096651
-3.388979	speakers	-0.1336658
-3.536402	speaking	-0.09096649
-3.812523	special	-0.09096649
-3.191511	specific	-0.0909665
-3.536402	specifically	-0.09096649
-3.812523	specify	-0.09096649
-3.812523	speculation	-0.0909665
-3.812523	speech	-0.0909665
-3.812523	spend	-0.09096649
-3.536402	spent	-0.09096649
-3.694586	sphere	-0.09096649
-3.812523	spheres	-0.09096649
-3.388979	spirit	-0.1336658
-3.812523	spoke	-0.0909665
-3.812523	spring	-0.09096649
-3.812523	squeezed	-0.09096649
-3.812523	sri	-0.0909665
-3.812523	stability	-0.09096649
-3.812523	stage	-0.09096649
-3.812523	stagnation	-0.09096649
-3.812523	staircases	-0.0909665
-3.279117	stand	-0.09096649
-3.812523	standard	-0.09096649
-3.388979	standards	-0.09096652
-3.812523	stands	-0.09096649
-3.536402	start	-0.09096649
-2.597912	state	-0.5208914
-3.694586	stated	-0.09096649
-3.694586	statement	-0.09096649
-3.279117	states	-0.1387694
-3.694586	status	-0.09096649
-3.536402	steel	-0.2674032
-3.812523	steer	-0.09096649
-3.812523	step	-0.09096649
-3.812523	steps	-0.09096649
-3.056266	still	-0.09096649
-3.812523	stimulating	-0.0909665
-3.812523	stop	-0.0909665
-3.812523	storms	-0.0909665
-3.812523	straight	-0.0909665
-3.812523	straighten	-0.09096649
-3.812523	strasbourg	-0.09096649
-3.536402	strategic	-0.09096649
-3.812523	strategically	-0.0909665
-3.812523	strategies	-0.09096649
-3.694586	strategy	-0.0909665
-3.694586	strengthen	-0.09096649
-3.694586	strengthened	-0.09096649
-3.812523	strengthening	-0.09096649
-3.694586	stressed	-0.09096649
-3.812523	stressing	-0.0909665
-3.812523	stretched	-0.09096649
-3.812523	strict	-0.09096649
-3.812523	strike	-0.0909665
-3.812523	stringent	-0.09096649
-3.812523	strongest	-0.09096649
-3.812523	strongly	-0.0909665
-2.800326	structural	-0.2438828
-3.812523	structurally	-0.0909665
-3.812523	structures	-0.0909665
-3.812523	study	-0.09096649
-3.536402	subject	-0.09096649
-3.536402	submitted	-0.09096649
-3.812523	subsequently	-0.09096649
-3.536402	subsidiarity	-0.09096651
-3.812523	subsidiary	-0.09096649
-3.694586	subsidies	-0.09096649
-3.812523	subsidy	-0.09096649
-3.812523	substantial	-0.0909665
-3.812523	substantive	-0.09096649
-3.812523	substitute	-0.09096649
-3.812523	subvert	-0.09096649
-3.812523	succeed	-0.0909665
-3.812523	succeeded	-0.09096651
-3.694586	success	-0.0909665
-3.694586	successful	-0.0909665
-3.812523	successive	-0.0909665
-2.953287	such	-0.289625
-3.694586	sufficient	-0.09096651
-3.536402	sufficiently	-0.09096649
-3.812523	suggest	-0.09096649
-3.694586	suggested	-0.09096651
-3.812523	suggestions	-0.0909665
-3.812523	summarise	-0.0909665
-3.812523	sums	-0.09096649
-3.812523	superb	-0.0909665
-3.694586	supervise	-0.0909665
-3.812523	supervision	-0.0909665
-3.812523	supplements	-0.0909665
-3.388979	supply	-0.2674032
-3.118645	support	-0.1287088
-3.812523	supported	-0.0909665
-3.536402	supporting	-0.0909665
-3.812523	supports	-0.09096649
-3.812523	supposedly	-0.09096649
-3.812523	surely	-0.0909665
-3.812523	survey	-0.09096649
-3.536402	sustainable	-0.1488857
-3.812523	sweden	-0.0909665
-3.812523	system	-0.0909665
-3.812523	systematic	-0.0909665
-3.812523	systems	-0.09096649
-3.812523	sánchez	-0.0909665
-3.191511	tabled	-0.1148498
-3.812523	tailor-made	-0.09096649
-3.056266	take	-0.2091521
-3.191511	taken	-0.1607225
-3.536402	takes	-0.09096649
-3.694586	taking	-0.0909665
-3.812523	talk	-0.09096649
-3.812523	tampere	-0.0909665
-3.812523	tankers	-0.0909665
-3.812523	tape	-0.09096649
-3.812523	targeted	-0.0909665
-3.694586	tax	-0.09096649
-3.694586	taxation	-0.09096649
-3.536402	technical	-0.0909665
-3.812523	technological	-0.09096649
-3.812523	technology	-0.09096649
-3.812523	television	-0.09096649
-3.388979	tell	-0.1810256
-3.812523	telling	-0.0909665
-3.812523	temperatures	-0.0909665
-3.812523	tend	-0.0909665
-3.812523	tenets	-0.09096649
-3.536402	term	-0.09096649
-3.812523	terminating	-0.09096649
-3.536402	terms	-0.1488857
-3.812523	terribly	-0.0909665
-3.812523	territory	-0.09096649
-3.694586	test	-0.09096651
-3.812523	tested	-0.0909665
-3.812523	text	-0.09096649
-3.118645	than	-0.09096649
-3.694586	thank	-0.09096649
-3.812523	thanking	-0.09096649
-1.910819	that	-0.3575539
-1.61707	the	-0.266173
-2.640369	their	-0.1183342
-2.953287	them	-0.1247835
-3.536402	themselves	-0.09096649
-2.953287	then	-0.1345049
-3.812523	theory	-0.09096649
-2.559238	there	-0.3172936
-3.812523	thereby	-0.09096649
-2.800326	therefore	-0.1060123
-2.687431	these	-0.1444207
-2.769234	they	-0.2448075
-3.388979	thing	-0.09096649
-3.536402	things	-0.09096649
-3.536402	think	-0.1148498
-3.536402	thinking	-0.1189613
-3.694586	third	-0.09096649
-3.812523	thirdly	-0.0909665
-2.148258	this	-0.2098145
-3.812523	thorough	-0.09096649
-3.056266	those	-0.0909665
-3.694586	though	-0.0909665
-3.812523	thought	-0.09096649
-3.812523	thought-out	-0.09096649
-3.812523	thousands	-0.09096649
-3.694586	three	-0.09096651
-3.388979	through	-0.09096649
-3.812523	throughout	-0.09096649
-3.812523	thursday	-0.09096651
-3.388979	thus	-0.09096649
-2.870107	time	-0.2188258
-3.812523	time-consuming	-0.09096649
-3.812523	times	-0.09096649
-3.812523	timetable	-0.09096649
-1.588444	to	-0.3082342
-2.769234	today	-0.1954068
-3.694586	together	-0.0909665
-3.118645	tomorrow	-0.1401234
-2.870107	too	-0.09096649
-3.694586	tool	-0.0909665
-3.812523	top	-0.09096649
-3.812523	topical	-0.09096649
-3.694586	total	-0.09096651
-3.812523	totalling	-0.09096649
-3.694586	totally	-0.0909665
-3.118645	towards	-0.1148498
-3.812523	towns	-0.09096649
-3.812523	track	-0.09096649
-3.812523	traditional	-0.09096649
-3.694586	traffic	-0.09096649
-3.812523	training	-0.0909665
-3.536402	transit	-0.1488857
-3.279117	transparency	-0.1189613
-3.694586	transparent	-0.1810256
-3.812523	transpired	-0.09096649
-2.953287	transport	-0.2317445
-3.812523	transportation	-0.09096649
-3.694586	transported	-0.09096649
-3.812523	treat	-0.09096649
-3.694586	treatment	-0.09096649
-3.536402	treaty	-0.09096649
-3.536402	true	-0.0909665
-3.812523	tuesday	-0.0909665
-3.694586	turn	-0.0909665
-3.812523	turned	-0.0909665
-3.812523	twenty-five	-0.09096649
-2.953287	two	-0.1422053
-3.812523	tying	-0.0909665
-3.694586	type	-0.09096649
-3.812523	types	-0.09096649
-3.812523	uk	-0.09096649
-3.812523	ultimate	-0.09096649
-3.812523	ultraliberal	-0.09096649
-3.694586	unable	-0.1810256
-3.812523	unacceptable	-0.0909665
-3.812523	unacceptably	-0.09096649
-3.536402	unanimously	-0.0909665
-3.812523	unavailable	-0.0909665
-3.812523	unclear	-0.0909665
-3.812523	uncontrolled	-0.0909665
-3.191511	under	-0.1189613
-3.812523	undergone	-0.0909665
-3.812523	underlying	-0.09096649
-3.812523	undermine	-0.09096649
-3.812523	understand	-0.0909665
-3.694586	undoubtedly	-0.0909665
-3.191511	unemployment	-0.09096649
-3.812523	uneven	-0.0909665
-3.812523	unfavourable	-0.09096649
-3.812523	unfortunate	-0.09096649
-3.812523	unfortunately	-0.0909665
-3.812523	unified	-0.09096649
-3.812523	uniform	-0.0909665
-3.812523	unilaterally	-0.09096649
-3.812523	unimpeded	-0.0909665
-3.388979	union	-0.122591
-3.812523	united	-0.0909665
-3.812523	unjustifiable	-0.0909665
-3.812523	unjustified	-0.0909665
-3.812523	unknown	-0.0909665
-3.694586	unlawful	-0.09096651
-3.812523	unnecessary	-0.0909665
-3.694586	until	-0.09096651
-3.001731	up	-0.1924922
-3.812523	upgrading	-0.09096649
-3.812523	upheld	-0.0909665
-3.279117	upon	-0.09096649
-3.812523	upturn	-0.09096651
-3.191511	urban	-0.1189613
-3.536402	urge	-0.2674032
-3.812523	urged	-0.0909665
-3.812523	urgency	-0.0909665
-3.812523	urgent	-0.0909665
-2.687431	us	-0.2359817
-3.279117	use	-0.3643132
-3.279117	used	-0.3643132
-3.812523	useful	-0.09096649
-3.812523	using	-0.09096649
-3.812523	usual	-0.09096649
-3.812523	utilisation	-0.0909665
-3.812523	vague	-0.09096649
-3.694586	valuable	-0.0909665
-3.812523	value	-0.09096649
-3.812523	varies	-0.0909665
-3.694586	various	-0.09096649
-3.694586	vast	-0.09096651
-3.694586	vatanen	-0.09096649
-3.812523	ventilators	-0.0909665
-2.618622	very	-0.1031864
-3.812523	via	-0.09096649
-3.812523	viability	-0.09096649
-3.812523	viable	-0.0909665
-3.812523	vice-president	-0.0909665
-3.279117	view	-0.1189613
-3.812523	viewed	-0.09096649
-3.812523	views	-0.0909665
-3.812523	vigilance	-0.09096649
-3.812523	vigorously	-0.09096649
-3.812523	visit	-0.09096649
-3.812523	visited	-0.09096649
-3.812523	vital	-0.0909665
-3.812523	volatile	-0.0909665
-3.812523	volume	-0.09096649
-3.812523	von	-0.0909665
-3.118645	vote	-0.1775064
-3.536402	voted	-0.09096649
-3.536402	votes	-0.09096649
-3.812523	voting	-0.09096649
-3.812523	wage	-0.0909665
-3.279117	wales	-0.09096651
-3.388979	want	-0.1336658
-3.812523	wants	-0.0909665
-3.812523	warning	-0.09096649
-2.663263	was	-0.1340572
-3.812523	waste	-0.0909665
-3.812523	water	-0.09096649
-3.812523	watered	-0.09096649
-3.812523	watering-down	-0.09096649
-3.812523	waterway	-0.0909665
-2.953287	way	-0.1726033
-3.536402	ways	-0.1488857
-2.405118	we	-0.2867857
-3.812523	weak	-0.09096649
-3.812523	weaken	-0.09096649
-3.812523	weakest	-0.0909665
-3.694586	weakness	-0.0909665
-3.694586	wealth	-0.09096649
-3.812523	web	-0.0909665
-3.536402	wednesday	-0.09096649
-3.812523	weeks	-0.0909665
-3.812523	weight	-0.09096649
-3.812523	welcome	-0.09096649
-3.812523	welcomed	-0.0909665
-3.812523	welfare	-0.0909665
-3.279117	well	-0.1189613
-3.812523	well-intentioned	-0.09096649
-2.953287	were	-0.102744
-2.800326	what	-0.2795748
-3.812523	whatever	-0.09096649
-2.800326	when	-0.2562437
-2.800326	where	-0.1839778
-3.812523	whereas	-0.0909665
-3.191511	whether	-0.0909665
-2.272063	which	-0.2964208
-3.694586	while	-0.0909665
-3.812523	whilst	-0.09096649
-3.694586	white	-0.1810256
-2.953287	who	-0.1844011
-3.694586	whole	-0.1488857
-3.812523	wholehearted	-0.09096649
-3.536402	whose	-0.0909665
-3.118645	why	-0.0909665
-3.812523	wide	-0.0909665
-3.812523	widen	-0.0909665
-2.431874	will	-0.2220357
-3.812523	willing	-0.0909665
-3.191511	wish	-0.1189613
-3.694586	wishes	-0.0909665
-3.812523	wishing	-0.0909665
-2.25337	with	-0.3135931
-3.536402	withdrawn	-0.3467918
-2.713024	within	-0.3417777
-3.388979	without	-0.1336658
-3.812523	witnessed	-0.0909665
-3.812523	wogau	-0.09096649
-3.812523	women	-0.09096649
-3.812523	wonder	-0.09096649
-3.812523	wording	-0.09096649
-3.694586	words	-0.09096649
-2.833817	work	-0.1978909
-3.812523	workable	-0.09096649
-3.694586	workers	-0.09096651
-3.118645	working	-0.1401234
-3.536402	world	-0.0909665
-3.694586	worse	-0.0909665
-3.812523	worst	-0.0909665
-3.812523	worthwhile	-0.09096649
-2.833817	would	-0.1734592
-3.812523	writing	-0.09096649
-3.812523	wrong	-0.0909665
-3.812523	wrongly	-0.09096649
-3.812523	wrote	-0.0909665
-3.812523	wulf-mathies	-0.0909665
-3.812523	wurtz	-0.09096649
-3.812523	wynn	-0.0909665
-3.812523	xviiith	-0.09096649
-3.694586	year	-0.09096651
-3.536402	years	-0.09096649
-3.694586	yes	-0.1810256
-3.536402	yesterday	-0.09096649
-3.536402	yet	-0.09096649
-2.523728	you	-0.1739357
-3.694586	young	-0.1810256
-2.870107	your	-0.1117916
-3.812523	yourself	-0.0909665
-3.812523	zero	-0.09096649
-3.812523	zimeray	-0.0909665
-3.388979	zoning	-0.09096649

\2-grams:
-1.051338	" .
-1.317429	" :
-1.324149	" coup
-1.173786	" in
-1.002595	% .
-0.6028305	% of
-2.168842	' greatest
-2.168248	' incomes
-2.167153	' meeting
-2.159973	' national
-2.168842	' naïve
-0.1116832	' s	-0.1320807
-1.32349	's agenda	-0.09864522
-1.322619	's decision
-1.324506	's motion
-1.321749	's view
-1.417689	( 1
-1.419861	( 2
-1.42113	( applause
-1.402784	( parliament	-0.1645072
-1.241224	( the
-0.286274	) </s>
-1.056005	) of	-0.1645072
-1.672721	) president
-3.452044	, 166
-3.452044	, 1993
-3.452044	, 1994
-3.452044	, 95
-1.702927	, a
-3.452044	, above
-3.452044	, access
-3.452044	, accessible
-3.404123	, after
-3.1691	, aid
-2.433402	, all
-3.452044	, although
-3.434607	, among
-2.858446	, an
-1.255617	, and	-0.06175312
-3.452044	, annexes
-3.125942	, any
-3.452044	, apparently
-2.679193	, are
-1.499795	, as	-0.1066017
-3.452044	, asia
-2.152471	, at
-3.434607	, austria
-3.434607	, based
-2.689585	, be
-2.830499	, because
-3.125942	, been
-2.213313	, both
-3.452044	, bureaucratic
-1.563936	, but	-0.1333584
-2.3898	, by
-3.050688	, can
-3.366796	, central
-3.452044	, climates
-3.434607	, colleagues
-2.115109	, commissioner	-0.7014624
-2.737232	, competition
-2.885907	, concerning
-3.434607	, consumers
-3.452044	, contrary
-2.932729	, created
-3.452044	, cut
-3.452044	, dates
-3.452044	, democrat	-0.1645072
-3.404123	, despite
-3.086687	, do
-2.810174	, does	-0.0389868
-3.434607	, during
-2.922897	, either	-0.1645072
-3.452044	, entail
-2.558123	, especially	-0.1009509
-3.146985	, europe
-2.531192	, even	-0.1021097
-3.452044	, exacerbates
-3.452044	, exceptional
-3.434607	, familiar
-3.452044	, finland
-2.922897	, first	-0.5403948
-3.300576	, firstly
-1.8014	, for	-0.1449628
-3.366796	, french
-3.366796	, give
-3.366796	, going
-2.382322	, has
-2.806237	, have
-3.404123	, he
-3.404123	, health
-3.452044	, hearing
-3.452044	, hospitals
-1.686205	, however	-0.6409101
-3.366796	, human
-1.124888	, i	-0.2967955
-3.452044	, i.e.
-1.841248	, if	-0.05789174
-1.388641	, in	-0.1148269
-3.452044	, inappropriately
-2.56464	, including
-2.56234	, indeed
-3.366796	, infrastructure
-2.060344	, is	-0.05582927
-1.626592	, it	-0.2830777
-3.105871	, just
-3.452044	, known
-3.434607	, lacks
-2.938143	, ladies	-0.1645072
-3.452044	, led
-2.552601	, let	-0.415456
-3.452044	, lies
-3.217026	, like
-3.366796	, long
-3.452044	, ltcm
-2.932729	, madam	-0.1645072
-3.1691	, made
-3.452044	, mainly
-2.897891	, monopolies
-2.674798	, more
-1.557786	, mr	-0.1317682
-1.959033	, mrs	-0.2359761
-2.944016	, my
-3.452044	, namely
-3.270904	, need
-3.192402	, no
-2.274927	, not
-3.452044	, object
-1.659845	, of	-0.4019871
-2.932729	, offer
-1.983096	, on	-0.1475276
-2.851822	, once	-0.1645072
-2.47265	, one
-2.18417	, our
-3.434607	, paragraph
-2.547149	, particularly	-0.0993603
-3.452044	, phased
-3.434607	, please
-3.452044	, pointing
-3.300576	, positive
-3.404123	, practical
-3.366796	, provided
-3.452044	, rail
-3.366796	, raise
-3.332425	, rather
-3.270904	, regarding
-2.938143	, regardless	-0.1645072
-3.366796	, responsible
-3.452044	, restrictions
-3.452044	, robert
-3.434607	, save
-3.434607	, savings
-3.434607	, secondly	-0.1645072
-3.366796	, seem
-3.434607	, simply
-2.111121	, since
-3.300576	, small
-3.050688	, so
-3.434607	, someone
-3.332425	, something
-3.452044	, sparse
-3.404123	, speaking
-3.404123	, specifically
-2.72892	, state	-0.1645072
-3.24313	, still
-3.404123	, strategic
-3.452044	, strengthening
-3.105871	, structural
-2.84103	, such	-0.1645072
-3.404123	, sustainable
-3.452044	, sweden
-2.195439	, that
-1.107167	, the	-0.0820328
-3.001733	, their
-2.103251	, then	-0.04701057
-1.877795	, there	-0.2895325
-3.105871	, therefore
-3.033749	, these
-2.317472	, they
-1.946444	, this	-0.03788801
-3.434607	, though
-3.434607	, three
-1.661345	, to	-0.01290136
-3.086687	, today
-2.820218	, too	-0.1645072
-3.434607	, traffic
-3.452044	, tying
-3.452044	, uncontrolled
-3.300576	, under
-3.300576	, unemployment
-3.434607	, until
-3.017447	, was
-3.452044	, water
-1.480381	, we	-0.1212526
-3.452044	, weight
-2.800358	, what
-3.105871	, when
-3.105871	, where
-3.452044	, whereas
-3.300576	, whether
-1.364023	, which	-0.1411287
-3.434607	, while
-3.452044	, whilst
-2.20338	, who	-0.05028532
-3.404123	, whose
-2.42107	, will
-2.034848	, with
-3.366796	, without
-2.810174	, would
-3.404123	, yet
-2.697172	, you
-1.19518	- cohesion
-1.186825	- or
-1.076168	- to
-0.6371723	-40ºc .
-0.01131084	. </s>
-3.309993	. all
-3.365183	. exemptions
-2.420635	. i
-2.7998	. mr
-3.365183	. nevertheless
-3.184875	. that
-3.252866	. this
-0.7206507	.... </s>
-1.324613	/ 35
-1.324613	/ 55
-0.7680693	/ ec
-0.7228321	000 jobs
-1.555886	1 )
-1.196876	1 ,
-1.566063	1 additionality
-1.329111	1 and
-1.566063	1 january
-1.545587	1 regions
-1.566063	1 status
-0.6467938	10 ,
-0.9208726	11 of
-0.9907218	11 on
-0.7232161	12 p.m.	-0.5403948
-0.7223949	143 concerning
-0.7232161	15 september
-0.6467938	158 ,
-0.7230508	164 votes
-0.7230508	166 votes
-0.7230508	17 december
-1.02354	18 december
-1.024049	18 november
-0.6467938	1989 ,
-0.6467938	1993 ,
-0.6801673	1994 and
-0.6371723	1996 .
-0.6371723	1997 .
-0.8300486	1998 ,
-1.478384	1998 ?
-1.299918	1998 and
-1.471433	1998 i
-1.414431	1998 is
-0.7691368	1999 ,
-1.117559	1999 .
-1.388027	1999 have
-1.404235	1999 was
-1.31829	2 )
-1.051338	2 .
-1.32349	2 specifically
-1.322619	2 zoning
-0.7232161	20 degrees
-0.8825868	2003 ,
-0.8661578	2003 .
-0.7223949	27 cases
-0.7230508	299 (
-0.7228321	35 /
-0.7230508	37 %
-0.7232161	40 degrees
-0.7230508	5.5 %
-1.02354	50 %
-1.02387	50 million
-0.7232161	540 million
-0.7228321	55 /
-0.7233056	60 000
-0.7232161	7 abstentions
-0.7232161	8.25 p.m.
-0.7204332	80 amendments
-0.7230508	87 (
-0.6467938	88 ,
-0.7233056	9002 certificates
-0.7228321	94 /
-0.7228321	95 /
-1.158883	: </s>
-1.720123	: dropping
-1.708704	: even
-1.712638	: firstly
-1.708704	: how
-1.429533	: in
-1.646757	: it
-1.064027	: the
-1.239065	; and
-1.420684	; framework
-1.379356	; it
-1.417689	; rather
-1.241224	; the
-2.084744	<s> (	-0.2967716
-1.942498	<s> a
-2.987759	<s> according	-0.1645072
-3.514012	<s> adoption
-3.47418	<s> agenda
-3.499605	<s> agriculture
-2.342092	<s> all	-0.06990246
-3.014466	<s> also
-2.116245	<s> and
-3.385741	<s> another
-3.514012	<s> apart
-2.64581	<s> are
-1.786157	<s> as	-0.09962065
-2.334915	<s> at	-0.25653
-1.896577	<s> but	-0.1581304
-2.202599	<s> by
-3.312299	<s> cohesion
-2.969426	<s> commissioner	-0.1645072
-2.361831	<s> competition
-3.514012	<s> concentrating
-3.385741	<s> concerning
-2.61478	<s> consequently	-0.4154561
-3.47418	<s> decisions
-3.514012	<s> delays
-3.47418	<s> despite
-3.514012	<s> drawing
-3.499605	<s> dropping
-3.194644	<s> economic
-3.413267	<s> effective
-3.499605	<s> equally
-2.894469	<s> europe
-2.589518	<s> even
-3.514012	<s> fifthly
-1.954741	<s> finally	-0.8925773
-2.94944	<s> firstly	-0.1645072
-3.499605	<s> following
-2.114254	<s> for	-0.05807954
-3.514012	<s> fourthly
-3.499605	<s> framework
-3.049906	<s> from
-3.413267	<s> funds
-2.61478	<s> furthermore	-0.4154561
-3.499605	<s> genuine
-2.992141	<s> hence
-2.939781	<s> here
-3.514012	<s> hopefully
-2.930332	<s> how
-2.015325	<s> however	-0.5653248
-3.442657	<s> human
-0.9419549	<s> i	-0.3316673
-2.005486	<s> if	-0.2387171
-1.404302	<s> in	-0.1037639
-3.47418	<s> increased
-2.274251	<s> indeed	-0.3641986
-2.527556	<s> is
-1.291408	<s> it	-0.4251845
-2.86939	<s> its
-3.442657	<s> key
-3.442657	<s> let
-3.499605	<s> looking
-1.704018	<s> madam	-1.114426
-3.514012	<s> margarine
-3.212171	<s> member
-3.514012	<s> moreover
-2.959318	<s> most
-1.284129	<s> mr	-0.7288672
-2.598131	<s> mrs
-1.933748	<s> my	-0.09954994
-3.335427	<s> national
-3.499605	<s> next
-2.912031	<s> no
-2.992141	<s> nonetheless	-0.1645072
-3.212171	<s> now
-2.152983	<s> of
-2.520224	<s> on
-3.312299	<s> once
-2.541145	<s> one
-3.194644	<s> only
-3.088498	<s> or
-2.242902	<s> our	-0.05787483
-3.130857	<s> parliament
-3.194644	<s> people
-3.514012	<s> personally
-2.987759	<s> please
-3.499605	<s> poverty
-3.385741	<s> president
-2.969426	<s> projects
-2.398693	<s> public	-0.07397125
-3.335427	<s> quite
-3.413267	<s> reform
-3.359856	<s> regarding
-3.177798	<s> regional
-3.413267	<s> relating
-3.514012	<s> resumption
-3.212171	<s> safety
-3.499605	<s> secondly
-3.514012	<s> seven
-3.47418	<s> several
-3.116273	<s> should
-3.385741	<s> small
-2.372048	<s> so
-3.269441	<s> social
-2.930332	<s> some
-3.335427	<s> still
-3.212171	<s> structural
-2.61478	<s> subsidies
-3.47418	<s> supporting
-3.514012	<s> surely
-2.085753	<s> thank	-0.7834328
-2.101593	<s> that	-0.364982
-0.9094499	<s> the	-0.1333252
-3.290342	<s> then
-1.758743	<s> there	-0.2064174
-2.379871	<s> therefore	-0.5403948
-2.065186	<s> these	-0.1326967
-2.248699	<s> they	-0.1931888
-3.514012	<s> thirdly
-1.143686	<s> this	-0.2445285
-3.335427	<s> those
-2.10075	<s> to	-0.1020618
-3.194644	<s> today
-3.359856	<s> tomorrow
-3.2495	<s> too
-3.290342	<s> transport
-3.290342	<s> two
-3.385741	<s> under
-2.992141	<s> unfortunately	-0.1645072
-2.537347	<s> very
-1.194337	<s> we	-0.3041033
-2.959318	<s> well	-0.1645072
-2.250649	<s> what	-0.2972351
-2.379871	<s> when
-3.385741	<s> whether
-2.61478	<s> while
-2.162207	<s> why	-0.2307201
-3.514012	<s> wishing
-2.831929	<s> with
-3.161581	<s> within
-3.514012	<s> wrongly
-2.987759	<s> yes	-0.1645072
-1.989129	<s> you	-0.07209116
-0.05420075	? </s>
-2.010002	? i
-2.895463	a "
-2.961452	a bad
-2.924716	a balance
-2.842276	a basis
-2.948195	a better
-2.961452	a brake
-2.961452	a card
-2.817942	a case
-2.961452	a catalogue
-2.842276	a certain
-2.924716	a change
-2.948195	a close
-2.842276	a commission
-2.961452	a competition-friendly
-2.924716	a competitive
-2.961452	a comprehensive
-2.924716	a concern
-2.948195	a conference
-2.924716	a considerable
-2.961452	a constitutional
-2.961452	a continuation
-2.924716	a contribution
-2.961452	a cost-intensive
-2.948195	a council
-2.961452	a crust
-2.362933	a debate	-0.1645072
-2.961452	a deep
-2.948195	a delay
-2.948195	a demand
-2.948195	a demand-orientated
-2.924716	a diversity
-2.961452	a dutch
-1.83112	a europe	-0.1981392
-2.713299	a european
-2.961452	a fair
-2.895463	a far
-1.612186	a few	-0.09894244
-2.895463	a french
-2.41583	a fundamental
-2.948195	a generally
-2.948195	a genuine
-2.961452	a gesture
-1.851087	a good
-2.41583	a great	-0.1645072
-2.961452	a half
-2.436609	a happy	-0.1645072
-2.961452	a higher
-2.961452	a highly
-2.41583	a key
-2.41583	a large
-2.924716	a late
-2.924716	a legislative
-2.961452	a lesser
-2.436609	a little
-2.895463	a long
-2.436609	a lot
-2.948195	a maiden
-2.868056	a major
-2.961452	a marker
-2.362933	a market	-0.1645072
-2.04747	a matter	-0.05722549
-2.895463	a means
-2.924716	a meeting
-2.67761	a member
-2.961452	a message
-2.961452	a meticulous
-2.961452	a military
-2.868056	a minimum
-2.948195	a minute
-2.961452	a modest
-2.961452	a moment
-2.961452	a moral
-2.475754	a more
-2.794899	a necessary
-2.817942	a need
-2.379859	a new
-2.961452	a nuisance
-1.6133	a number	-0.716486
-2.842276	a part
-2.868056	a particular
-2.868056	a particularly
-2.961452	a percentage
-2.842276	a period
-2.924716	a personal
-2.961452	a perspective
-2.961452	a petition
-2.961452	a pity
-2.961452	a pleasant
-1.833566	a point	-0.1982063
-1.994616	a policy
-2.895463	a political
-2.895463	a position
-2.842276	a positive
-2.895463	a previous
-2.41583	a priority
-2.397472	a process	-0.1018189
-2.948195	a product
-2.961452	a proliferation
-2.817942	a proposal
-2.868056	a proposed
-2.817942	a public
-2.961452	a purely
-2.794899	a quite
-2.948195	a real
-2.961452	a region
-2.948195	a register
-2.961452	a regular
-2.545668	a report
-2.961452	a response
-2.895463	a responsible
-2.961452	a risk
-2.948195	a scoreboard
-2.961452	a self-supporting
-2.432607	a sense
-2.432607	a serious
-2.425308	a significant
-2.948195	a simple
-2.961452	a sin
-2.397472	a situation
-2.961452	a slim
-2.842276	a small
-2.732307	a social
-2.948195	a sound
-2.961452	a spanish
-2.961452	a special
-2.895463	a spirit
-2.558498	a state
-2.948195	a statement
-2.67761	a structural
-2.924716	a subject
-2.948195	a success
-2.948195	a successful
-2.961452	a successive
-2.948195	a sufficient
-2.961452	a supposedly
-2.924716	a sustainable
-2.961452	a systematic
-2.948195	a tax
-2.948195	a third
-2.948195	a total
-2.924716	a transit
-2.924716	a true
-2.961452	a unified
-2.961452	a vague
-2.280062	a very
-2.868056	a view
-2.362933	a way	-0.2686534
-2.948195	a whole
-2.842276	a wish
-2.961452	a workable
-2.948195	a worse
-0.7232161	abc newspaper
-0.2505631	able to
-1.347237	about .
-1.825895	about at
-1.893407	about balance
-1.850284	about competition
-1.895314	about creating
-1.804853	about it
-1.876125	about market
-1.48911	about of
-1.893407	about perfect
-1.893407	about rule
-0.5874292	about the
-0.717399	above all
-0.6686268	abreast of
-0.6371723	abroad .
-0.6467938	absent ,
-0.7221765	absolute rules
-1.197131	absolutely certain
-1.199854	absolutely disgraceful
-1.199586	absolutely essential
-1.020925	abstentions )
-0.8825868	abstentions ,
-0.8825868	abuses ,
-1.022667	abuses ;
-0.9124414	accept that
-0.8835152	accept the
-1.479901	accept their
-1.43722	accept this
-0.6779923	acceptable to
-0.6467938	acceptance ,
-0.717399	accepts all
-0.6779923	access to
-0.7233056	accessible via
-0.7193471	accident ?
-0.6779923	accidents to
-0.7199984	accommodated within
-0.7221765	accompanying measures
-0.7184802	accomplished there
-0.6371723	accord .
-0.4627567	accordance with	-0.415456
-0.6807624	accorded the
-0.4462769	according to
-1.192592	account any
-1.05311	account of	-0.1882847
-1.187462	account very
-0.6686268	accumulation of
-0.6801673	accurate and
-0.7197812	accuse us
-0.6686268	accused of
-1.299737	achieve an
-1.313151	achieve economic
-1.322619	achieve harmonisation
-1.324506	achieve socially
-0.9804727	achieved .
-1.193884	achieved objective
-1.198436	achieved through
-1.018327	achieving economic
-0.9428096	achieving the
-0.7230508	acquitted him
-1.008084	act as
-1.024049	act decisively
-1.100168	action .
-1.411239	action because
-1.392442	action more
-1.19865	action of
-1.375408	action which
-0.8661578	activities .
-0.9420844	activities in
-0.7206507	activity into
-0.7230508	actual direction
-1.566063	actually achieved
-1.564913	actually agree
-1.566686	actually hinders
-1.564913	actually include
-1.527084	actually not
-1.566686	actually passes
-1.566686	actually quoted
-0.9420844	adapted in
-0.9377583	adapted to
-1.015314	add state
-0.9428096	add the
-0.7233056	added value
-0.6467938	addition ,
-1.198436	additional efforts
-1.199586	additional explanations
-1.199854	additional layers
-0.4263398	additionality .	-0.1645072
-0.6807624	address the
-0.6779923	adequate to
-0.7232161	adequately demonstrate
-0.4462769	adhere to
-0.6779923	adjacent to
-0.7063114	adjourned on
-1.024049	administration costs
-0.9208726	administration of
-1.024049	administrative processes
-1.022667	administrative reform
-0.703165	admiration for
-0.701288	admit that
-0.2511361	adopt the
-1.220572	adopted ,
-1.18556	adopted .
-1.617193	adopted against
-1.615482	adopted amendment
-1.562489	adopted by
-1.364427	adopted the
-1.620636	adopted thus
-1.622368	adopted unanimously
-0.7105424	adopting this
-0.6686268	adoption of
-0.8661578	advance .
-1.024049	advance warning
-0.7105424	advertising this
-0.7210861	advice about
-0.7204332	advise people
-1.168747	advisers are
-1.142106	advisers for
-1.082129	advisers in
-0.8661578	advisors .
-1.021795	advisors working
-0.6686268	advocates of
-1.001973	affairs ,
-1.081629	affairs and
-1.174278	affairs has
-1.024049	affect everyone
-0.9428096	affect the
-0.3819415	affected by
-1.316712	affected regions
-0.7206507	afford safety
-0.6803656	afresh in
-1.182392	after all
-1.197131	after area
-1.19648	after tomorrow
-0.7150298	afternoon by
-1.233103	again ,
-0.9035243	again .	-0.1645072
-1.370954	again and
-1.371882	again in
-1.360874	again to
-1.553842	again with
-1.620917	again without
-1.151777	against .
-1.421544	against a
-1.299918	against and
-0.8794731	against the
-1.432963	against this
-0.816357	agenda .	-0.7164861
-1.485448	agenda </s>
-1.486637	agenda does
-1.397626	agenda for
-1.41242	agenda on
-0.7146005	aggravates it
-1.022355	ago ,
-0.5789633	ago .	-0.1645072
-1.266025	agree on
-1.249719	agree that
-0.7581195	agree with
-0.7230508	agreed yesterday
-0.7232161	agreement reached
-0.7232161	agreements legitimate
-0.6467938	agrees ,
-1.023103	agricultural economy
-1.017895	agricultural regions
-0.9417222	agriculture and
-1.018327	agriculture only
-0.6467938	ahern ,
-0.9803526	aid ,
-0.9636799	aid .	-0.9797274
-2.059352	aid according
-1.32703	aid and
-2.006007	aid can
-1.50614	aid code
-2.059352	aid forms
-1.431204	aid is
-1.989321	aid must
-1.966989	aid not
-1.98606	aid report
-1.319263	aid to	-0.07272743
-2.016335	aid where
-1.917101	aid which
-0.6467938	aided ,
-0.8661578	aims .
-0.9377583	aims to
-0.7228321	air quality
-0.6779923	alert to
-0.7233056	alexander nikitin
-0.7133149	aligned with
-0.2417772	alike .	-0.4154559
-0.999028	all ,	-0.159018
-1.364481	all .	-0.1645072
-2.334732	all about
-2.341078	all aid
-1.748439	all and
-2.322313	all areas
-2.395483	all available
-2.374274	all concerning
-2.298492	all countries
-2.395483	all due
-2.403999	all else
-2.40099	all experiencing
-2.403999	all hell
-2.403999	all hold
-2.254444	all i
-1.750075	all in
-2.039869	all is
-2.403999	all kinds
-2.388298	all know
-0.8753135	all of	-0.06309921
-2.298492	all our
-1.843229	all public
-2.310239	all regions
-1.963864	all that
-0.963822	all the
-2.298492	all these
-1.745425	all this
-1.833189	all too	-0.1645072
-2.403999	all types
-2.214455	all we
-0.7219582	alleviate some
-0.6467938	allocations ,
-0.7197812	allow us
-0.6779923	allowed to
-0.7215219	allowing them
-0.7228321	almost four
-0.8661578	alone .
-1.02136	alone cannot
-0.9428096	along the
-0.9989032	along this
-1.215578	already .
-1.675367	already aided
-1.114145	already been
-1.673185	already declared
-1.675367	already endorsed
-1.665771	already mentioned
-1.671319	already referred
-1.674599	already taking
-1.155928	also ,
-1.670977	also a
-2.165244	also an
-2.361696	also applies
-2.322444	also ask
-2.365242	also asked
-2.365242	also assume
-1.409417	also be
-2.361696	also bear
-1.789722	also been
-2.277497	also being
-2.35522	also benefit
-2.361696	also causes
-2.330409	also continue
-2.361696	also develop
-2.361696	also discussing
-2.365242	also drew
-2.361696	also expect
-2.365242	also fit
-2.361696	also forms
-2.306939	also important
-1.480242	also in
-2.35522	also interesting
-2.346791	also lead
-1.799081	also like	-0.1645072
-2.361696	also mention
-2.322444	also mentioned
-2.176376	also more
-1.563294	also of
-2.361696	also pass
-2.365242	also permit
-2.330409	also possible
-2.314622	also quite
-2.346791	also refer
-2.314622	also take
-1.63484	also to
-2.224	also very
-0.7180474	although i
-1.558874	always adopted
-1.547043	always do
-1.517438	always have
-1.566063	always produce
-1.566686	always strike
-1.558874	always support
-1.566686	always upheld
-1.830546	am absolutely
-1.822219	am certain
-1.763187	am not
-1.824977	am particularly
-1.827753	am pleased
-1.833821	am raising
-1.833821	am referring
-1.830546	am speaking
-1.833821	am terribly
-1.800764	am therefore
-1.830546	am thinking
-1.832668	am totally
-1.782823	am very
-1.023103	ambition applied
-1.015314	ambition must
-1.022667	amend directive
-0.9428096	amend the	-0.1645072
-1.020925	amended )
-1.02387	amended comitology
-1.012747	amendment ,
-1.285409	amendment .
-1.461523	amendment in
-1.053769	amendment of	-0.1645072
-0.7814267	amendment tabled	-0.4154561
-1.450289	amendment to	-0.1645072
-1.151422	amendments ,
-1.339251	amendments .	-0.1645072
-1.876192	amendments also
-1.820285	amendments are
-1.94643	amendments concern
-1.376277	amendments from	-0.1645072
-1.000532	amendments have	-0.1002226
-1.559138	amendments in
-1.937377	amendments tabled
-1.240062	amendments to
-1.359379	amendments which
-1.024049	american army
-1.02387	american monetary
-1.022231	among other
-0.9428096	among the
-0.6686268	amount of
-0.9420844	amsterdam in
-1.02387	amsterdam provides
-2.286103	an amendment
-2.301021	an analysis
-1.773562	an appropriate
-2.293498	an area
-2.322451	an education
-2.301021	an effective
-1.392033	an end	-0.07303122
-2.325722	an enormous
-2.325722	an equal
-2.301021	an excellent
-2.325722	an excuse
-1.776192	an explanation	-0.09957589
-2.301021	an extremely
-2.325722	an ideologue
-2.322451	an impact
-1.387379	an important
-2.322451	an in-depth
-2.301021	an increase
-2.325722	an indication
-2.325722	an influence
-2.316471	an initiative
-2.322451	an instrument
-2.322451	an integrated
-2.325722	an interest
-2.322451	an internal
-2.325722	an invitation
-2.325722	an islander
-2.325722	an objection
-2.325722	an obstacle
-2.325722	an old
-2.325722	an oversight
-2.325722	an unfavourable
-2.325722	an unimpeded
-2.325722	an unjustifiable
-2.325722	an unnecessary
-1.018327	analyse amendments
-0.9428096	analyse the
-0.6371723	analysed .	-0.1645072
-0.6371723	analyses .
-0.7651814	analysis .	-0.1645072
-0.8012801	analysis of
-1.421344	analysis pertains
-0.6803656	anchored in
-1.381608	and ,	-0.1259355
-3.02539	and 1999
-3.060721	and 2
-3.105831	and 7
-1.654108	and a
-3.089451	and adapted
-3.089451	and administration
-2.933935	and adopted
-2.962333	and again
-3.089451	and agricultural
-2.555083	and all
-2.346428	and also
-3.089451	and ambition
-3.089451	and analyse
-3.105831	and anti
-3.105831	and anyone
-2.207699	and are
-3.105831	and austere
-3.089451	and barriers
-3.060721	and basic
-2.658362	and between
-3.105831	and brazil
-2.268567	and by
-2.907281	and cannot
-3.105831	and capacities
-2.962333	and clear
-2.882169	and cohesion	-0.1645072
-3.02539	and community
-2.962333	and companies
-3.089451	and company
-3.105831	and competence
-3.105831	and complicated
-3.060721	and congratulate
-3.089451	and constructive
-3.060721	and consumer
-2.962333	and continue
-3.060721	and could
-2.704445	and countries
-3.105831	and country-specific
-3.105831	and defending
-3.089451	and demand
-3.089451	and demand-orientated
-2.992718	and details
-2.155335	and development
-3.105831	and direct
-3.105831	and disturbing
-2.450299	and do
-2.794128	and does
-3.02539	and each
-3.089451	and eastern
-2.756005	and economic
-3.089451	and environmental
-3.060721	and especially
-3.089451	and establish
-3.089451	and explain
-3.089451	and facts
-3.089451	and finally
-3.089451	and finding
-2.962333	and firstly
-1.884855	and for
-3.105831	and forces
-3.060721	and form
-3.105831	and gentlemen	-0.1645072
-3.105831	and geographical
-3.089451	and go
-3.089451	and greece
-3.060721	and growing
-3.105831	and gütesiegel
-2.907281	and how
-1.819585	and i	-0.09641127
-3.105831	and immediate
-2.563035	and implementation	-0.4154561
-3.02539	and implementing
-3.089451	and improve
-3.02539	and improving
-1.603344	and in
-3.105831	and industrial
-3.105831	and inland
-3.105831	and intensifying
-3.105831	and interfere
-2.189073	and is
-2.992718	and issues
-2.426708	and it
-2.756005	and its
-3.105831	and killings
-3.089451	and know-how
-3.089451	and lacks
-3.105831	and luxembourg
-2.835921	and made
-3.105831	and madeira
-3.105831	and medium-sized	-0.2666464
-3.105831	and mergers
-3.105831	and method
-3.105831	and millennium
-2.584077	and monetary	-0.1010453
-2.339379	and more
-2.133034	and mr
-2.375827	and my
-2.907281	and national
-2.907281	and necessary
-2.907281	and new
-3.105831	and newly
-3.060721	and northern
-2.339379	and not
-2.835921	and objective
-2.907281	and objectives
-3.089451	and observed
-1.653833	and of
-2.075227	and on	-0.1645072
-2.407361	and one
-3.105831	and openness
-3.089451	and operation
-3.089451	and organisation
-2.42403	and our
-3.105831	and outcome
-3.105831	and packaging
-2.688534	and parliament
-3.060721	and per
-3.060721	and poor
-3.060721	and potential
-3.089451	and produce
-3.105831	and promise
-2.529276	and public
-3.02539	and quality
-3.105831	and railways
-3.089451	and raised
-3.089451	and raises
-3.105831	and reads
-3.089451	and red
-2.992718	and reform	-0.1645072
-1.967511	and regional
-2.73813	and regions
-3.060721	and related
-3.060721	and require
-3.105831	and requires
-2.992718	and research
-3.089451	and retrodisplacement
-3.089451	and rightly
-2.992718	and role
-2.188615	and rural	-0.0720215
-2.459421	and safety
-3.089451	and savings
-3.105831	and sensible
-2.992718	and services
-3.02539	and shall
-2.673186	and should
-3.089451	and simple
-2.962333	and small
-2.141817	and so
-2.169287	and social	-0.2417915
-3.089451	and south
-2.644027	and state
-3.060721	and steel
-3.105831	and strategically
-3.105831	and structurally
-3.105831	and substantive
-3.060721	and sustainable
-3.060721	and technical
-3.105831	and television
-1.76106	and that	-0.07190119
-0.9950665	and the	-0.09750343
-2.673186	and their
-2.85843	and then
-1.944379	and there	-0.2679898
-3.105831	and thereby
-2.450299	and they
-2.288713	and this
-2.907281	and those
-2.563035	and thus
-1.480391	and to
-2.85843	and transport
-3.105831	and treat
-3.105831	and tuesday
-3.105831	and unknown
-3.105831	and urgent
-3.089451	and valuable
-2.658362	and very
-3.060721	and voted
-2.50113	and we
-3.089451	and wealth
-2.774648	and what
-2.774648	and when
-2.774648	and where
-2.962333	and whether
-2.39379	and which
-2.85843	and who
-2.521914	and will
-2.720961	and within
-3.089451	and workers
-2.590997	and you
-3.089451	and young
-2.814522	and your
-0.7219582	annexes cannot
-1.02354	annual presentation
-1.02136	annual reports
-1.136065	another .
-1.495902	another directive
-1.493316	another issue
-1.49949	another occasion
-1.493316	another proposal
-1.493316	another sector
-0.6371723	answer .
-0.9804727	answered .
-1.082129	answered in
-1.199586	answered previously
-0.7233056	ante assessments
-0.7233056	anti grass-roots
-1.919126	any additional
-1.905593	any case
-1.921729	any chance
-1.912307	any comments
-1.921729	any customers
-1.923144	any difference
-1.923144	any event	-0.1645072
-1.923144	any initiatives
-1.912307	any major
-1.912307	any members
-1.908937	any problem
-1.919126	any rate
-1.923144	any reference
-1.905593	any sector
-1.919126	any significant
-1.895713	any way
-0.7215219	anyone who
-0.7167516	anything at
-0.6371723	anyway .
-0.7233056	aparicio sánchez
-0.7182637	apart from
-0.6467938	apparently ,
-0.7233056	appeal formally
-0.6371723	appealing .
-0.6803656	appeared in
-0.6779923	appears to
-0.7182637	applause from
-0.7223949	applicable law
-1.308072	applied competition
-1.173786	applied in
-1.321749	applied properly
-1.166436	applied to
-0.4462769	applies to
-1.267145	apply a
-1.324149	apply equally
-1.173786	apply in
-1.275652	apply this
-0.6686268	appraisal of
-1.006821	appreciate it
-0.9428096	appreciate the
-0.8661578	appreciation .
-0.9377583	appreciation to
-0.6779923	approach to
-1.051338	appropriate .
-1.315713	appropriate european
-1.320882	appropriate level
-1.324149	appropriate tool
-0.6371723	appropriation .
-0.72174	approved )
-0.9428096	approving the
-0.9989032	approving this
-1.252492	are ,	-0.07322854
-1.910776	are a
-2.669607	are affected
-2.398254	are also
-2.524167	are amendments
-2.669607	are applied
-2.365861	are at
-2.704998	are badly
-2.704998	are becoming
-2.54724	are being
-2.698088	are coming
-1.57538	are concerned	-0.04437403
-2.685603	are considerable
-2.685603	are contained
-2.698088	are developing
-2.704998	are disappearing
-2.704998	are disbursed
-2.698088	are discussing
-2.704998	are dissatisfied
-2.698088	are doing
-2.65418	are effective
-2.704998	are engaged
-2.704998	are evolving
-2.698088	are experiencing
-2.698088	are generally
-2.698088	are getting
-2.610935	are given
-2.153747	are going	-0.1645072
-2.685603	are growing
-2.685603	are having
-1.641971	are in
-2.685603	are increasing
-2.704998	are indispensable
-2.698088	are intended
-2.53555	are just
-2.698088	are lacking
-2.698088	are looking
-2.65418	are major
-2.704998	are minimal
-2.584326	are no
-2.704998	are no-smoking
-1.235494	are not
-2.108324	are now
-2.698088	are obliged	-0.1645072
-1.56149	are of
-2.524167	are only
-2.491704	are our
-2.704998	are part-time
-2.669607	are pleased
-2.65418	are properly
-2.704998	are proposing
-2.135004	are quite
-2.685603	are related
-2.704998	are reminiscent
-2.698088	are saying
-2.704998	are seeking
-2.685603	are spent
-2.45188	are state
-1.571604	are still
-2.704998	are supported
-1.491644	are the
-2.067206	are there
-2.698088	are three
-1.3643	are to	-0.04599079
-2.524167	are today
-2.559254	are too
-2.685603	are transit
-2.698088	are transported
-2.125927	are two
-2.704998	are unacceptably
-2.639281	are under
-2.704998	are urged
-2.65418	are used
-0.9973155	area ,
-1.253139	area .
-1.718808	area after
-1.654566	area as
-1.714978	area concerned
-1.066877	area in	-0.1645072
-1.159185	area where
-1.42547	areas ,
-0.5176847	areas .	-0.7834328
-1.593748	areas and
-1.835807	areas are
-1.911809	areas can
-1.949438	areas developing
-1.594924	areas in
-1.883441	areas not
-1.232588	areas of
-1.950528	areas represent
-1.911809	areas within
-0.701288	argues that
-0.7232161	ari vatanen
-0.7233056	arms producers
-0.6371723	army .
-0.6807624	around the
-0.7199984	arrangement within
-0.7167516	arrived at
-1.12872	article ,
-1.42113	article 158
-1.42113	article 299
-1.42113	article 87
-1.42113	article 88
-1.505721	as ,
-1.138478	as a	-0.03528555
-2.314009	as all
-1.582101	as an
-2.512726	as article
-2.542663	as austria
-2.542663	as current
-2.542663	as customers
-2.502351	as did
-2.547286	as employers
-2.492219	as employment
-1.994045	as far	-0.415456
-2.547286	as follows
-1.770359	as for
-2.523354	as french
-2.341434	as from
-2.235231	as has
-2.534249	as having
-2.334414	as i
-1.741309	as in
-2.547286	as indicated
-1.887419	as it
-2.418689	as its
-2.547286	as judge
-2.492219	as mentioned
-1.948781	as mr
-1.98773	as much	-0.1645072
-2.34857	as my
-2.38612	as parliament
-2.512726	as particularly
-2.418689	as people
-2.547286	as perhaps
-2.502351	as positive
-2.502351	as possible
-2.534249	as rapporteur
-2.542663	as recent
-1.619599	as regards
-2.402099	as so
-2.542663	as soon
-1.16651	as the
-2.394036	as these
-1.395692	as to
-2.38612	as was
-2.281997	as we
-1.61537	as well	-0.2972351
-1.929171	as you	-0.5403948
-0.6801673	asia and
-1.281345	ask .
-1.604396	ask for
-1.759979	ask him
-1.744175	ask if
-1.753985	ask ourselves
-0.8002118	ask that
-1.472092	ask the
-1.193642	ask you	-0.5403948
-0.703165	asked for
-0.9428096	asking the
-0.9377583	asking to
-0.8661578	aspects .
-0.9208726	aspects of
-0.7191302	assassinated very
-0.7152447	assessed as
-0.9428096	assessing the
-1.016173	assessing their
-0.7180474	assessment you
-0.713743	assessments which
-0.6803656	assimilated in
-0.7193471	assume their
-0.7180474	assure you
-2.286851	at 12	-0.5403948
-2.286851	at 8.25
-2.223547	at ?
-1.32071	at a
-1.338512	at all
-2.246863	at any
-2.250298	at european
-2.240072	at its
-1.144489	at least
-2.230082	at our
-1.144014	at present	-0.2673853
-2.264318	at some
-0.4546156	at the	-0.0353565
-2.10755	at this
-0.8825868	attach ,
